{"learner":{"attributes":{"scikit_learn":"{\"_estimator_type\": \"classifier\"}"},"feature_names":[],"feature_types":[],"gradient_booster":{"model":{"gbtree_model_param":{"num_parallel_tree":"1","num_trees":"300"},"iteration_indptr":[0,1,2,3,4,5,6,7,8,9,10,11,12,13,14,15,16,17,18,19,20,21,22,23,24,25,26,27,28,29,30,31,32,33,34,35,36,37,38,39,40,41,42,43,44,45,46,47,48,49,50,51,52,53,54,55,56,57,58,59,60,61,62,63,64,65,66,67,68,69,70,71,72,73,74,75,76,77,78,79,80,81,82,83,84,85,86,87,88,89,90,91,92,93,94,95,96,97,98,99,100,101,102,103,104,105,106,107,108,109,110,111,112,113,114,115,116,117,118,119,120,121,122,123,124,125,126,127,128,129,130,131,132,133,134,135,136,137,138,139,140,141,142,143,144,145,146,147,148,149,150,151,152,153,154,155,156,157,158,159,160,161,162,163,164,165,166,167,168,169,170,171,172,173,174,175,176,177,178,179,180,181,182,183,184,185,186,187,188,189,190,191,192,193,194,195,196,197,198,199,200,201,202,203,204,205,206,207,208,209,210,211,212,213,214,215,216,217,218,219,220,221,222,223,224,225,226,227,228,229,230,231,232,233,234,235,236,237,238,239,240,241,242,243,244,245,246,247,248,249,250,251,252,253,254,255,256,257,258,259,260,261,262,263,264,265,266,267,268,269,270,271,272,273,274,275,276,277,278,279,280,281,282,283,284,285,286,287,288,289,290,291,292,293,294,295,296,297,298,299,300],"tree_info":[0,0,0,0,0,0,0,0,0,0,0,0,0,0,0,0,0,0,0,0,0,0,0,0,0,0,0,0,0,0,0,0,0,0,0,0,0,0,0,0,0,0,0,0,0,0,0,0,0,0,0,0,0,0,0,0,0,0,0,0,0,0,0,0,0,0,0,0,0,0,0,0,0,0,0,0,0,0,0,0,0,0,0,0,0,0,0,0,0,0,0,0,0,0,0,0,0,0,0,0,0,0,0,0,0,0,0,0,0,0,0,0,0,0,0,0,0,0,0,0,0,0,0,0,0,0,0,0,0,0,0,0,0,0,0,0,0,0,0,0,0,0,0,0,0,0,0,0,0,0,0,0,0,0,0,0,0,0,0,0,0,0,0,0,0,0,0,0,0,0,0,0,0,0,0,0,0,0,0,0,0,0,0,0,0,0,0,0,0,0,0,0,0,0,0,0,0,0,0,0,0,0,0,0,0,0,0,0,0,0,0,0,0,0,0,0,0,0,0,0,0,0,0,0,0,0,0,0,0,0,0,0,0,0,0,0,0,0,0,0,0,0,0,0,0,0,0,0,0,0,0,0,0,0,0,0,0,0,0,0,0,0,0,0,0,0,0,0,0,0,0,0,0,0,0,0,0,0,0,0,0,0,0,0,0,0,0,0,0,0,0,0,0,0,0,0,0,0,0,0],"trees":[{"base_weights":[-6.044935E-3,1.611217E0,-9.8854077E-1,2.0161564E0,-3.531217E-1,-1.29142E0,1.2521976E0,2.1079252E0,-9.854945E-1,-1.3495085E0,1.9436953E0,9.861189E-1,-1.5156105E0,-1.3738259E0,1.6935487E0,-8.981668E-2,2.1501942E0,-3.008583E-1,-1.1085367E0,1.5828972E0,-1.6822625E0,2.1433027E0,-1.3967555E0,-9.068414E-2,1.8044271E0,-1.6054858E0,1.5484464E0,-1.7892631E0,2.023052E0,2.0012748E0,-1.4838073E0,-8.97238E-2,2.1902769E0,9.0724945E-2,-1.3090329E0,2.6437068E-2,-1.1536222E0,1.0898973E-1,-8.4350026E-1,-1.8149279E0,-7.170053E-1,2.2053366E0,-4.9303064E-1,3.7207108E-2,-8.696218E-2,-1.2037332E0,2.1138606E0,1.0972722E-1,-1.6533221E0,2.0171943E0,-1.5668793E0,-4.0101334E-2,-9.061228E-2,1.0619324E-1,4.905946E-2,2.1409018E0,-8.7556267E-1,-8.98421E-2,1.0073479E-1,-8.880463E-2,2.214059E0,9.855918E-1,-4.658033E-1,-7.635969E-2,-3.3907052E-2,1.3502386E-2,-1.1821066E0,-1.3858527E0,6.426943E-2,-3.3907052E-2,-9.0932645E-2,-1.0654864E0,1.7778133E0,4.905946E-2,1.106325E-1,3.202113E-2,-6.829417E-2,1.7446061E0,-1.7506423E0,2.2033596E0,-1.2945931E0,1.099475E-1,-1.6948388E0,2.1038198E0,-6.618588E-2,3.7207108E-2,-8.873415E-2,2.2048404E0,-8.5560805E-1,-8.8064335E-2,1.0008184E-1,-7.269516E-2,2.216453E0,-6.3747005E-3,9.14632E-2,2.0426562E-2,-9.2019784E-1,-1.2207475E0,-2.756643E-3,-3.2383278E-2,-8.137894E-2,-5.761177E-2,4.7634795E-2,1.8902017E-2,-1.1217924E0,3.7207108E-2,1.0073479E-1,9.971861E-2,3.7207108E-2,-8.965367E-2,-3.3907052E-2,1.6500272E-3,1.10627726E-1,-1.5304706E0,-1.2227337E-2,1.6926522E0,-1.7369386E0,-7.635969E-2,2.1799905E0,-6.946413E-2,1.1077442E-1,-1.1795661E0,2.0426562E-2,-2.2054693E-2,1.1089003E-1,2.5198269E-3,-7.1428195E-2,-6.5139055E-2,-2.6813686E-2,-6.754181E-2,-3.6465105E-2,-8.424131E-2,-3.3907052E-2,-8.556094E-2,1.0822933E-1,1.0942353E-1,-8.823847E-2,1.1048762E-1,-1.0202332E-2,-7.165559E-2,-2.1493665E-3],"categories":[],"categories_nodes":[],"categories_segments":[],"categories_sizes":[],"default_left":[0,0,0,0,0,0,0,0,0,0,0,0,0,0,0,0,0,0,0,0,0,0,0,0,0,0,0,0,0,0,0,0,0,0,0,0,0,0,0,0,0,0,0,0,0,0,0,0,0,0,0,0,0,0,0,1,0,0,0,0,0,0,0,0,0,0,0,0,0,0,0,0,1,0,0,0,0,0,0,0,0,0,0,0,0,0,0,0,0,0,0,0,0,0,0,0,0,0,0,0,0,0,0,0,0,0,0,0,0,0,0,0,0,0,0,0,0,0,0,0,0,0,0,0,0,0,0,0,0,0,0,0,0,0,0,0,0,0,0,0,0],"id":0,"left_children":[1,3,5,7,9,11,13,15,17,19,21,23,25,27,29,-1,31,33,35,37,39,41,43,-1,45,47,49,51,53,55,57,-1,59,61,63,-1,65,-1,67,69,71,73,75,-1,-1,77,79,-1,81,83,85,-1,-1,-1,-1,87,89,-1,-1,-1,91,93,95,-1,-1,-1,97,99,101,-1,-1,103,105,-1,-1,-1,-1,107,109,111,113,-1,115,117,-1,-1,-1,119,121,-1,-1,-1,123,-1,-1,-1,125,127,-1,-1,-1,-1,-1,-1,129,-1,-1,-1,-1,-1,-1,-1,-1,131,-1,133,135,-1,137,-1,-1,139,-1,-1,-1,-1,-1,-1,-1,-1,-1,-1,-1,-1,-1,-1,-1,-1,-1,-1,-1],"loss_changes":[3.585892E4,6.784783E3,9.52945E3,1.9498984E3,3.340465E3,6.316492E3,1.9403806E3,1.1362441E3,1.7395004E1,9.9582117E2,2.9750757E2,2.5439443E3,3.1032441E3,3.4393475E2,1.4031392E3,0E0,1.0773164E3,1.3317693E1,1.3751022E1,1.5281314E2,1.1581641E2,6.9314575E1,1.9999458E1,0E0,8.017744E2,1.9921934E3,4.724602E2,3.43396E0,7.2556305E-1,5.264761E2,1.4272571E2,0E0,6.379082E2,1.2917268E1,2.6057625E-1,0E0,7.357712E0,0E0,1.0576578E1,2.1687012E0,9.940969E1,1.4798584E0,1.1171896E1,0E0,0E0,1.3321545E2,2.4045898E2,0E0,1.7316445E3,8.375464E1,2.1775826E1,0E0,0E0,0E0,0E0,2.4058154E2,1.5939224E2,0E0,0E0,0E0,6.188672E1,9.54228E0,6.773345E0,0E0,0E0,0E0,7.3508453E0,1.333231E0,1.0741088E1,0E0,0E0,8.4741745E0,1.958641E0,0E0,0E0,0E0,0E0,1.7972374E0,1.9054108E0,1.5081055E1,4.717823E0,0E0,1.5273809E3,7.886047E1,0E0,0E0,0E0,4.9770996E1,1.1436176E1,0E0,0E0,0E0,2.4894531E1,0E0,0E0,0E0,5.4518642E0,8.546524E0,0E0,0E0,0E0,0E0,0E0,0E0,7.6069107E0,0E0,0E0,0E0,0E0,0E0,0E0,0E0,0E0,1.0410728E0,0E0,2.1530505E2,1.1573711E3,0E0,1.945874E1,0E0,0E0,6.1483574E0,0E0,0E0,0E0,0E0,0E0,0E0,0E0,0E0,0E0,0E0,0E0,0E0,0E0,0E0,0E0,0E0,0E0,0E0,0E0],"parents":[2147483647,0,0,1,1,2,2,3,3,4,4,5,5,6,6,7,7,8,8,9,9,10,10,11,11,12,12,13,13,14,14,16,16,17,17,18,18,19,19,20,20,21,21,22,22,24,24,25,25,26,26,27,27,28,28,29,29,30,30,32,32,33,33,34,34,36,36,38,38,39,39,40,40,41,41,42,42,45,45,46,46,48,48,49,49,50,50,55,55,56,56,60,60,61,61,62,62,66,66,67,67,68,68,71,71,72,72,77,77,78,78,79,79,80,80,82,82,83,83,87,87,88,88,92,92,96,96,97,97,104,104,113,113,115,115,116,116,118,118,121,121],"right_children":[2,4,6,8,10,12,14,16,18,20,22,24,26,28,30,-1,32,34,36,38,40,42,44,-1,46,48,50,52,54,56,58,-1,60,62,64,-1,66,-1,68,70,72,74,76,-1,-1,78,80,-1,82,84,86,-1,-1,-1,-1,88,90,-1,-1,-1,92,94,96,-1,-1,-1,98,100,102,-1,-1,104,106,-1,-1,-1,-1,108,110,112,114,-1,116,118,-1,-1,-1,120,122,-1,-1,-1,124,-1,-1,-1,126,128,-1,-1,-1,-1,-1,-1,130,-1,-1,-1,-1,-1,-1,-1,-1,132,-1,134,136,-1,138,-1,-1,140,-1,-1,-1,-1,-1,-1,-1,-1,-1,-1,-1,-1,-1,-1,-1,-1,-1,-1,-1],"split_conditions":[7.064638E-2,1.2752897E-1,-1.3880354E-1,6.2000008E1,2.3569429E-1,-8.764081E-2,-2.76707E-2,2.3802803E-1,1.4572838E-1,-2.1883519E-1,-3.242299E-1,2.4525322E-1,6.008539E-1,-1.0877131E-1,-1.6264215E-1,-8.981668E-2,2.1104614E-1,-1.9863807E-2,1.2202874E-2,6.2000008E1,5.614603E-2,6.2000008E1,1.7529817E-1,-9.068414E-2,-5.2345462E-2,4.073439E-1,2.955782E-1,4.7544613E-1,-2.8401744E-1,-1.2139111E-1,-6.3740484E-2,-8.97238E-2,2.3471963E-1,1.2451784E-1,-8.643991E-2,2.6437068E-2,-1.4955986E-1,1.0898973E-1,1.7212565E-1,-7.396145E-2,-3.7035045E-1,-4.1103914E-1,-1.8707736E-1,3.7207108E-2,-8.696218E-2,6.5694116E-2,6.2000008E1,1.0972722E-1,1.7204815E-1,6.2000008E1,5.842704E-2,-4.0101334E-2,-9.061228E-2,1.0619324E-1,4.905946E-2,2.1804018E-1,-2.2313319E-1,-8.98421E-2,1.0073479E-1,-8.880463E-2,5.895031E-1,-4.5477054E-1,5.198481E-1,-7.635969E-2,-3.3907052E-2,1.3502386E-2,4.501162E-1,-4.2199764E-1,-8.279766E-2,-3.3907052E-2,-9.0932645E-2,-3.997691E-1,2E0,4.905946E-2,1.106325E-1,3.202113E-2,-6.829417E-2,5.1E1,4.3774152E-1,-7.896392E-2,2.556187E-1,1.099475E-1,-9.4649635E-2,2.6401877E-1,-6.618588E-2,3.7207108E-2,-8.873415E-2,4.2462796E-1,1.8903555E-1,-8.8064335E-2,1.0008184E-1,-7.269516E-2,6.882856E-1,-6.3747005E-3,9.14632E-2,2.0426562E-2,2.5549486E-1,-5.3228147E-2,-2.756643E-3,-3.2383278E-2,-8.137894E-2,-5.761177E-2,4.7634795E-2,1.8902017E-2,3.2469803E-1,3.7207108E-2,1.0073479E-1,9.971861E-2,3.7207108E-2,-8.965367E-2,-3.3907052E-2,1.6500272E-3,1.10627726E-1,-4.0671027E-1,-1.2227337E-2,-2.9738593E-1,6.613762E-1,-7.635969E-2,-1.0257611E-1,-6.946413E-2,1.1077442E-1,2.964006E-1,2.0426562E-2,-2.2054693E-2,1.1089003E-1,2.5198269E-3,-7.1428195E-2,-6.5139055E-2,-2.6813686E-2,-6.754181E-2,-3.6465105E-2,-8.424131E-2,-3.3907052E-2,-8.556094E-2,1.0822933E-1,1.0942353E-1,-8.823847E-2,1.1048762E-1,-1.0202332E-2,-7.165559E-2,-2.1493665E-3],"split_indices":[2619,2483,2182,2005,2772,2158,2207,525,2669,2418,2141,1718,2156,2364,2439,0,1718,2639,2046,2005,2313,2005,2768,0,2491,304,2448,2736,2038,2297,2435,0,468,2499,2042,0,2477,0,2774,2790,2394,2140,2507,0,0,2032,2005,0,1916,2005,2195,0,0,0,0,170,2410,0,0,0,685,2469,2743,0,0,0,2270,2141,2221,0,0,2406,2002,0,0,0,0,2003,2121,2324,2592,0,2421,486,0,0,0,1375,2321,0,0,0,450,0,0,0,2658,2472,0,0,0,0,0,0,2325,0,0,0,0,0,0,0,0,2028,0,2682,286,0,2068,0,0,2209,0,0,0,0,0,0,0,0,0,0,0,0,0,0,0,0,0,0,0],"split_type":[0,0,0,0,0,0,0,0,0,0,0,0,0,0,0,0,0,0,0,0,0,0,0,0,0,0,0,0,0,0,0,0,0,0,0,0,0,0,0,0,0,0,0,0,0,0,0,0,0,0,0,0,0,0,0,0,0,0,0,0,0,0,0,0,0,0,0,0,0,0,0,0,0,0,0,0,0,0,0,0,0,0,0,0,0,0,0,0,0,0,0,0,0,0,0,0,0,0,0,0,0,0,0,0,0,0,0,0,0,0,0,0,0,0,0,0,0,0,0,0,0,0,0,0,0,0,0,0,0,0,0,0,0,0,0,0,0,0,0,0,0],"sum_hessian":[2.2565637E4,8.527724E3,1.4037914E4,7.0702065E3,1.4575167E3,1.2366733E4,1.6711802E3,6.860752E3,2.0945459E2,1.0168203E3,4.406964E2,1.1079305E3,1.1258803E4,2.4015479E2,1.4310254E3,7.3036766E1,6.7877153E3,3.2433277E1,1.7702132E2,1.032418E2,9.1357855E2,4.1618576E2,2.4510643E1,2.5030566E2,8.5762494E2,1.0938432E4,3.2037143E2,2.1440623E2,2.5748554E1,1.3050061E3,1.2601937E2,6.783754E1,6.7198774E3,2.4015478E1,8.417797E0,4.4564805E0,1.7256483E2,8.2940056E1,2.0301744E1,8.024141E2,1.1116444E2,4.0677765E2,9.408126E0,3.2185693E0,2.1292074E1,7.972149E1,7.7790344E2,1.3542749E2,1.0803004E4,2.7877762E2,4.159382E1,5.6943917E0,2.0871184E2,2.2529985E1,3.2185693E0,1.2448436E3,6.0162487E1,1.1611608E2,9.90329E0,3.961316E1,6.6802646E3,8.912961E0,1.5102518E1,5.1992273E0,3.2185693E0,3.2185693E0,1.6934627E2,1.2379113E1,7.922632E0,3.2185693E0,7.991955E2,9.804257E1,1.312186E1,3.2185693E0,4.0355908E2,4.2088985E0,5.1992273E0,1.2131531E1,6.758996E1,7.583445E2,1.9558998E1,1.14630585E2,1.0688374E4,2.720929E2,6.684721E0,3.2185693E0,3.8375248E1,1.2190951E3,2.5748554E1,4.6297882E1,1.3864607E1,3.961316E0,6.676303E3,4.2088985E0,4.704063E0,5.1992273E0,9.90329E0,1.6365187E2,5.6943917E0,3.961316E0,8.417797E0,3.2185693E0,4.704063E0,3.4661517E0,9.457642E1,3.2185693E0,9.90329E0,8.912961E0,3.2185693E0,6.437138E1,3.2185693E0,3.2185693E0,7.5512585E2,1.5597682E1,3.961316E0,1.3072343E2,1.055765E4,5.1992273E0,2.6689368E2,3.2185693E0,1.2158765E3,2.0549328E1,5.1992273E0,3.2185693E0,6.6730845E3,3.713734E0,6.1895566E0,1.4533078E2,1.8321087E1,5.818183E1,3.6394592E1,1.2379113E1,3.2185693E0,1.5597682E1,1.1512575E2,7.377951E1,1.0483871E4,2.636751E2,3.2185693E0,1.658801E1,3.961316E0],"tree_param":{"num_deleted":"0","num_feature":"2796","num_nodes":"141","size_leaf_vector":"1"}},{"base_weights":[-2.510925E-3,1.4608847E0,-9.8374397E-1,1.8930064E0,-2.3791072E-1,-1.2191054E0,1.6589954E0,1.9904197E0,-9.824587E-1,1.6562812E0,-1.4309127E0,1.0447737E-1,-1.4182537E0,-1.3272129E0,1.8859351E0,-8.685293E-2,2.0603008E0,2.803861E-2,-1.0142137E0,2.0734184E0,-9.325595E-1,-1.6298869E0,1.7376631E0,-1.6236793E0,2.6596045E-1,9.331813E-2,-8.631439E-2,2.0148818E0,-6.9418377E-1,-3.9562732E-1,2.0782902E0,-1.1694204E0,-6.2729764E-1,-2.1121813E-2,1.04360394E-1,-8.076156E-2,-1.0717149E0,-1.7219247E0,1.7549455E0,1.0282337E-1,-6.1871864E-2,1.7750716E0,-1.6809403E0,-1.1531322E0,1.2401496E0,2.0395432E0,-1.09147E0,-1.576357E0,8.705982E-2,9.88952E-2,-8.493426E-2,2.0840707E0,-7.972679E-2,-2.5078407E-1,-1.2228395E0,1.0186535E-2,-8.873113E-1,6.4184465E-2,-5.987387E-1,-3.2250142E-1,-1.2026063E0,6.8763874E-2,-1.7329664E0,1.0057342E-1,-1.0514173E-2,-1.3693498E0,2.058742E0,1.0152844E-1,-1.6990663E0,1.6034077E0,-1.5718614E0,1.7505888E0,-1.30671E0,2.060597E0,-7.970773E-1,-7.121353E-2,-2.1102035E-2,-9.231322E-3,-8.513166E-2,-7.702641E-2,2.0878327E0,2.5142817E-2,-6.8367995E-2,-1.2566743E0,1.4875096E-2,-6.342476E-2,4.2946568E-1,1.2972369E-2,-1.0866504E0,2.6614336E-2,-1.0943933E0,-1.0244212E0,4.432782E-1,6.9064365E-5,-1.2718772E0,-7.1416193E-1,-1.7423109E0,-2.2657586E-2,-8.011996E-2,-2.1666577E-2,1.0563033E-1,1.04887046E-1,-1.7154819E0,-7.860058E-2,1.04724884E-1,9.843675E-2,-1.6997929E0,1.9370102E0,-8.5055955E-2,9.770024E-2,-8.6778186E-2,2.076117E0,-6.976351E-2,3.3643902E-3,-7.005197E-2,-4.3816645E-2,1.0446768E-1,-6.4494185E-2,-3.241514E-5,5.6619067E-2,-1.9355528E-2,3.8412567E-2,-4.915187E-2,-6.0734015E-2,1.4766577E-2,-7.195001E-2,-2.0437462E-2,-6.921132E-2,-1.9946007E-2,6.104511E-2,-2.1980477E-2,-7.1182944E-2,-3.4910444E-2,1.5506103E-2,-6.33493E-2,-8.730235E-2,-2.4780186E-2,9.033791E-2,-8.635555E-2,8.4639944E-2,-8.6850256E-2,1.0284733E-1,-8.3170526E-2,1.04449116E-1,-1.2316122E-2],"categories":[],"categories_nodes":[],"categories_segments":[],"categories_sizes":[],"default_left":[0,0,0,0,0,0,0,0,0,0,0,0,0,0,0,0,0,0,0,0,0,0,0,0,0,0,0,0,0,0,1,0,0,0,0,0,0,0,0,0,0,0,0,0,0,0,0,0,0,0,0,0,0,0,0,0,0,0,0,0,0,0,0,0,0,0,0,0,0,0,0,1,0,1,0,0,0,0,0,0,0,0,0,0,0,0,0,0,0,0,0,0,0,0,0,0,0,0,0,0,0,0,0,0,0,0,0,1,0,0,0,0,0,0,0,0,0,0,0,0,0,0,0,0,0,0,0,0,0,0,0,0,0,0,0,0,0,0,0,0,0,0,0,0,0],"id":1,"left_children":[1,3,5,7,9,11,13,15,17,19,21,-1,23,25,27,-1,29,-1,31,33,35,37,39,41,43,-1,-1,45,47,49,51,53,55,-1,-1,57,59,61,63,-1,-1,65,67,69,71,73,75,77,-1,-1,-1,79,-1,81,83,85,87,-1,89,91,93,-1,95,-1,-1,97,99,-1,101,103,105,107,109,111,113,-1,-1,-1,-1,-1,115,-1,-1,117,-1,-1,119,121,123,-1,125,127,129,-1,131,133,135,-1,-1,-1,-1,-1,137,-1,-1,-1,139,141,-1,-1,-1,143,-1,-1,-1,-1,-1,-1,-1,-1,-1,-1,-1,-1,-1,-1,-1,-1,-1,-1,-1,-1,-1,-1,-1,-1,-1,-1,-1,-1,-1,-1,-1,-1,-1],"loss_changes":[3.2469479E4,6.6631113E3,8.4213955E3,2.0287441E3,4.163534E3,8.193014E3,7.529431E2,1.826666E3,1.22204895E1,7.708762E2,7.154829E2,0E0,4.0569062E3,1.0364732E2,3.4392944E2,0E0,3.0436914E2,0E0,1.3278198E1,2.1997803E1,1.1707451E1,3.3451953E2,6.6350555E1,2.0367383E3,1.7647019E3,0E0,0E0,7.736255E1,1.0962627E2,1.6047807E2,1.4813672E2,7.8084564E0,1.1439039E1,0E0,0E0,1.1408003E1,7.991501E0,3.782788E1,1.4872818E1,0E0,0E0,1.5769275E2,6.9486914E2,6.02374E2,9.860896E2,5.9777344E1,1.2651138E0,6.195999E0,0E0,0E0,0E0,9.608203E1,0E0,9.393583E0,8.399796E0,1.1785303E1,8.806133E0,0E0,7.0818434E0,8.019223E0,6.037674E0,0E0,8.591553E0,0E0,0E0,2.46986E0,2.2347473E1,0E0,6.4108594E2,1.1093625E2,2.0793042E2,4.09224E2,1.8087178E2,5.4737305E1,4.2146487E0,0E0,0E0,0E0,0E0,0E0,3.2503906E1,0E0,0E0,6.3735657E0,0E0,0E0,9.929823E0,8.179546E0,7.457691E0,0E0,1.3937473E0,1.1684484E0,5.63707E0,0E0,4.964859E0,6.6696825E0,3.9001465E0,0E0,0E0,0E0,0E0,0E0,4.2028125E2,0E0,0E0,0E0,5.8040527E1,2.6207568E2,0E0,0E0,0E0,2.9275879E1,0E0,0E0,0E0,0E0,0E0,0E0,0E0,0E0,0E0,0E0,0E0,0E0,0E0,0E0,0E0,0E0,0E0,0E0,0E0,0E0,0E0,0E0,0E0,0E0,0E0,0E0,0E0,0E0,0E0,0E0,0E0,0E0,0E0],"parents":[2147483647,0,0,1,1,2,2,3,3,4,4,5,5,6,6,7,7,8,8,9,9,10,10,12,12,13,13,14,14,16,16,18,18,19,19,20,20,21,21,22,22,23,23,24,24,27,27,28,28,29,29,30,30,31,31,32,32,35,35,36,36,37,37,38,38,41,41,42,42,43,43,44,44,45,45,46,46,47,47,51,51,53,53,54,54,55,55,56,56,58,58,59,59,60,60,62,62,65,65,66,66,68,68,69,69,70,70,71,71,72,72,73,73,74,74,80,80,83,83,86,86,87,87,88,88,90,90,91,91,92,92,94,94,95,95,96,96,102,102,106,106,107,107,111,111],"right_children":[2,4,6,8,10,12,14,16,18,20,22,-1,24,26,28,-1,30,-1,32,34,36,38,40,42,44,-1,-1,46,48,50,52,54,56,-1,-1,58,60,62,64,-1,-1,66,68,70,72,74,76,78,-1,-1,-1,80,-1,82,84,86,88,-1,90,92,94,-1,96,-1,-1,98,100,-1,102,104,106,108,110,112,114,-1,-1,-1,-1,-1,116,-1,-1,118,-1,-1,120,122,124,-1,126,128,130,-1,132,134,136,-1,-1,-1,-1,-1,138,-1,-1,-1,140,142,-1,-1,-1,144,-1,-1,-1,-1,-1,-1,-1,-1,-1,-1,-1,-1,-1,-1,-1,-1,-1,-1,-1,-1,-1,-1,-1,-1,-1,-1,-1,-1,-1,-1,-1,-1,-1],"split_conditions":[7.825152E-2,1.0681509E-1,5.9976196E-1,6.2000008E1,-1.6795798E-1,4.628145E-1,2.3142251E-1,2.4525322E-1,-1.4413054E-1,6.2000008E1,1.691014E-1,1.0447737E-1,2.5303048E-1,-7.670395E-3,5.708859E-1,-8.685293E-2,1.3955168E-1,2.803861E-2,3.2384582E-2,1.2150038E-1,-5.0203013E-1,5.568989E-1,-2.5376862E-1,-3.326475E-1,2.921254E-2,9.331813E-2,-8.631439E-2,6.3984805E-1,4.9301556E-1,2.6976926E-2,2.651185E-1,-4.2265165E-1,-1.44878E-1,-2.1121813E-2,1.04360394E-1,7.663161E-2,9.374661E-2,9.402844E-2,-3.0715686E-1,1.0282337E-1,-6.1871864E-2,5.3533727E-1,4.073439E-1,-3.4596264E-1,2.3878603E-1,6.2000008E1,1.982497E-2,2.4300304E-1,8.705982E-2,9.88952E-2,-8.493426E-2,7.626588E-1,-7.972679E-2,-2.5445887E-1,4.553845E-1,-2.3756087E-1,4.4013202E-1,6.4184465E-2,2.3148276E-1,2.0164636E-1,-1.7217444E-1,6.8763874E-2,-1.2687573E-1,1.0057342E-1,-1.0514173E-2,3.727317E-2,3.068548E-1,1.0152844E-1,3.0432096E-1,-5.3746635E-1,2.5078598E-1,2.6524195E-1,1.3013074E-1,3.7840196E-1,2.7455397E-2,-7.121353E-2,-2.1102035E-2,-9.231322E-3,-8.513166E-2,-7.702641E-2,-3.2655784E-1,2.5142817E-2,-6.8367995E-2,1.25971E-1,1.4875096E-2,-6.342476E-2,-1.8472232E0,-2.7138308E-1,-1.8590251E-2,2.6614336E-2,3.188396E-1,-2.0395216E-1,-3.3351985E-1,6.9064365E-5,6.3847154E-2,-3.9138034E-2,-1.3565619E-2,-2.2657586E-2,-8.011996E-2,-2.1666577E-2,1.0563033E-1,1.04887046E-1,-4.286633E-2,-7.860058E-2,1.04724884E-1,9.843675E-2,6.613762E-1,1.8592854E-1,-8.5055955E-2,9.770024E-2,-8.6778186E-2,2.7431253E-1,-6.976351E-2,3.3643902E-3,-7.005197E-2,-4.3816645E-2,1.0446768E-1,-6.4494185E-2,-3.241514E-5,5.6619067E-2,-1.9355528E-2,3.8412567E-2,-4.915187E-2,-6.0734015E-2,1.4766577E-2,-7.195001E-2,-2.0437462E-2,-6.921132E-2,-1.9946007E-2,6.104511E-2,-2.1980477E-2,-7.1182944E-2,-3.4910444E-2,1.5506103E-2,-6.33493E-2,-8.730235E-2,-2.4780186E-2,9.033791E-2,-8.635555E-2,8.4639944E-2,-8.6850256E-2,1.0284733E-1,-8.3170526E-2,1.04449116E-1,-1.2316122E-2],"split_indices":[2619,2788,2156,2005,2787,842,2202,1718,2573,2005,2324,0,2226,2611,2773,0,2537,0,2160,2034,2299,2658,2529,2673,2120,0,0,2786,2188,2031,668,2169,2508,0,0,2422,2630,2144,2030,0,0,215,304,2654,2629,2005,2079,2479,0,0,0,190,0,2718,2148,2268,2253,0,2193,2641,2245,0,2386,0,0,2488,2678,0,537,2096,304,181,2046,1032,2289,0,0,0,0,0,2264,0,0,2167,0,0,2695,2544,2787,0,2747,2725,2029,0,2609,2194,2247,0,0,0,0,0,2290,0,0,0,286,509,0,0,0,2619,0,0,0,0,0,0,0,0,0,0,0,0,0,0,0,0,0,0,0,0,0,0,0,0,0,0,0,0,0,0,0,0,0],"split_type":[0,0,0,0,0,0,0,0,0,0,0,0,0,0,0,0,0,0,0,0,0,0,0,0,0,0,0,0,0,0,0,0,0,0,0,0,0,0,0,0,0,0,0,0,0,0,0,0,0,0,0,0,0,0,0,0,0,0,0,0,0,0,0,0,0,0,0,0,0,0,0,0,0,0,0,0,0,0,0,0,0,0,0,0,0,0,0,0,0,0,0,0,0,0,0,0,0,0,0,0,0,0,0,0,0,0,0,0,0,0,0,0,0,0,0,0,0,0,0,0,0,0,0,0,0,0,0,0,0,0,0,0,0,0,0,0,0,0,0,0,0,0,0,0,0],"sum_hessian":[2.2610125E4,9.075129E3,1.3534995E4,7.2347227E3,1.8404067E3,1.2428644E4,1.1063518E3,6.9979575E3,2.3676503E2,7.110488E2,1.1293579E3,7.050723E2,1.1723571E4,7.7797485E1,1.0285543E3,1.2834097E2,6.869616E3,4.437786E0,2.3232724E2,6.1254865E2,9.850022E1,1.0630859E3,6.627201E1,1.0449116E4,1.2744553E3,8.2334E0,6.956409E1,9.7980554E2,4.8748737E1,4.9800495E1,6.819816E3,1.6436984E2,6.79574E1,3.202883E0,6.0934576E2,1.4053901E1,8.444632E1,1.0354227E3,2.7663153E1,6.013669E1,6.1353226E0,1.7262915E2,1.0276487E4,5.186943E2,7.55761E2,9.724289E2,7.376692E0,3.6044857E1,1.2703882E1,1.7466753E1,3.233374E1,6.8095312E3,1.0284875E1,9.345849E0,1.55024E2,1.996626E1,4.799114E1,3.4603643E0,1.0593536E1,1.3074226E1,7.137209E1,3.2393537E0,1.0321833E3,2.444836E1,3.2147932E0,1.396815E1,1.58661E2,4.9404022E1,1.0227083E4,6.802817E1,4.506661E2,6.2984143E2,1.2591958E2,9.655361E2,6.892778E0,4.174025E0,3.2026665E0,3.2032197E0,3.2841637E1,6.6367297E0,6.8028945E3,5.9079103E0,3.4379394E0,1.5181874E2,3.2052624E0,4.4301496E0,1.5536111E1,8.869294E0,3.912184E1,3.2053652E0,7.388171E0,6.6453214E0,6.4289045E0,3.9362752E0,6.743582E1,1.0084812E1,1.0220986E3,3.4296083E0,1.0538542E1,3.2077537E0,1.5545325E2,4.3480988E1,1.0183602E4,8.81684E0,5.9211327E1,1.5214167E1,4.3545193E2,5.979841E2,3.185738E1,1.4222783E1,1.1169679E2,9.6161676E2,3.9193108E0,3.2006836E0,3.6920943E0,3.1934848E0,6.7997007E3,1.4788176E2,3.9369683E0,8.141283E0,7.3948274E0,5.174282E0,3.6950119E0,3.59156E1,3.2062447E0,4.185679E0,3.2024922E0,3.4486034E0,3.1967182E0,3.2146635E0,3.214241E0,5.2154945E1,1.5280873E1,3.6889222E0,6.3958898E0,1.0186454E3,3.4531977E0,3.300369E1,1.0150599E4,4.2418017E0,4.3121014E2,5.791212E2,1.8862846E1,9.564192E2,5.197586E0],"tree_param":{"num_deleted":"0","num_feature":"2796","num_nodes":"145","size_leaf_vector":"1"}},{"base_weights":[-3.3715258E-3,1.4453514E0,-9.099271E-1,1.833592E0,-1.6900533E-1,9.911968E-2,-1.1092749E0,1.9210565E0,-8.930508E-1,1.5754948E0,-1.4646686E0,1.3391973E0,-1.396818E0,-8.3036326E-2,1.9541986E0,-4.0686417E-1,-1.000649E0,-1.4691154E0,1.8417757E0,-1.6103051E0,9.193292E-1,1.8212837E0,-8.8989496E-1,1.7206335E0,-1.4665837E0,-8.0897085E-2,1.9659877E0,5.19446E-1,-7.4665225E-1,2.7104093E-2,-1.0365264E0,-1.5753498E0,-1.3106683E-2,9.898045E-2,-6.7720586E-1,-1.6342378E0,1.2869223E0,9.696125E-2,-7.9590775E-2,-7.7555254E-2,1.8959655E0,-8.397397E-2,9.781709E-2,1.9326007E0,-9.562866E-1,1.2903948E0,-1.5340105E0,1.9746261E0,-7.937048E-2,-1.7938977E-2,7.462429E-2,2.616552E-2,-1.0132154E0,-1.0784299E0,9.019291E-3,-8.219444E-2,-1.9059343E-2,4.7946688E-2,-8.7425935E-1,-8.500163E-1,-8.423072E-2,3.223088E-2,7.943653E-2,1.9545577E0,-1.1831411E0,1.0105621E-1,-6.598524E-2,9.543449E-3,-1.3316227E0,1.8802867E0,-1.4796767E0,9.861358E-2,-1.582153E0,1.9805082E0,-7.733541E-2,-1.3969946E-1,-1.3280413E0,1.5023413E-2,-1.1155545E0,-1.048459E0,2.1433683E-2,3.0623857E-2,-9.9442345E-1,-7.773983E-2,9.9404946E-2,-1.4735656E0,1.6905865E-2,-7.809349E-2,-2.5144285E-2,9.9376015E-2,-7.2567385E-1,-8.196113E-2,2.9414818E-2,1.8306379E0,-1.6164991E0,-4.3370422E-2,9.910047E-2,-5.7621863E-2,5.0921272E-2,-7.725139E-2,-2.5687477E-2,-5.8531858E-2,-2.4979962E-2,1.5907893E-2,-6.179742E-2,-6.1017215E-2,-1.1421052E-2,-8.093234E-2,-3.3334933E-2,1.7321896E-2,-6.572478E-2,-6.9721915E-2,9.8941386E-2,1.02880575E-1,-8.192434E-2],"categories":[],"categories_nodes":[],"categories_segments":[],"categories_sizes":[],"default_left":[0,0,0,0,0,0,0,0,0,0,0,0,0,0,0,0,0,0,0,0,0,0,0,0,0,0,1,0,0,0,0,0,0,0,0,0,0,0,0,0,0,0,0,0,0,0,0,1,0,0,0,0,0,0,0,0,0,0,0,0,0,0,0,0,0,0,0,0,0,0,0,0,0,0,0,0,0,0,0,0,0,0,0,0,0,0,0,0,0,0,0,0,0,0,0,0,0,0,0,0,0,0,0,0,0,0,0,0,0,0,0,0,0,0,0],"id":2,"left_children":[1,3,5,7,9,-1,11,13,15,17,19,21,23,-1,25,27,29,31,33,35,37,39,41,43,45,-1,47,49,51,-1,53,55,-1,-1,57,59,61,-1,-1,-1,63,-1,-1,65,67,69,71,73,-1,-1,-1,-1,75,77,-1,-1,-1,-1,79,81,-1,-1,-1,83,85,-1,-1,-1,87,89,91,-1,93,95,-1,97,99,-1,101,103,-1,-1,105,-1,-1,107,-1,-1,-1,-1,109,-1,-1,111,113,-1,-1,-1,-1,-1,-1,-1,-1,-1,-1,-1,-1,-1,-1,-1,-1,-1,-1,-1,-1],"loss_changes":[2.9439082E4,5.4078184E3,7.951798E3,1.6604141E3,3.7850337E3,0E0,9.08344E3,8.0325586E2,1.0937134E1,5.8133716E2,3.3508032E2,1.4589705E3,2.513248E3,0E0,2.8440625E2,1.328653E1,1.0351715E1,7.018593E0,2.2936914E2,6.491577E1,1.4639114E2,2.838462E2,5.4673016E2,1.454903E2,2.1010762E3,0E0,2.0745703E2,1.0437917E1,1.0818991E1,0E0,9.026337E0,3.7169647E0,0E0,0E0,1.2063775E1,3.4080322E1,5.230608E-1,0E0,0E0,0E0,1.9925488E2,0E0,0E0,7.0298096E1,8.539785E0,4.44159E2,1.8637734E3,1.4061328E2,0E0,0E0,0E0,0E0,6.81633E0,8.913513E0,0E0,0E0,0E0,0E0,7.621273E0,1.2494377E1,0E0,0E0,0E0,1.2922949E2,9.779621E0,0E0,0E0,0E0,2.0051727E0,6.3795532E1,1.6795395E1,0E0,1.2775723E3,3.0066406E1,0E0,1.0395832E1,2.492321E0,0E0,4.958832E0,7.6090355E0,0E0,0E0,8.650997E0,0E0,0E0,1.0076561E0,0E0,0E0,0E0,0E0,6.4849963E0,0E0,0E0,5.476416E1,8.7312305E2,0E0,0E0,0E0,0E0,0E0,0E0,0E0,0E0,0E0,0E0,0E0,0E0,0E0,0E0,0E0,0E0,0E0,0E0,0E0,0E0],"parents":[2147483647,0,0,1,1,2,2,3,3,4,4,6,6,7,7,8,8,9,9,10,10,11,11,12,12,14,14,15,15,16,16,17,17,18,18,19,19,20,20,21,21,22,22,23,23,24,24,26,26,27,27,28,28,30,30,31,31,34,34,35,35,36,36,40,40,43,43,44,44,45,45,46,46,47,47,52,52,53,53,58,58,59,59,63,63,64,64,68,68,69,69,70,70,72,72,73,73,75,75,76,76,78,78,79,79,82,82,85,85,90,90,93,93,94,94],"right_children":[2,4,6,8,10,-1,12,14,16,18,20,22,24,-1,26,28,30,32,34,36,38,40,42,44,46,-1,48,50,52,-1,54,56,-1,-1,58,60,62,-1,-1,-1,64,-1,-1,66,68,70,72,74,-1,-1,-1,-1,76,78,-1,-1,-1,-1,80,82,-1,-1,-1,84,86,-1,-1,-1,88,90,92,-1,94,96,-1,98,100,-1,102,104,-1,-1,106,-1,-1,108,-1,-1,-1,-1,110,-1,-1,112,114,-1,-1,-1,-1,-1,-1,-1,-1,-1,-1,-1,-1,-1,-1,-1,-1,-1,-1,-1,-1],"split_conditions":[7.064638E-2,1.0681509E-1,4.628145E-1,6.2000008E1,-4.124562E-1,9.911968E-2,-6.830026E-2,1.6840921E-1,1.4572838E-1,2.765467E-1,-7.418034E-2,4.9832344E-1,-3.326475E-1,-8.3036326E-2,-1.7476273E-1,-7.403137E-2,-2.0283033E-1,6.164333E-2,6.2000008E1,-1.9226421E0,-1.985804E-1,-2.6295156E0,1.4233938E-1,6.2000008E1,4.9063973E-3,-8.0897085E-2,2.0453392E-1,2.49387E-1,-2.583502E-1,2.7104093E-2,-1.7215893E-1,-4.7549658E-2,-1.3106683E-2,9.898045E-2,1.6397858E-1,-1.6615206E-1,-2.109118E-1,9.696125E-2,-7.9590775E-2,-7.7555254E-2,6.2000008E1,-8.397397E-2,9.781709E-2,-3.647213E-2,2.2846314E-1,-3.1401366E-1,2.5078598E-1,2.651185E-1,-7.937048E-2,-1.7938977E-2,7.462429E-2,2.616552E-2,2.747181E-1,-1.3609207E-1,9.019291E-3,-8.219444E-2,-1.9059343E-2,4.7946688E-2,-1.3690028E-1,5.747166E-1,-8.423072E-2,3.223088E-2,7.943653E-2,2.8437012E-1,2.5957173E-1,1.0105621E-1,-6.598524E-2,9.543449E-3,1.0821515E-1,6.2000008E1,2.2694345E-1,9.861358E-2,2.1250461E-1,4.1120952E-1,-7.733541E-2,-9.959288E-2,-1.5850526E-1,1.5023413E-2,7.526471E-2,-5.9098774E-1,2.1433683E-2,3.0623857E-2,1.9156046E-2,-7.773983E-2,9.9404946E-2,-4.3072936E-1,1.6905865E-2,-7.809349E-2,-2.5144285E-2,9.9376015E-2,-4.9952555E-1,-8.196113E-2,2.9414818E-2,2.259921E-1,4.2241696E-1,-4.3370422E-2,9.910047E-2,-5.7621863E-2,5.0921272E-2,-7.725139E-2,-2.5687477E-2,-5.8531858E-2,-2.4979962E-2,1.5907893E-2,-6.179742E-2,-6.1017215E-2,-1.1421052E-2,-8.093234E-2,-3.3334933E-2,1.7321896E-2,-6.572478E-2,-6.9721915E-2,9.8941386E-2,1.02880575E-1,-8.192434E-2],"split_indices":[2619,2788,842,2005,2416,0,2421,824,2669,2485,2036,2081,2673,0,2052,2283,2078,2079,2005,2170,2401,2170,2690,2005,2290,0,464,2373,2089,0,2076,2133,0,0,2128,2223,2310,0,0,0,2005,0,0,2720,2278,2218,304,668,0,0,0,0,2258,2573,0,0,0,0,2101,2743,0,0,0,948,2105,0,0,0,2245,2005,2647,0,191,450,0,2711,2468,0,2273,2394,0,0,2085,0,0,2049,0,0,0,0,2328,0,0,368,1336,0,0,0,0,0,0,0,0,0,0,0,0,0,0,0,0,0,0,0,0],"split_type":[0,0,0,0,0,0,0,0,0,0,0,0,0,0,0,0,0,0,0,0,0,0,0,0,0,0,0,0,0,0,0,0,0,0,0,0,0,0,0,0,0,0,0,0,0,0,0,0,0,0,0,0,0,0,0,0,0,0,0,0,0,0,0,0,0,0,0,0,0,0,0,0,0,0,0,0,0,0,0,0,0,0,0,0,0,0,0,0,0,0,0,0,0,0,0,0,0,0,0,0,0,0,0,0,0,0,0,0,0,0,0,0,0,0,0],"sum_hessian":[2.2413295E4,8.626733E3,1.3786562E4,6.9541714E3,1.6725618E3,8.88367E2,1.2898194E4,6.738317E3,2.1585443E2,7.127239E2,9.598379E2,1.3551594E3,1.1543035E4,6.1327408E1,6.6769897E3,3.9980835E1,1.758736E2,5.6958035E1,6.557658E2,9.0488385E2,5.4954063E1,1.114343E3,2.4081636E2,2.5214993E2,1.1290886E4,2.1515419E1,6.655474E3,1.0587924E1,2.939291E1,3.6764631E0,1.7219713E2,5.206983E1,4.888204E0,6.2194824E2,3.3817547E1,8.979026E2,6.981234E0,3.9243256E1,1.5710808E1,2.3714222E1,1.0906288E3,1.8883965E2,5.197672E1,2.3390651E2,1.824343E1,2.6911337E2,1.1021771E4,6.6397773E3,1.5697101E1,5.8969026E0,4.6910214E0,4.9321127E0,2.4460796E1,1.6657504E2,5.622091E0,4.888734E1,3.18249E0,3.2195106E0,3.0598038E1,5.5276627E1,8.42626E2,3.2341676E0,3.7470663E0,1.0706212E3,2.00076E1,2.2807712E2,5.8293896E0,4.6186686E0,1.3624761E1,2.2213132E2,4.6982067E1,1.4874147E2,1.087303E4,6.629141E3,1.0635873E1,6.8628554E0,1.7597942E1,4.181204E0,1.6239383E2,2.7161856E1,3.4361815E0,4.6762514E0,5.0600376E1,9.706361E0,1.0609148E3,1.6826578E1,3.181023E0,9.970131E0,3.6546292E0,2.1357996E2,8.5513525E0,4.3809456E1,3.1726089E0,1.0781427E2,1.0765216E4,3.1888275E0,6.6259526E3,3.6638577E0,3.1989975E0,1.31866665E1,4.411275E0,1.4823701E2,1.4156825E1,3.192762E0,2.3969093E1,3.8617573E1,1.1982804E1,1.3409376E1,3.4172013E0,3.1774943E0,5.373858E0,4.366901E0,1.0344737E2,6.3490498E1,1.0701726E4],"tree_param":{"num_deleted":"0","num_feature":"2796","num_nodes":"115","size_leaf_vector":"1"}},{"base_weights":[-3.6240337E-4,1.3330326E0,-9.097584E-1,1.7164143E0,-2.3368666E-1,-1.1823591E0,1.0597943E0,1.8004701E0,-8.4313923E-1,1.5058101E0,-1.4068793E0,9.4449185E-2,-1.3256284E0,1.4353737E0,-1.0776881E0,-8.083559E-2,1.8484589E0,2.782805E-2,-8.730522E-1,1.7229205E0,-8.4255993E-1,-1.5480753E0,9.308698E-1,-1.4181566E0,1.3072271E0,1.6567968E0,-1.3040497E0,1.7827597E0,-8.127742E-2,-8.0283456E-2,1.8729203E0,-9.5530534E-1,-4.079975E-1,9.433704E-2,-7.76496E-2,2.4387266E-2,-9.6845305E-1,8.3997905E-2,-1.583179E0,9.243411E-2,-7.747214E-2,9.750748E-2,-1.4679464E0,-5.660067E-1,1.8423324E0,1.7362808E0,-7.928383E-2,-1.5963957E0,8.697059E-2,4.1877545E-2,9.2194274E-2,-7.854571E-2,1.8825397E0,-9.836079E-1,2.3250464E-2,3.0641028E-1,-7.8972316E-1,-1.0668108E0,2.0679433E-2,-8.153709E-2,-8.4437835E-1,9.3989395E-2,-1.5125841E0,-1.1864501E0,1.7238302E0,1.8801923E0,-6.333809E-2,-1.9449343E-1,1.8332142E0,-8.0810525E-2,-3.8356613E-2,1.8868415E0,-7.32391E-2,-7.646565E-1,-1.1793749E0,1.1024286E0,-2.9567627E-2,-1.0300084E0,2.4458839E-2,-1.2080063E0,-3.6486205E-2,-9.995532E-1,6.815849E-2,9.972935E-2,-1.5540205E0,-1.4101933E0,7.918141E-2,9.216549E-2,4.4069774E-2,-4.0514182E-2,9.561146E-2,9.111958E-2,-7.944468E-2,1.885784E0,-7.219941E-1,-7.092297E-2,9.449194E-2,1.7668648E-2,-4.2764388E-2,-1.6434638E-2,-6.2342525E-2,6.6026584E-3,9.028712E-2,5.846187E-3,-6.2541515E-2,-6.8846904E-2,-9.751871E-3,4.052931E-2,-4.369272E-2,-5.6942474E-2,6.0347687E-3,8.815875E-2,-7.9582505E-2,7.462616E-2,-7.970902E-2,9.450923E-2,2.0123936E-2,-5.4782566E-2,3.9751463E-2],"categories":[],"categories_nodes":[],"categories_segments":[],"categories_sizes":[],"default_left":[0,0,0,0,0,0,0,0,0,0,0,0,0,0,0,0,0,0,0,0,0,0,0,0,0,1,0,0,0,0,0,0,0,0,0,0,0,0,0,0,0,0,0,0,0,0,0,0,0,0,0,0,1,0,0,0,0,0,0,0,0,0,0,0,0,0,0,0,0,0,0,0,0,0,0,0,0,0,0,0,0,0,0,0,0,0,0,0,0,0,0,0,0,1,0,0,0,0,0,0,0,0,0,0,0,0,0,0,0,0,0,0,0,0,0,0,0,0,0],"id":3,"left_children":[1,3,5,7,9,11,13,15,17,19,21,-1,23,25,27,-1,29,-1,31,33,35,37,39,41,43,45,47,49,-1,-1,51,53,55,-1,-1,-1,57,-1,59,-1,-1,-1,61,63,65,67,-1,69,-1,-1,-1,-1,71,73,-1,75,77,79,-1,-1,81,-1,83,85,87,89,-1,91,93,-1,-1,95,-1,97,99,101,-1,103,-1,105,107,109,-1,-1,111,113,-1,-1,-1,-1,-1,-1,-1,115,117,-1,-1,-1,-1,-1,-1,-1,-1,-1,-1,-1,-1,-1,-1,-1,-1,-1,-1,-1,-1,-1,-1,-1,-1],"loss_changes":[2.6886434E4,5.400577E3,7.0788525E3,1.5555469E3,3.6109705E3,5.098074E3,1.288611E3,1.149877E3,1.0130341E1,3.6485803E2,3.502107E2,0E0,2.69733E3,8.295571E2,3.7928302E2,0E0,5.8578906E2,0E0,8.25206E0,3.5324756E2,1.0686909E1,1.1561401E2,1.4129036E2,1.7955508E3,3.781048E2,3.2812695E2,9.4036606E1,7.137451E-1,0E0,0E0,2.2986328E2,8.144119E0,9.977048E0,0E0,0E0,0E0,8.06078E0,0E0,3.3291504E1,0E0,0E0,0E0,1.5770293E3,1.2187555E2,3.6849976E1,2.310752E2,0E0,3.0639648E-1,0E0,0E0,0E0,0E0,1.01125E2,7.148117E0,0E0,1.0050905E1,7.739462E0,7.60923E0,0E0,0E0,2.251469E1,0E0,1.5139258E3,4.373156E1,2.2625732E-1,2.652002E1,0E0,1.7117297E2,1.5905054E2,0E0,0E0,7.026758E1,0E0,9.573418E0,5.175659E0,4.7574368E0,0E0,5.2479553E0,0E0,7.64357E0,5.937143E0,9.230202E0,0E0,0E0,1.2854238E3,3.5748077E1,0E0,0E0,0E0,0E0,0E0,0E0,0E0,6.7495117E0,1.4695366E1,0E0,0E0,0E0,0E0,0E0,0E0,0E0,0E0,0E0,0E0,0E0,0E0,0E0,0E0,0E0,0E0,0E0,0E0,0E0,0E0,0E0,0E0,0E0,0E0],"parents":[2147483647,0,0,1,1,2,2,3,3,4,4,5,5,6,6,7,7,8,8,9,9,10,10,12,12,13,13,14,14,16,16,18,18,19,19,20,20,21,21,22,22,23,23,24,24,25,25,26,26,27,27,30,30,31,31,32,32,36,36,38,38,42,42,43,43,44,44,45,45,47,47,52,52,53,53,55,55,56,56,57,57,60,60,62,62,63,63,64,64,65,65,67,67,68,68,71,71,73,73,74,74,75,75,77,77,79,79,80,80,81,81,84,84,85,85,93,93,94,94],"right_children":[2,4,6,8,10,12,14,16,18,20,22,-1,24,26,28,-1,30,-1,32,34,36,38,40,42,44,46,48,50,-1,-1,52,54,56,-1,-1,-1,58,-1,60,-1,-1,-1,62,64,66,68,-1,70,-1,-1,-1,-1,72,74,-1,76,78,80,-1,-1,82,-1,84,86,88,90,-1,92,94,-1,-1,96,-1,98,100,102,-1,104,-1,106,108,110,-1,-1,112,114,-1,-1,-1,-1,-1,-1,-1,116,118,-1,-1,-1,-1,-1,-1,-1,-1,-1,-1,-1,-1,-1,-1,-1,-1,-1,-1,-1,-1,-1,-1,-1,-1],"split_conditions":[7.825152E-2,1.0681509E-1,-1.3880354E-1,6.2000008E1,-4.124562E-1,4.628145E-1,2.3206505E-1,2.6754114E-1,-9.9291846E-2,6.2000008E1,-7.418034E-2,9.4449185E-2,5.7666767E-1,-1.6264215E-1,-3.887604E-1,-8.083559E-2,-1.9382736E-1,2.782805E-2,2.798473E-2,2.786067E-1,1.6397858E-1,-8.177881E-2,-1.985804E-1,2.7706265E-1,-5.8768257E-2,2.0953956E-1,-6.724404E-2,-2.5163582E-1,-8.127742E-2,-8.0283456E-2,2.0471808E-1,-1.2113691E-1,1.1986203E-1,9.433704E-2,-7.76496E-2,2.4387266E-2,7.4531025E-1,8.3997905E-2,3.8904786E-2,9.243411E-2,-7.747214E-2,9.750748E-2,2.5346693E-1,6.326856E-1,6.2000008E1,-6.2209673E-2,-7.928383E-2,2.4413201E-1,8.697059E-2,4.1877545E-2,9.2194274E-2,-7.854571E-2,2.651185E-1,5.914551E-1,2.3250464E-2,2.4980022E-1,2.501E-1,-1.3690028E-1,2.0679433E-2,-8.153709E-2,2.6977983E-1,9.3989395E-2,3.0559045E-1,-8.843426E-3,1.3E1,-1.4675673E-2,-6.333809E-2,1.2666313E-1,6.2000008E1,-8.0810525E-2,-3.8356613E-2,7.626588E-1,-7.32391E-2,8.122881E-2,-2.9462022E-1,1.3182731E0,-2.9567627E-2,4.840581E-2,2.4458839E-2,-6.983034E-2,9.9666655E-2,2.0730563E-1,6.815849E-2,9.972935E-2,2.1250461E-1,-3.444859E-1,7.918141E-2,9.216549E-2,4.4069774E-2,-4.0514182E-2,9.561146E-2,9.111958E-2,-7.944468E-2,2.1484415E-1,1.8903555E-1,-7.092297E-2,9.449194E-2,1.7668648E-2,-4.2764388E-2,-1.6434638E-2,-6.2342525E-2,6.6026584E-3,9.028712E-2,5.846187E-3,-6.2541515E-2,-6.8846904E-2,-9.751871E-3,4.052931E-2,-4.369272E-2,-5.6942474E-2,6.0347687E-3,8.815875E-2,-7.9582505E-2,7.462616E-2,-7.970902E-2,9.450923E-2,2.0123936E-2,-5.4782566E-2,3.9751463E-2],"split_indices":[2619,2788,2182,2005,2416,842,2619,824,2113,2005,2036,0,2537,2439,2300,0,2052,0,2755,2046,2128,2275,2401,1238,2578,1546,2435,2606,0,0,1303,2682,2451,0,0,0,2251,0,2052,0,0,0,304,2407,2005,2120,0,2043,0,0,0,0,668,2473,0,2109,2534,2101,0,0,2243,0,537,2060,2005,2402,0,2046,2005,0,0,190,0,2470,2761,2616,0,2575,0,2068,2266,2590,0,0,191,2219,0,0,0,0,0,0,0,860,2321,0,0,0,0,0,0,0,0,0,0,0,0,0,0,0,0,0,0,0,0,0,0,0,0],"split_type":[0,0,0,0,0,0,0,0,0,0,0,0,0,0,0,0,0,0,0,0,0,0,0,0,0,0,0,0,0,0,0,0,0,0,0,0,0,0,0,0,0,0,0,0,0,0,0,0,0,0,0,0,0,0,0,0,0,0,0,0,0,0,0,0,0,0,0,0,0,0,0,0,0,0,0,0,0,0,0,0,0,0,0,0,0,0,0,0,0,0,0,0,0,0,0,0,0,0,0,0,0,0,0,0,0,0,0,0,0,0,0,0,0,0,0,0,0,0,0],"sum_hessian":[2.217084E4,8.989535E3,1.3181305E4,7.2221533E3,1.767382E3,1.1579074E4,1.6022302E3,6.992806E3,2.2934734E2,7.1176373E2,1.0556182E3,5.15515E2,1.106356E4,1.3630548E3,2.3917535E2,9.638993E1,6.896416E3,4.4304304E0,2.249169E2,6.517727E2,5.999103E1,9.9581067E2,5.980749E1,1.0688392E4,3.7516776E2,1.2614862E3,1.0156864E2,3.808335E1,2.0109201E2,4.8040936E1,6.848375E3,1.9021909E2,3.4697807E1,6.211354E2,3.063737E1,4.9379306E0,5.50531E1,1.0208493E1,9.856022E2,4.3839737E1,1.5967754E1,1.5513672E2,1.0533255E4,8.334513E1,2.9182263E2,1.2317562E3,2.9729992E1,9.310109E1,8.467551E0,3.2062387E0,3.4877113E1,1.86238E1,6.8297515E3,1.8680412E2,3.4149654E0,1.2152132E1,2.2545675E1,5.1608307E1,3.4447944E0,9.2485425E2,6.074794E1,1.3805817E2,1.0395196E4,6.5955894E1,1.7389235E1,2.887023E2,3.120312E0,5.8835266E1,1.1729209E3,9.000158E1,3.0995061E0,6.821421E3,8.330153E0,9.0496376E1,9.6307755E1,6.3202186E0,5.8319135E0,1.914352E1,3.402154E0,4.5236637E1,6.371668E0,5.7269512E1,3.478427E0,1.2083253E2,1.0274364E4,6.1480915E1,4.4749823E0,1.4188811E1,3.2004235E0,3.11141E0,2.855909E2,2.3924095E1,3.491117E1,1.1495328E3,2.3388063E1,5.752112E0,6.815669E3,6.5684743E0,8.39279E1,7.5091524E0,8.87986E1,3.1549852E0,3.1652336E0,3.1666563E0,1.5976864E1,3.846291E1,6.7737303E0,3.1833797E0,3.1882882E0,5.0921165E1,6.3483477E0,1.1472857E2,1.0159636E4,3.2407272E0,5.8240185E1,1.1458591E3,3.673742E0,1.8988724E1,4.399339E0],"tree_param":{"num_deleted":"0","num_feature":"2796","num_nodes":"119","size_leaf_vector":"1"}},{"base_weights":[-3.127599E-3,1.2758831E0,-8.818839E-1,1.6411483E0,-2.1097729E-1,-1.1437498E0,1.0029278E0,1.7217299E0,-8.3485496E-1,1.4391751E0,-1.3575963E0,9.0448864E-2,-1.2828457E0,1.7514932E0,-1.3101266E-1,-7.866117E-2,1.7828867E0,-8.9246213E-1,-1.2405821E-1,-1.328278E0,1.6857629E0,-1.4952857E0,8.4292424E-1,-2.0753723E-1,-1.4966774E0,-7.301381E-2,1.792692E0,-1.3195581E0,1.1037331E0,-3.7138742E-1,1.7995547E0,1.4915152E-2,-9.29865E-1,5.1867086E-2,-5.9914136E-1,-1.412251E0,7.249857E-3,9.0341076E-2,-5.670025E-1,8.091747E-2,-1.532036E0,8.851312E-2,-7.525772E-2,1.1809076E0,-9.1313046E-1,9.569094E-2,-1.5348351E0,1.80231E0,-3.4590226E-2,8.3840415E-2,-1.5529726E0,1.5702306E0,-1.1282629E0,-7.718372E-2,8.6079925E-2,1.8047298E0,-7.270514E-2,-9.57447E-1,3.1188983E-2,-1.0808225E0,2.3729328E-2,-1.4882821E0,-4.739215E-3,4.329357E-2,-8.3302504E-1,-6.710009E-1,-1.5781274E0,1.4901272E0,-1.3383493E0,1.5060087E0,-1.1571796E0,1.7168291E0,-1.5661569E0,9.037439E-2,1.06965685E-2,-7.8802906E-2,1.805058E-2,1.7555974E0,-1.069368E0,7.011097E-2,-1.410407E0,-6.932423E-2,1.8077279E0,-9.906264E-1,4.5106537E-3,-7.035392E-2,-1.5183019E-2,-2.6677057E-2,-7.682984E-2,5.6110207E-2,-1.1237115E0,5.4547496E-2,-8.425964E-1,-7.905325E-2,-2.9947175E-2,1.6792922E0,-1.3619221E0,6.708683E-2,-7.7389024E-2,-1.0309789E0,9.442868E-2,-1.3241986E0,1.5303342E0,9.143097E-2,-4.929351E-2,9.765174E-2,-1.5767478E0,-3.799368E-2,9.021702E-2,1.9575221E-2,-7.08647E-2,1.0005719E-2,-7.706426E-2,9.0446085E-2,-2.3084126E-2,-5.136589E-2,-1.946254E-3,-4.4464324E-2,4.904365E-2,-5.911381E-3,-6.41058E-2,-1.4356074E-2,-6.456676E-2,8.866675E-2,-4.0057886E-2,-1.5831817E-3,-7.4613E-2,2.2675745E-2,-7.290528E-2,7.679744E-2,-6.949125E-2,9.010591E-2,-6.0667373E-2,9.396314E-2,-7.919828E-2],"categories":[],"categories_nodes":[],"categories_segments":[],"categories_sizes":[],"default_left":[0,0,0,0,0,0,0,0,0,0,0,0,0,0,0,0,0,0,0,0,0,0,0,0,0,0,0,0,0,0,1,0,0,0,0,0,0,0,0,0,0,0,0,0,0,0,0,1,0,0,0,0,0,0,0,0,0,0,0,0,0,0,0,0,0,0,0,1,0,0,0,0,0,0,0,0,0,0,0,0,0,0,1,0,0,0,0,0,0,0,0,0,0,0,0,0,0,0,0,0,0,0,0,0,0,0,0,0,0,0,0,0,0,0,0,0,0,0,0,0,0,0,0,0,0,0,0,0,0,0,0,0,0,0,0],"id":4,"left_children":[1,3,5,7,9,11,13,15,17,19,21,-1,23,25,27,-1,29,31,33,35,37,39,41,43,45,-1,47,49,51,53,55,-1,57,-1,59,61,-1,-1,63,-1,65,-1,-1,67,69,-1,71,73,-1,-1,75,77,79,-1,-1,81,-1,83,-1,85,-1,87,-1,-1,89,91,93,95,97,99,101,103,105,-1,-1,-1,-1,107,109,-1,111,-1,113,115,-1,-1,-1,-1,-1,117,119,-1,121,-1,-1,123,125,-1,-1,127,-1,129,131,-1,-1,-1,133,-1,-1,-1,-1,-1,-1,-1,-1,-1,-1,-1,-1,-1,-1,-1,-1,-1,-1,-1,-1,-1,-1,-1,-1,-1,-1,-1,-1],"loss_changes":[2.463455E4,4.8481436E3,6.4135176E3,1.4311855E3,3.33442E3,4.6875186E3,1.3459342E3,1.4013574E3,9.1653595E0,4.953318E2,3.1627515E2,0E0,2.5048047E3,1.2898755E2,9.279811E2,0E0,2.4535547E2,9.603302E0,1.0633217E1,7.587425E0,1.8207825E2,1.144834E2,1.3737001E2,1.7726411E3,1.1855625E3,0E0,2.3789795E1,2.2791003E2,3.2475467E2,1.3306052E2,1.1648633E2,0E0,9.307419E0,0E0,7.5008845E0,5.52343E0,0E0,0E0,1.39167595E1,0E0,3.7354736E1,0E0,0E0,4.7699408E2,7.0994916E2,0E0,9.1805273E2,7.343994E0,0E0,0E0,1.3797363E1,1.2762097E2,4.0679092E1,0E0,0E0,6.710742E1,0E0,7.0452576E0,0E0,2.0150013E0,0E0,1.6432266E0,0E0,0E0,7.741043E0,1.6314638E1,1.6933594E0,2.955453E2,3.9788513E1,1.09058E2,4.9137976E2,2.7854126E1,3.348828E2,0E0,0E0,0E0,0E0,3.0859863E1,9.441795E0,0E0,1.06931305E1,0E0,1.9111328E1,6.736038E0,0E0,0E0,0E0,0E0,0E0,8.103905E0,3.42173E0,0E0,1.1336021E1,0E0,0E0,1.2043518E2,5.910572E0,0E0,0E0,1.024069E1,0E0,1.9489441E2,5.0098267E1,0E0,0E0,0E0,2.2439062E2,0E0,0E0,0E0,0E0,0E0,0E0,0E0,0E0,0E0,0E0,0E0,0E0,0E0,0E0,0E0,0E0,0E0,0E0,0E0,0E0,0E0,0E0,0E0,0E0,0E0,0E0,0E0,0E0],"parents":[2147483647,0,0,1,1,2,2,3,3,4,4,5,5,6,6,7,7,8,8,9,9,10,10,12,12,13,13,14,14,16,16,17,17,18,18,19,19,20,20,21,21,22,22,23,23,24,24,26,26,27,27,28,28,29,29,30,30,32,32,34,34,35,35,38,38,40,40,43,43,44,44,46,46,47,47,50,50,51,51,52,52,55,55,57,57,59,59,61,61,64,64,65,65,66,66,67,67,68,68,69,69,70,70,71,71,72,72,77,77,78,78,80,80,82,82,83,83,89,89,90,90,92,92,95,95,96,96,99,99,101,101,102,102,106,106],"right_children":[2,4,6,8,10,12,14,16,18,20,22,-1,24,26,28,-1,30,32,34,36,38,40,42,44,46,-1,48,50,52,54,56,-1,58,-1,60,62,-1,-1,64,-1,66,-1,-1,68,70,-1,72,74,-1,-1,76,78,80,-1,-1,82,-1,84,-1,86,-1,88,-1,-1,90,92,94,96,98,100,102,104,106,-1,-1,-1,-1,108,110,-1,112,-1,114,116,-1,-1,-1,-1,-1,118,120,-1,122,-1,-1,124,126,-1,-1,128,-1,130,132,-1,-1,-1,134,-1,-1,-1,-1,-1,-1,-1,-1,-1,-1,-1,-1,-1,-1,-1,-1,-1,-1,-1,-1,-1,-1,-1,-1,-1,-1,-1,-1],"split_conditions":[7.825152E-2,1.0681509E-1,-1.3880354E-1,6.2000008E1,-4.124562E-1,4.628145E-1,-2.2437155E-2,2.4525322E-1,7.719448E-2,2.7834985E-1,-7.616959E-2,9.0448864E-2,-9.7555175E-2,7.027034E-1,-8.1303164E-2,-7.866117E-2,1.3955168E-1,-1.3609207E-1,1.5528612E-1,6.933299E-1,6.2000008E1,-8.177881E-2,-1.985804E-1,-1.20156E-1,3.0559045E-1,-7.301381E-2,2.186054E-1,-3.2866232E-2,-8.977966E-2,-1.1659861E-3,2.651185E-1,1.4915152E-2,5.784499E-1,5.1867086E-2,-8.128339E-2,-3.7640634E-1,7.249857E-3,9.0341076E-2,-3.5652035E-1,8.091747E-2,-1.9039729E-1,8.851312E-2,-7.525772E-2,-1.375826E-1,1.5310127E-1,9.569094E-2,2.298218E-2,2.1804018E-1,-3.4590226E-2,8.3840415E-2,6.1619353E-2,7.368651E-2,1.18631996E-1,-7.718372E-2,8.6079925E-2,7.626588E-1,-7.270514E-2,4.4719326E-1,3.1188983E-2,-6.49378E-2,2.3729328E-2,6.2047035E-2,-4.739215E-3,4.329357E-2,-3.5111979E-3,7.2081976E-2,4.687363E-1,2.2198698E-1,-2.597217E-1,1.8692063E-1,1.436481E-1,-3.7752485E-1,2.1482755E-1,9.037439E-2,1.06965685E-2,-7.8802906E-2,1.805058E-2,-1.86152E-1,-1.21811554E-1,7.011097E-2,-3.9417696E-1,-6.932423E-2,2.3514451E-1,2.8960854E-1,4.5106537E-3,-7.035392E-2,-1.5183019E-2,-2.6677057E-2,-7.682984E-2,-2.5442138E0,-4.989371E-1,5.4547496E-2,1.5165782E-1,-7.905325E-2,-2.9947175E-2,6.2000008E1,6.689409E-2,6.708683E-2,-7.7389024E-2,-5.596223E-2,9.442868E-2,2.1250461E-1,-8.2282744E-2,9.143097E-2,-4.929351E-2,9.765174E-2,-6.3436165E-2,-3.799368E-2,9.021702E-2,1.9575221E-2,-7.08647E-2,1.0005719E-2,-7.706426E-2,9.0446085E-2,-2.3084126E-2,-5.136589E-2,-1.946254E-3,-4.4464324E-2,4.904365E-2,-5.911381E-3,-6.41058E-2,-1.4356074E-2,-6.456676E-2,8.866675E-2,-4.0057886E-2,-1.5831817E-3,-7.4613E-2,2.2675745E-2,-7.290528E-2,7.679744E-2,-6.949125E-2,9.010591E-2,-6.0667373E-2,9.396314E-2,-7.919828E-2],"split_indices":[2619,2788,2182,2005,2416,842,2107,1718,2152,2485,2036,0,2494,98,2213,0,2537,2573,2043,2474,2005,2275,2401,2387,537,0,2290,2729,2068,2052,668,0,2707,0,2787,2440,0,0,2056,0,2787,0,0,2077,2122,0,2290,170,0,0,2282,2192,2590,0,0,190,0,2587,0,2232,0,2492,0,0,2321,2400,2392,442,2554,2226,2343,2556,778,0,0,0,0,2504,2234,0,2208,0,1222,2771,0,0,0,0,0,2074,2365,0,2788,0,0,2005,2322,0,0,2231,0,191,2699,0,0,0,2308,0,0,0,0,0,0,0,0,0,0,0,0,0,0,0,0,0,0,0,0,0,0,0,0,0,0,0,0],"split_type":[0,0,0,0,0,0,0,0,0,0,0,0,0,0,0,0,0,0,0,0,0,0,0,0,0,0,0,0,0,0,0,0,0,0,0,0,0,0,0,0,0,0,0,0,0,0,0,0,0,0,0,0,0,0,0,0,0,0,0,0,0,0,0,0,0,0,0,0,0,0,0,0,0,0,0,0,0,0,0,0,0,0,0,0,0,0,0,0,0,0,0,0,0,0,0,0,0,0,0,0,0,0,0,0,0,0,0,0,0,0,0,0,0,0,0,0,0,0,0,0,0,0,0,0,0,0,0,0,0,0,0,0,0,0,0],"sum_hessian":[2.1916055E4,8.9251875E3,1.2990868E4,7.1649316E3,1.7602562E3,1.1406501E4,1.5843668E3,6.9393936E3,2.2553792E2,7.2156445E2,1.0386919E3,5.126189E2,1.0893882E4,9.540262E2,6.303406E2,1.2600285E2,6.8133906E3,2.0839293E2,1.7144981E1,5.8674484E1,6.6288995E2,9.7782837E2,6.086351E1,1.8073125E3,9.086569E3,1.1646461E1,9.4237976E2,3.2114404E2,3.0919653E2,5.2148014E1,6.7612427E3,6.1340003E0,2.0225893E2,4.6337376E0,1.2511244E1,5.554971E1,3.1247742E0,6.292722E2,3.361771E1,1.0904622E1,9.669237E2,4.38082E1,1.7055307E1,6.087531E2,1.1985594E3,9.999465E1,8.986575E3,9.3901917E2,3.3605633E0,2.2761995E1,2.9838205E2,2.5598993E2,5.3206604E1,3.3594242E1,1.8553772E1,6.75095E3,1.0292452E1,1.991079E2,3.1510417E0,8.632184E0,3.87906E0,5.2396263E1,3.1534476E0,4.910965E0,2.8706743E1,4.992036E1,9.1700336E2,5.425658E2,6.618731E1,1.0935966E2,1.0891998E3,8.5223946E1,8.901351E3,9.358306E2,3.1885571E0,2.9500043E2,3.3816116E0,2.3950548E2,1.648445E1,4.939105E0,4.8267498E1,5.903394E0,6.745047E3,1.930485E2,6.0594025E0,5.508964E0,3.1232197E0,3.1038878E0,4.9292377E1,7.2716393E0,2.1435104E1,3.954783E0,4.5965576E1,9.1364764E2,3.355702E0,5.0920358E2,3.3362244E1,4.4053636E0,6.1781944E1,1.4107897E1,9.525176E1,1.0259482E3,6.3251587E1,8.214945E1,3.0744917E0,2.6157728E1,8.875193E3,4.2754226E0,2.3523006E2,3.1467252E0,1.3337724E1,3.5878763E0,4.4679623E1,6.741703E3,3.3435826E0,1.8580559E2,7.2429013E0,3.6146748E0,3.6569648E0,3.1549857E0,1.8280119E1,2.1272758E1,2.4692818E1,4.9087772E2,1.8325867E1,3.0880253E0,3.0274218E1,3.1384215E0,1.0969475E1,2.2509947E1,1.00343823E3,5.786297E1,5.3886204E0,1.795641E1,8.857237E3],"tree_param":{"num_deleted":"0","num_feature":"2796","num_nodes":"135","size_leaf_vector":"1"}},{"base_weights":[1.6230805E-3,1.312797E0,-7.9149556E-1,-3.5381666E-1,1.6330967E0,1.1804167E0,-1.1191713E0,-1.1740388E0,9.848196E-1,-9.413216E-1,1.6850654E0,1.5101211E0,-7.242112E-1,8.687068E-2,-1.3185121E0,1.6314895E0,-1.3568112E0,1.7082319E0,-4.318421E-1,1.2693541E0,-1.4364686E0,1.7239027E0,-6.477932E-1,1.639293E0,-4.763627E-1,8.5309446E-2,-1.4564425E0,8.7286405E-2,-1.3777735E0,1.927693E-2,8.5289955E-2,-1.4179299E0,6.5159076E-1,8.756416E-2,-2.7975008E-1,-9.6697754E-1,1.1933664E0,-4.9887095E-2,8.234174E-2,-1.5028515E0,3.1982265E-2,-9.407107E-1,1.7376202E0,-2.862711E-1,-8.96525E-1,-7.442052E-2,1.6935055E0,-1.0297682E0,8.407623E-2,6.838697E-2,-7.672916E-2,1.3700637E0,-1.4315662E0,7.147602E-2,-1.4418166E0,1.4371613E0,-9.8449033E-1,-5.2447498E-2,3.3818617E-2,-1.1389382E0,8.510275E-1,8.437394E-2,-5.112641E-1,-7.6412536E-2,-2.3637217E-2,-7.534378E-2,7.606802E-2,-7.13406E-2,1.7436144E0,-6.2076837E-1,4.2272425E-1,-9.6626425E-1,1.7534433E-2,-7.1476266E-2,1.7221014E0,2.1849008E-2,-1.1002781E0,1.7518713E0,-7.2296076E-2,8.709886E-2,-1.4798645E0,-7.6952174E-2,-8.606384E-1,8.432782E-2,1.45632E-2,-6.510561E-2,-1.7751561E-2,-1.2724061E0,4.720568E-2,8.2120314E-2,-2.0254321E-2,2.7786365E-2,-5.5428665E-2,-3.0547652E-2,8.724403E-2,3.9408978E-2,-8.8371116E-1,-4.2626157E-1,1.1260597E0,-1.3900789E0,-6.481049E-1,-6.816945E-2,1.7364709E0,8.609009E-3,-1.1868384E0,8.846849E-2,2.8962776E-2,1.6653081E0,-1.4999686E0,-4.5200747E-2,2.3074497E-2,-6.666937E-2,2.2354474E-2,6.815732E-2,-3.329512E-2,2.8789355E-3,-5.6828953E-2,-5.434316E-2,2.0686323E-2,8.8319875E-2,-1.5372245E-3,-2.6393844E-2,-7.426028E-2,5.318593E-3,-5.446252E-2,-3.1869538E-2,8.711424E-2,-6.313213E-2,1.3570598E-2,1.7527102E-2,8.63241E-2,8.5549004E-2,-7.553378E-2],"categories":[],"categories_nodes":[],"categories_segments":[],"categories_sizes":[],"default_left":[0,0,0,0,0,0,0,0,0,0,0,1,0,0,0,0,0,0,0,0,0,0,0,0,0,0,0,0,0,0,0,0,0,0,0,0,0,0,0,0,0,0,0,0,0,0,0,0,0,0,0,0,0,0,0,0,0,0,0,0,0,0,0,0,0,0,0,0,0,0,0,0,0,0,0,0,0,0,0,0,0,0,0,0,0,0,0,0,0,0,0,0,0,0,0,0,0,0,0,0,0,0,0,0,0,0,0,0,0,0,0,0,0,0,0,0,0,0,0,0,0,0,0,0,0,0,0,0,0,0,0,0,0],"id":5,"left_children":[1,3,5,7,9,11,13,15,17,19,21,23,25,-1,27,29,31,33,35,37,39,41,43,45,47,-1,49,-1,51,-1,-1,53,55,-1,57,59,61,-1,-1,63,-1,65,67,69,71,-1,73,75,-1,-1,-1,77,79,-1,81,83,85,-1,-1,87,89,-1,91,-1,-1,-1,-1,-1,93,95,97,99,-1,-1,101,-1,103,105,-1,-1,107,-1,109,-1,-1,-1,-1,111,113,-1,-1,-1,-1,-1,-1,-1,115,117,119,121,123,-1,125,-1,127,-1,-1,129,131,-1,-1,-1,-1,-1,-1,-1,-1,-1,-1,-1,-1,-1,-1,-1,-1,-1,-1,-1,-1,-1,-1,-1,-1],"loss_changes":[2.2366611E4,4.327962E3,8.660717E3,1.4369056E3,9.11334E2,1.200581E3,6.5464844E3,4.1821265E2,5.10443E2,1.498056E2,6.0503906E2,4.1867114E2,5.0529498E2,0E0,1.9533105E3,3.9784698E0,9.448462E1,2.868451E1,1.4806488E2,2.3268845E1,1.6248337E1,2.4130078E2,9.6239395E0,2.618423E2,1.2139904E2,0E0,5.0133606E1,0E0,1.5599277E3,0E0,0E0,5.239331E1,3.122647E1,0E0,6.479232E0,4.086949E1,3.6483177E1,0E0,0E0,2.0975647E0,0E0,5.0008026E1,1.26228516E2,1.1232017E1,5.959915E0,0E0,1.3675879E2,8.793198E0,0E0,0E0,0E0,2.2066876E2,1.5871836E3,0E0,4.0170532E1,4.1033363E0,1.1607027E0,0E0,0E0,1.8587036E1,1.2197735E1,0E0,7.162153E0,0E0,0E0,0E0,0E0,0E0,2.0476562E1,1.2489611E1,9.688845E0,7.387596E0,0E0,0E0,6.845557E1,0E0,8.682442E0,2.6502686E0,0E0,0E0,6.4642773E2,0E0,6.5829926E0,0E0,0E0,0E0,0E0,1.1629974E1,1.2919975E1,0E0,0E0,0E0,0E0,0E0,0E0,0E0,6.56287E0,4.729548E0,6.505557E0,1.3061867E0,1.2425554E1,0E0,2.1593262E1,0E0,8.323418E0,0E0,0E0,4.6352386E0,3.504922E2,0E0,0E0,0E0,0E0,0E0,0E0,0E0,0E0,0E0,0E0,0E0,0E0,0E0,0E0,0E0,0E0,0E0,0E0,0E0,0E0,0E0,0E0,0E0,0E0],"parents":[2147483647,0,0,1,1,2,2,3,3,4,4,5,5,6,6,7,7,8,8,9,9,10,10,11,11,12,12,14,14,15,15,16,16,17,17,18,18,19,19,20,20,21,21,22,22,23,23,24,24,26,26,28,28,31,31,32,32,34,34,35,35,36,36,39,39,41,41,42,42,43,43,44,44,46,46,47,47,51,51,52,52,54,54,55,55,56,56,59,59,60,60,62,62,68,68,69,69,70,70,71,71,74,74,76,76,77,77,80,80,82,82,87,87,88,88,96,96,97,97,98,98,99,99,100,100,102,102,104,104,107,107,108,108],"right_children":[2,4,6,8,10,12,14,16,18,20,22,24,26,-1,28,30,32,34,36,38,40,42,44,46,48,-1,50,-1,52,-1,-1,54,56,-1,58,60,62,-1,-1,64,-1,66,68,70,72,-1,74,76,-1,-1,-1,78,80,-1,82,84,86,-1,-1,88,90,-1,92,-1,-1,-1,-1,-1,94,96,98,100,-1,-1,102,-1,104,106,-1,-1,108,-1,110,-1,-1,-1,-1,112,114,-1,-1,-1,-1,-1,-1,-1,116,118,120,122,124,-1,126,-1,128,-1,-1,130,132,-1,-1,-1,-1,-1,-1,-1,-1,-1,-1,-1,-1,-1,-1,-1,-1,-1,-1,-1,-1,-1,-1,-1,-1],"split_conditions":[-4.1534218E-1,-7.025293E-2,-4.21029E-2,-2.817969E-1,2.8018215E-1,5.0266262E-2,1.8558817E-1,-1.5772542E-1,-7.089657E-2,2.3911011E-1,2.400001E1,1.8119438E-1,2.9434962E0,8.687068E-2,4.073439E-1,2.781083E-1,2.6026022E-2,2.400001E1,-2.2609147E-1,-3.3051813E-1,3.1395894E-1,2.9477197E-1,-1.22607216E-1,6.8866026E-1,1.4767829E-1,8.5309446E-2,-1.995619E-1,8.7286405E-2,1.9427074E-1,1.927693E-2,8.5289955E-2,3.2277846E-1,-3.8610998E-1,8.756416E-2,-4.89556E-1,-1.0280772E-1,2.400001E1,-4.9887095E-2,8.234174E-2,3.845052E-1,3.1982265E-2,-1.2602134E-1,2.665779E-1,3.2602847E-2,4.325188E-1,-7.442052E-2,2.3802803E-1,-2.3910247E-2,8.407623E-2,6.838697E-2,-7.672916E-2,1.8E1,9.8512703E-1,7.147602E-2,2.400001E1,3.1226528E-1,-3.8146153E-2,-5.2447498E-2,3.3818617E-2,6.465945E-2,3.741113E-2,8.437394E-2,1.7487429E-1,-7.6412536E-2,-2.3637217E-2,-7.534378E-2,7.606802E-2,-7.13406E-2,-1.7576225E-1,3.3675488E-2,1.0763362E-1,-7.059723E-2,1.7534433E-2,-7.1476266E-2,2.830873E-1,2.1849008E-2,-4.831495E-2,6.062389E-2,-7.2296076E-2,8.709886E-2,2.1250461E-1,-7.6952174E-2,1.8667692E-1,8.432782E-2,1.45632E-2,-6.510561E-2,-1.7751561E-2,1.6418117E-1,-2.5448546E-1,8.2120314E-2,-2.0254321E-2,2.7786365E-2,-5.5428665E-2,-3.0547652E-2,8.724403E-2,3.9408978E-2,1.8305737E-1,2.2748703E-1,2.8875223E-1,-4.989371E-1,-5.0403875E-1,-6.816945E-2,-3.0888203E-1,8.609009E-3,6.6256754E-2,8.846849E-2,2.8962776E-2,-6.759811E-2,3.3557934E-1,-4.5200747E-2,2.3074497E-2,-6.666937E-2,2.2354474E-2,6.815732E-2,-3.329512E-2,2.8789355E-3,-5.6828953E-2,-5.434316E-2,2.0686323E-2,8.8319875E-2,-1.5372245E-3,-2.6393844E-2,-7.426028E-2,5.318593E-3,-5.446252E-2,-3.1869538E-2,8.711424E-2,-6.313213E-2,1.3570598E-2,1.7527102E-2,8.63241E-2,8.5549004E-2,-7.553378E-2],"split_indices":[2416,2102,2421,2682,2485,2092,842,2158,2147,2081,2006,1561,2233,0,304,2128,2115,2006,2776,2399,2685,606,2383,935,2611,0,2262,0,2374,0,0,1981,2471,0,2424,2089,2006,0,0,2081,0,2259,782,2676,2284,0,525,2557,0,0,0,2000,622,0,2006,2126,2338,0,0,2550,2290,0,2534,0,0,0,0,0,2402,2183,2381,2033,0,0,948,0,2609,2228,0,0,191,0,2496,0,0,0,0,2611,2654,0,0,0,0,0,0,0,2157,2203,2476,2365,2776,0,2632,0,2792,0,0,2091,537,0,0,0,0,0,0,0,0,0,0,0,0,0,0,0,0,0,0,0,0,0,0,0,0],"split_type":[0,0,0,0,0,0,0,0,0,0,0,0,0,0,0,0,0,0,0,0,0,0,0,0,0,0,0,0,0,0,0,0,0,0,0,0,0,0,0,0,0,0,0,0,0,0,0,0,0,0,0,0,0,0,0,0,0,0,0,0,0,0,0,0,0,0,0,0,0,0,0,0,0,0,0,0,0,0,0,0,0,0,0,0,0,0,0,0,0,0,0,0,0,0,0,0,0,0,0,0,0,0,0,0,0,0,0,0,0,0,0,0,0,0,0,0,0,0,0,0,0,0,0,0,0,0,0,0,0,0,0,0,0],"sum_hessian":[2.1506084E4,8.105507E3,1.3400577E4,1.306629E3,6.7988774E3,1.9091205E3,1.1491457E4,8.1027344E2,4.9635562E2,1.3419179E2,6.664686E3,1.6275818E3,2.8153867E2,7.490948E2,1.0742362E4,4.9073666E1,7.6119977E2,3.2843555E2,1.6792006E2,2.427005E1,1.0992174E2,6.5558066E3,1.0887948E2,1.5283734E3,9.9208336E1,6.487555E1,2.166631E2,2.0327261E2,1.053909E4,3.1103656E0,4.5963303E1,7.390047E2,2.2195045E1,3.2159036E2,6.845207E0,1.2662953E2,4.129053E1,3.229709E0,2.1040342E1,1.0678351E2,3.1382306E0,3.323074E1,6.5225757E3,4.52546E1,6.3624874E1,2.5589233E1,1.5027842E3,7.937488E1,1.983346E1,5.3890033E0,2.1127411E2,2.0188574E2,1.0337204E4,5.658231E0,7.333465E2,1.5077236E1,7.11781E0,3.7396076E0,3.1055994E0,1.1602823E2,1.0601307E1,3.2019318E1,9.271212E0,1.0374197E2,3.0415392E0,2.7333288E1,5.897453E0,1.1883712E1,6.510692E3,3.0832542E1,1.442206E1,6.0468952E1,3.1559227E0,1.319085E1,1.4895934E3,3.4023242E0,7.597255E1,1.7811389E2,2.3771843E1,1.5443808E2,1.0182766E4,6.268337E2,1.0651283E2,1.1994839E1,3.0823977E0,4.0204773E0,3.0973325E0,1.0422756E2,1.180067E1,6.3151174E0,4.286189E0,3.3523765E0,5.918835E0,3.240479E0,6.5074517E3,4.5349607E0,2.629758E1,6.712927E0,7.7091327E0,2.4484472E1,3.5984478E1,6.4698706E0,1.4831235E3,4.7759333E0,7.119662E1,1.7499364E2,3.120262E0,6.415604E1,1.0118609E4,1.0343555E2,3.0772843E0,1.0087463E2,3.352927E0,3.826973E0,7.973697E0,5.7321596E0,2.0565422E1,3.5931897E0,3.1197374E0,4.6230984E0,3.0860345E0,3.0837138E0,2.1400759E1,1.3557092E1,2.2427387E1,3.3579316E0,1.4797655E3,6.7806E1,3.3906152E0,3.15158E0,6.1004456E1,3.310047E1,1.0085509E4],"tree_param":{"num_deleted":"0","num_feature":"2796","num_nodes":"133","size_leaf_vector":"1"}},{"base_weights":[-1.6738087E-3,-1.1185863E0,8.383598E-1,8.378438E-2,-1.350294E0,-3.8066936E-1,1.3680956E0,-1.4185236E0,1.2373035E0,1.1889617E0,-8.177185E-1,1.4383711E0,-8.286083E-1,1.4945443E0,-1.4552016E0,-8.040117E-1,1.6564001E0,-1.3681765E0,1.605377E0,9.34113E-1,-1.1495638E0,-7.4430116E-2,1.4865636E0,-9.17621E-1,-3.1619325E-1,-6.473028E-2,8.4185354E-2,1.0204641E0,-1.4821484E0,-1.2602079E0,6.2702015E-2,8.394577E-2,2.9997414E-2,-7.439512E-2,7.047548E-2,-6.946441E-2,1.6638707E0,-1.3901709E0,1.3396497E0,-1.2466767E0,1.4829911E0,-8.643706E-1,1.5427909E0,-5.7151216E-1,-1.0266968E0,6.4731884E-1,-6.7211336E-1,1.6185609E0,-7.776867E-1,7.629029E-2,-1.4887362E0,-7.213174E-2,-1.2239865E-2,8.421655E-2,-5.695154E-2,-7.397171E-2,1.9573003E-2,1.6286588E0,-9.385001E-1,-1.3375024E0,1.1263874E0,-5.9090484E-2,8.4960386E-2,8.34242E-2,-1.4766803E0,-1.1982204E0,1.5725491E0,3.4696442E-1,-7.71541E-1,-1.0890356E0,-2.42366E-1,1.254265E0,-3.7257545E-2,4.333675E-2,-1.0009674E0,8.302873E-2,2.8976554E-2,-1.1170309E0,5.0628137E-2,-1.4982908E0,-8.4359527E-1,8.4227644E-2,-3.5416684E-1,7.310384E-2,-7.225628E-2,4.4803113E-1,-1.4356258E0,-6.792488E-2,8.208139E-2,-7.470204E-2,-2.5366312E-2,7.533824E-2,-7.407304E-2,-1.2162687E0,1.5929223E0,-2.7432892E-2,4.925286E-2,-9.2955875E-1,2.1205463E-2,-1.1977535E0,-6.769539E-1,-8.923726E-1,2.6727114E-2,2.5205359E-2,8.351386E-2,-7.438808E-2,-3.4173468E-1,-7.3511265E-2,5.159669E-3,4.2369545E-2,-7.5030155E-2,-2.140242E-2,-5.1980045E-2,-5.7271183E-2,1.9803626E-2,8.081131E-2,-5.9278734E-2,5.9056967E-2,-7.320473E-2,-7.354215E-2,6.897122E-2,-7.373072E-2,8.0556855E-2,-6.438385E-2,-1.8770987E-2,-6.1910283E-2,-8.770011E-3,-4.7794696E-2,1.2464891E-2,-1.1879288E-2,-6.318924E-2,-6.0732163E-2,2.5841927E-2],"categories":[],"categories_nodes":[],"categories_segments":[],"categories_sizes":[],"default_left":[0,0,0,0,0,0,0,0,0,0,0,0,0,0,0,0,0,0,0,0,0,0,0,0,0,0,0,0,0,0,0,0,0,0,0,0,0,0,0,0,0,0,0,0,0,0,0,0,0,0,0,0,0,0,0,0,0,0,0,0,0,0,0,0,0,0,0,0,0,0,0,0,0,0,0,0,0,0,0,0,0,0,0,0,0,0,0,0,0,0,0,0,0,0,0,0,0,0,0,0,0,0,0,0,0,0,0,0,0,0,0,0,0,0,0,0,0,0,0,0,0,0,0,0,0,0,0,0,0,0,0,0,0],"id":6,"left_children":[1,3,5,-1,7,9,11,13,15,17,19,21,23,25,27,29,31,33,35,37,39,-1,41,43,45,-1,-1,47,49,51,-1,-1,-1,-1,-1,-1,53,55,57,59,61,63,65,67,69,71,73,75,77,-1,79,-1,-1,-1,-1,-1,-1,81,83,85,87,-1,-1,-1,89,91,93,95,97,99,101,103,-1,-1,105,-1,-1,107,-1,109,111,-1,113,-1,-1,115,117,-1,-1,-1,-1,-1,-1,119,121,-1,-1,123,-1,125,127,129,-1,-1,-1,-1,131,-1,-1,-1,-1,-1,-1,-1,-1,-1,-1,-1,-1,-1,-1,-1,-1,-1,-1,-1,-1,-1,-1,-1,-1,-1,-1],"loss_changes":[1.9804816E4,5.8688047E3,7.780329E3,0E0,1.4790732E3,2.5050298E3,1.297665E3,8.733047E2,1.8569699E2,8.491741E2,1.6612493E3,1.1501855E3,1.1613403E1,5.5927917E1,5.386914E2,3.66767E1,3.253418E0,3.932036E1,1.2221155E2,4.3107953E2,6.157844E2,0E0,1.059748E3,7.787628E0,1.4204163E1,0E0,0E0,9.514175E1,1.601211E2,5.4072723E0,0E0,0E0,0E0,0E0,0E0,0E0,4.044641E1,1.1415497E1,2.5713782E2,5.0080176E2,5.149672E1,2.9351978E2,6.397656E2,1.0448027E1,7.921646E0,1.0518839E1,1.59534855E1,1.911377E0,1.4778216E1,0E0,4.7734375E1,0E0,0E0,0E0,0E0,0E0,0E0,3.8819458E1,5.6039486E1,3.916245E2,1.12255974E2,0E0,0E0,0E0,1.7943115E0,6.7017136E1,4.4151562E2,6.597903E0,9.049732E0,6.1243744E0,7.3513565E0,1.7389994E0,0E0,0E0,7.5226593E0,0E0,0E0,8.495399E0,0E0,4.3751953E1,9.190353E0,0E0,6.55723E0,0E0,0E0,2.2521529E2,1.5933203E2,0E0,0E0,0E0,0E0,0E0,0E0,3.948056E1,4.3155078E2,0E0,0E0,7.608818E0,0E0,4.7946625E0,9.181727E0,1.5933323E0,0E0,0E0,0E0,0E0,9.567554E0,0E0,0E0,0E0,0E0,0E0,0E0,0E0,0E0,0E0,0E0,0E0,0E0,0E0,0E0,0E0,0E0,0E0,0E0,0E0,0E0,0E0,0E0,0E0,0E0,0E0,0E0],"parents":[2147483647,0,0,1,1,2,2,4,4,5,5,6,6,7,7,8,8,9,9,10,10,11,11,12,12,13,13,14,14,15,15,16,16,17,17,18,18,19,19,20,20,22,22,23,23,24,24,27,27,28,28,29,29,36,36,37,37,38,38,39,39,40,40,41,41,42,42,43,43,44,44,45,45,46,46,47,47,48,48,50,50,57,57,58,58,59,59,60,60,64,64,65,65,66,66,67,67,68,68,69,69,70,70,71,71,74,74,77,77,79,79,80,80,82,82,85,85,86,86,93,93,94,94,97,97,99,99,100,100,101,101,106,106],"right_children":[2,4,6,-1,8,10,12,14,16,18,20,22,24,26,28,30,32,34,36,38,40,-1,42,44,46,-1,-1,48,50,52,-1,-1,-1,-1,-1,-1,54,56,58,60,62,64,66,68,70,72,74,76,78,-1,80,-1,-1,-1,-1,-1,-1,82,84,86,88,-1,-1,-1,90,92,94,96,98,100,102,104,-1,-1,106,-1,-1,108,-1,110,112,-1,114,-1,-1,116,118,-1,-1,-1,-1,-1,-1,120,122,-1,-1,124,-1,126,128,130,-1,-1,-1,-1,132,-1,-1,-1,-1,-1,-1,-1,-1,-1,-1,-1,-1,-1,-1,-1,-1,-1,-1,-1,-1,-1,-1,-1,-1,-1,-1],"split_conditions":[-7.918953E-2,3.5283884E-1,3.368026E-2,8.378438E-2,6.1031795E-1,-7.595712E-2,6.2000008E1,-9.117897E-2,4.0147027E-1,-2.0808578E-1,-1.0619197E-1,2.8287613E-1,-1.7502514E-1,2.3383413E-1,-6.830026E-2,8.8303134E-2,4.1239686E-2,1.4E1,2.9431355E-1,-4.2031407E-1,1.3009709E-1,-7.4430116E-2,-1.01321995E-1,4.881574E-1,-6.573978E-1,-6.473028E-2,8.4185354E-2,1.4595382E-1,-2.0594186E-1,-2.0066236E-1,6.2702015E-2,8.394577E-2,2.9997414E-2,-7.439512E-2,7.047548E-2,-6.946441E-2,6.2000008E1,2.4613787E-1,-4.0860744E-3,-3.935902E-2,-7.1133263E-3,-2.8062248E-1,1.0965207E-1,-1.2173333E0,-1.1209832E-1,3.5727948E-1,-4.790116E-1,-2.3611204E-1,4.2769483E-1,7.629029E-2,6.2000008E1,-7.213174E-2,-1.2239865E-2,8.421655E-2,-5.695154E-2,-7.397171E-2,1.9573003E-2,6.2000008E1,7.2621115E-2,6.1645772E-2,-1.5782417E-1,-5.9090484E-2,8.4960386E-2,8.34242E-2,-1.6797332E-1,2.1464312E-1,9.990931E-3,1.5781629E-1,1.7266247E-1,5.547181E-1,1.2517609E-1,-1.308819E-1,-3.7257545E-2,4.333675E-2,-5.607396E-1,8.302873E-2,2.8976554E-2,-3.6459544E-1,5.0628137E-2,-2.6852524E-1,-3.4686255E-1,8.4227644E-2,-2.8103885E-1,7.310384E-2,-7.225628E-2,1.13960795E-1,-8.2218535E-2,-6.792488E-2,8.208139E-2,-7.470204E-2,-2.5366312E-2,7.533824E-2,-7.407304E-2,1.4E1,2.768849E-1,-2.7432892E-2,4.925286E-2,2.2767013E-1,2.1205463E-2,-1.1347154E-2,-2.4286708E-1,1.65251E-1,2.6727114E-2,2.5205359E-2,8.351386E-2,-7.438808E-2,-2.839389E-1,-7.3511265E-2,5.159669E-3,4.2369545E-2,-7.5030155E-2,-2.140242E-2,-5.1980045E-2,-5.7271183E-2,1.9803626E-2,8.081131E-2,-5.9278734E-2,5.9056967E-2,-7.320473E-2,-7.354215E-2,6.897122E-2,-7.373072E-2,8.0556855E-2,-6.438385E-2,-1.8770987E-2,-6.1910283E-2,-8.770011E-3,-4.7794696E-2,1.2464891E-2,-1.1879288E-2,-6.318924E-2,-6.0732163E-2,2.5841927E-2],"split_indices":[2435,846,2120,0,2156,2421,2005,2561,2485,2341,2158,1539,2529,215,2421,2697,2275,2001,1552,2329,2622,0,2491,2743,2719,0,0,2228,2639,2387,0,0,0,0,0,0,2005,2381,2184,2134,2062,2613,2537,2409,2725,2746,2784,2663,2419,0,2005,0,0,0,0,0,0,2005,2291,2266,2341,0,0,0,2029,304,2348,2764,2119,2255,2340,2759,0,0,2719,0,0,2225,0,2223,2320,0,2465,0,0,2043,2308,0,0,0,0,0,0,2001,775,0,0,2746,0,2037,2180,2108,0,0,0,0,2682,0,0,0,0,0,0,0,0,0,0,0,0,0,0,0,0,0,0,0,0,0,0,0,0,0,0],"split_type":[0,0,0,0,0,0,0,0,0,0,0,0,0,0,0,0,0,0,0,0,0,0,0,0,0,0,0,0,0,0,0,0,0,0,0,0,0,0,0,0,0,0,0,0,0,0,0,0,0,0,0,0,0,0,0,0,0,0,0,0,0,0,0,0,0,0,0,0,0,0,0,0,0,0,0,0,0,0,0,0,0,0,0,0,0,0,0,0,0,0,0,0,0,0,0,0,0,0,0,0,0,0,0,0,0,0,0,0,0,0,0,0,0,0,0,0,0,0,0,0,0,0,0,0,0,0,0,0,0,0,0,0,0],"sum_hessian":[2.1106387E4,9.059931E3,1.2046457E4,6.9326636E2,8.366664E3,3.649198E3,8.397259E3,8.15216E3,2.145038E2,7.944101E2,2.8547878E3,8.137282E3,2.599769E2,1.0087234E2,8.051288E3,3.638126E1,1.7812254E2,1.1092882E2,6.834813E2,4.54363E2,2.4004248E3,1.313259E2,8.005956E3,2.2082597E2,3.9150932E1,6.035583E0,9.4836754E1,8.6295E1,7.9649927E3,3.0097416E1,6.2838464E0,1.7382864E2,4.293899E0,1.0679021E2,4.1386127E0,1.2658538E1,6.7082275E2,6.713855E1,3.8722446E2,2.3155332E3,8.48917E1,1.8667007E2,7.819286E3,5.4411674E1,1.664143E2,1.0340209E1,2.8810722E1,6.483095E1,2.146405E1,1.690188E1,7.948091E3,2.5157013E1,4.940402E0,6.663576E2,4.4651346E0,6.4096794E1,3.0417604E0,3.4388397E2,4.3340485E1,2.2305964E3,8.493666E1,6.0358543E0,7.885585E1,3.6005665E1,1.5066441E2,8.355787E1,7.735728E3,9.599386E0,4.4812286E1,1.5380162E2,1.2612685E1,7.2704396E0,3.0697691E0,4.784832E0,2.402589E1,6.1736416E1,3.0945268E0,1.8359945E1,3.104105E0,7.8307925E3,1.17298454E2,3.3460226E2,9.281723E0,7.2241063E0,3.611638E1,1.1601039E2,2.1145862E3,1.4305916E1,7.0630745E1,1.4748184E2,3.182559E0,7.51062E0,7.604725E1,5.5676514E1,7.680052E3,4.0520787E0,5.547308E0,3.9777782E1,5.034503E0,1.2018664E2,3.361498E1,6.786274E0,5.8264117E0,3.3826213E0,3.8878183E0,1.309753E1,1.0928359E1,1.4079691E1,4.2802544E0,7.3519483E0,7.8234404E3,3.8615177E1,7.868327E1,4.261009E0,5.020714E0,6.764672E1,4.8363674E1,2.2322044E1,2.0922642E3,5.1098362E1,4.578153E0,4.4862133E1,7.6351895E3,2.3358418E1,1.6419367E1,1.1540904E2,4.777601E0,2.5810242E1,7.804737E0,3.0496056E0,3.7366683E0,5.2132955E0,5.7150636E0],"tree_param":{"num_deleted":"0","num_feature":"2796","num_nodes":"133","size_leaf_vector":"1"}},{"base_weights":[3.2457564E-4,1.2260818E0,-7.5470644E-1,-3.172108E-1,1.5258961E0,1.1010187E0,-1.0674721E0,-1.1067004E0,1.0389495E0,-7.577688E-1,1.575585E0,-8.407579E-1,1.3762454E0,8.108808E-2,-1.2542267E0,-1.252609E0,1.5110947E0,1.5877322E0,-7.1320754E-1,1.0678205E0,-1.3635572E0,1.612657E0,-5.773021E-1,1.2165923E0,-1.3303704E0,1.4532576E0,-7.079417E-2,8.162188E-2,-1.3095413E0,-1.442397E0,-6.591447E-1,8.044294E-2,8.579227E-3,1.6191559E0,-2.0835742E-2,-1.166021E0,1.4488548E0,-6.3756265E-2,7.888031E-2,-1.4309067E0,2.8513452E-2,-9.9228656E-1,1.6250056E0,-6.5167946E-1,5.6662714E-1,8.120536E-2,-7.9283696E-1,7.5553274E-1,-1.4533517E0,1.5619121E0,-5.310883E-1,1.3057804E0,-1.3607994E0,1.806709E-2,-1.4568008E0,7.74208E-2,-8.0754E-1,1.3644576E-2,8.1535995E-2,-1.3177509E0,6.9045946E-2,2.494323E-2,7.952812E-2,-7.310054E-2,-2.99848E-2,-7.174059E-2,6.861199E-2,1.6289872E0,-6.1872482E-2,-7.0181286E-1,3.8095113E-2,6.245322E-2,-1.3723398E-2,1.3405938E-3,-6.392356E-2,-3.4294676E-2,7.104057E-2,-2.403401E-2,-7.3381715E-2,-6.964972E-2,1.6002555E0,7.675512E-2,-9.9232024E-1,-6.6582434E-2,1.6412524E0,8.12671E-2,-1.4050145E0,-7.323981E-2,-1.8703345E-2,-1.4198794E0,-6.710507E-1,-1.428927E0,-3.9121664E-1,4.106406E-3,8.1490636E-2,9.725575E-2,-7.972882E-1,-9.4455564E-1,1.6205567E0,-1.0879645E0,1.7576E-2,3.471274E-2,8.270808E-2,1.5606492E0,-1.4242676E0,-7.5358994E-2,-2.25422E-2,2.1033684E-2,-3.776987E-2,-1.1128772E-2,-7.369217E-2,-4.8174325E-2,3.2124262E-2,-4.9559593E-2,3.18696E-2,1.2208879E-3,-4.411985E-2,-6.5538004E-2,6.3670734E-3,8.132085E-2,-3.0995652E-2,-2.9367998E-2,-6.716593E-2,1.4656506E-2,8.103313E-2,9.299845E-2,-7.178568E-2],"categories":[],"categories_nodes":[],"categories_segments":[],"categories_sizes":[],"default_left":[0,0,0,0,0,0,0,0,0,0,0,0,1,0,0,0,0,0,0,0,0,0,0,1,0,1,0,0,0,0,0,0,0,0,0,0,0,0,0,0,0,0,0,0,0,0,0,0,0,0,0,0,0,0,0,0,0,0,0,0,0,0,0,0,0,0,0,0,0,0,0,0,0,0,0,0,0,0,0,0,0,0,0,0,0,0,0,0,0,0,0,0,0,0,0,0,0,0,0,0,0,0,0,0,0,0,0,0,0,0,0,0,0,0,0,0,0,0,0,0,0,0,0,0,0,0,0],"id":7,"left_children":[1,3,5,7,9,11,13,15,17,19,21,23,25,-1,27,29,31,33,35,37,39,41,43,45,47,49,-1,-1,51,53,55,-1,-1,57,-1,59,61,-1,-1,63,-1,65,67,69,71,-1,73,75,77,79,81,83,85,-1,87,-1,89,-1,-1,91,-1,-1,-1,-1,-1,-1,-1,93,-1,95,-1,-1,-1,-1,-1,-1,-1,-1,-1,-1,97,-1,99,-1,101,-1,103,-1,-1,105,107,109,111,-1,-1,113,115,117,119,121,-1,-1,-1,123,125,-1,-1,-1,-1,-1,-1,-1,-1,-1,-1,-1,-1,-1,-1,-1,-1,-1,-1,-1,-1,-1,-1],"loss_changes":[1.9148889E4,3.6497178E3,7.4326235E3,1.375636E3,7.5057324E2,9.883628E2,5.505253E3,3.1199945E2,4.5582498E2,1.5773224E2,5.168154E2,2.3323898E2,3.5003296E2,0E0,1.6382695E3,8.572742E1,5.3964844E0,2.3375427E1,1.1277971E2,4.473354E1,1.4692017E1,2.0602344E2,9.741573E0,3.7911507E1,4.8867523E1,3.404839E2,0E0,0E0,1.3496543E3,1.5653931E1,6.2940414E1,0E0,0E0,5.0823364E0,0E0,3.8291153E1,1.9118195E0,0E0,0E0,1.7923889E0,0E0,3.3990143E1,7.410156E1,7.8975677E0,4.509964E0,0E0,3.3034177E0,1.15476E1,1.742218E0,1.7147925E2,8.017088E1,1.7364188E2,1.3043594E3,0E0,4.4543457E0,0E0,1.3849579E1,0E0,0E0,8.668671E0,0E0,0E0,0E0,0E0,0E0,0E0,0E0,7.9335938E0,0E0,7.7721214E0,0E0,0E0,0E0,0E0,0E0,0E0,0E0,0E0,0E0,0E0,7.7740234E1,0E0,9.132011E0,0E0,9.5880127E-1,0E0,5.571289E2,0E0,0E0,1.9756393E0,1.3828598E1,3.985489E0,7.1110225E0,0E0,0E0,7.484405E0,6.3297615E0,4.9976435E0,2.0228271E1,7.3659973E0,0E0,0E0,0E0,4.329605E0,3.6566016E2,0E0,0E0,0E0,0E0,0E0,0E0,0E0,0E0,0E0,0E0,0E0,0E0,0E0,0E0,0E0,0E0,0E0,0E0,0E0,0E0,0E0,0E0],"parents":[2147483647,0,0,1,1,2,2,3,3,4,4,5,5,6,6,7,7,8,8,9,9,10,10,11,11,12,12,14,14,15,15,16,16,17,17,18,18,19,19,20,20,21,21,22,22,23,23,24,24,25,25,28,28,29,29,30,30,33,33,35,35,36,36,39,39,41,41,42,42,43,43,44,44,46,46,47,47,48,48,49,49,50,50,51,51,52,52,54,54,56,56,59,59,67,67,69,69,80,80,82,82,84,84,86,86,89,89,90,90,91,91,92,92,95,95,96,96,97,97,98,98,99,99,103,103,104,104],"right_children":[2,4,6,8,10,12,14,16,18,20,22,24,26,-1,28,30,32,34,36,38,40,42,44,46,48,50,-1,-1,52,54,56,-1,-1,58,-1,60,62,-1,-1,64,-1,66,68,70,72,-1,74,76,78,80,82,84,86,-1,88,-1,90,-1,-1,92,-1,-1,-1,-1,-1,-1,-1,94,-1,96,-1,-1,-1,-1,-1,-1,-1,-1,-1,-1,98,-1,100,-1,102,-1,104,-1,-1,106,108,110,112,-1,-1,114,116,118,120,122,-1,-1,-1,124,126,-1,-1,-1,-1,-1,-1,-1,-1,-1,-1,-1,-1,-1,-1,-1,-1,-1,-1,-1,-1,-1,-1],"split_conditions":[-4.1534218E-1,-7.025293E-2,-4.21029E-2,1.592556E-1,2.8847727E-1,-5.1718637E-2,1.8558817E-1,3.5663572E-1,-8.6925775E-2,-1.8458785E-1,2.400001E1,2.7046159E-2,2.6668537E-1,8.108808E-2,4.073439E-1,-1.5801258E-1,-1.9559165E0,2.400001E1,4.5587492E-1,-5.596933E-1,-3.5021943E-1,2.9477197E-1,1.676592E-1,2.4173307E-1,-1.3305926E-1,1.8119438E-1,-7.079417E-2,8.162188E-2,1.9427074E-1,-8.643991E-2,-3.4686008E-1,8.044294E-2,8.579227E-3,7.879515E-2,-2.0835742E-2,3.6854256E-2,-8.11454E-1,-6.3756265E-2,7.888031E-2,3.0839038E-1,2.8513452E-2,-1.2602134E-1,6.16095E-1,2.4205899E-1,2.9699957E-1,8.120536E-2,1.3982821E-2,-1.7073593E-1,-2.4737614E-1,2.8287613E-1,-1.7435333E-1,-2.401558E-2,9.8512703E-1,1.806709E-2,6.1148528E-2,7.74208E-2,-3.101313E-1,1.3644576E-2,8.1535995E-2,4.140621E-1,6.9045946E-2,2.494323E-2,7.952812E-2,-7.310054E-2,-2.99848E-2,-7.174059E-2,6.861199E-2,-1.6228741E-1,-6.1872482E-2,8.745596E-2,3.8095113E-2,6.245322E-2,-1.3723398E-2,1.3405938E-3,-6.392356E-2,-3.4294676E-2,7.104057E-2,-2.403401E-2,-7.3381715E-2,-6.964972E-2,-3.1888977E-1,7.675512E-2,3.001625E-1,-6.6582434E-2,-5.2581213E-2,8.12671E-2,2.1250461E-1,-7.323981E-2,-1.8703345E-2,-1.3183793E-1,5.299649E-1,8.5877925E-3,1.5047318E-1,4.106406E-3,8.1490636E-2,1.8317075E-1,-1.2997411E-1,2.1383813E-1,2.400001E1,8.39159E-2,1.7576E-2,3.471274E-2,8.270808E-2,1.3400141E-2,1.835562E-1,-7.5358994E-2,-2.25422E-2,2.1033684E-2,-3.776987E-2,-1.1128772E-2,-7.369217E-2,-4.8174325E-2,3.2124262E-2,-4.9559593E-2,3.18696E-2,1.2208879E-3,-4.411985E-2,-6.5538004E-2,6.3670734E-3,8.132085E-2,-3.0995652E-2,-2.9367998E-2,-6.716593E-2,1.4656506E-2,8.103313E-2,9.299845E-2,-7.178568E-2],"split_indices":[2416,2102,2421,2181,2485,2207,842,2128,2562,2526,2006,2455,1898,0,304,2197,2170,2006,2203,2315,2424,606,2426,417,2713,1561,0,0,2374,2042,2401,0,0,2555,0,2628,2563,0,0,2193,0,2259,2351,2067,2746,0,2239,2053,2503,1539,2165,2523,622,0,2475,0,2791,0,0,2188,0,0,0,0,0,0,0,2229,0,2527,0,0,0,0,0,0,0,0,0,0,2509,0,2224,0,2598,0,191,0,0,2766,2159,2603,2312,0,0,2206,2265,509,2006,2698,0,0,0,2511,860,0,0,0,0,0,0,0,0,0,0,0,0,0,0,0,0,0,0,0,0,0,0],"split_type":[0,0,0,0,0,0,0,0,0,0,0,0,0,0,0,0,0,0,0,0,0,0,0,0,0,0,0,0,0,0,0,0,0,0,0,0,0,0,0,0,0,0,0,0,0,0,0,0,0,0,0,0,0,0,0,0,0,0,0,0,0,0,0,0,0,0,0,0,0,0,0,0,0,0,0,0,0,0,0,0,0,0,0,0,0,0,0,0,0,0,0,0,0,0,0,0,0,0,0,0,0,0,0,0,0,0,0,0,0,0,0,0,0,0,0,0,0,0,0,0,0,0,0,0,0,0,0],"sum_hessian":[2.0688658E4,7.885804E3,1.28028545E4,1.2827574E3,6.6030464E3,1.8462173E3,1.0956638E4,8.1088446E2,4.7187296E2,1.4030867E2,6.462738E3,2.2894087E2,1.6172764E3,7.10979E2,1.0245658E4,7.685681E2,4.231636E1,3.5940097E2,1.1247201E2,3.476849E1,1.0554018E2,6.353582E3,1.09155716E2,4.372476E1,1.8521611E2,1.5743328E3,4.294361E1,1.9210107E2,1.0053558E4,5.8125446E2,1.8731367E2,3.925058E1,3.0657823E0,3.5404285E2,5.3581095E0,9.337634E1,1.9095665E1,5.944877E0,2.882361E1,1.0223954E2,3.3006384E0,2.960244E1,6.3239795E3,1.0289583E2,6.259887E0,3.6511864E1,7.212896E0,1.0025679E1,1.7519043E2,1.4928059E3,8.152689E1,1.9278334E2,9.860774E3,4.41404E0,5.768404E2,1.1204134E1,1.7610953E2,3.224708E0,3.5081815E2,8.858183E1,4.7945085E0,3.0654774E0,1.6030188E1,9.78202E1,4.4193425E0,2.5266891E1,4.3355494E0,6.315626E3,8.353813E0,9.985784E1,3.0379884E0,3.1881118E0,3.0717757E0,3.03509E0,4.1778064E0,3.1562347E0,6.869444E0,3.0367632E0,1.7215367E2,1.8670221E1,1.4741356E3,1.4453041E1,6.707386E1,2.1419224E1,1.713641E2,1.4335396E2,9.71742E3,5.7226166E2,4.578724E0,3.038568E1,1.4572386E2,7.86074E1,9.974434E0,3.4225554E0,6.312203E3,1.0655911E1,8.920193E1,1.1306545E1,1.4628291E3,6.2795E1,4.2788596E0,3.0412917E0,1.6832281E2,6.2162594E1,9.655258E3,2.7365023E1,3.020656E0,1.0165195E1,1.3555865E2,3.035529E0,7.557187E1,6.4638786E0,3.510555E0,3.2571785E0,7.3987327E0,8.438945E0,8.0762985E1,8.261302E0,3.0452437E0,1.4592861E3,3.5429277E0,2.2326197E1,4.04688E1,3.0761867E0,5.9086407E1,3.2971874E1,9.622286E3],"tree_param":{"num_deleted":"0","num_feature":"2796","num_nodes":"127","size_leaf_vector":"1"}},{"base_weights":[-9.098174E-4,1.1847148E0,-7.341659E-1,-3.905955E-1,1.4447204E0,-1.0954221E0,9.924987E-1,-9.852981E-1,1.1935894E0,-1.428781E0,1.4934455E0,7.855738E-2,-1.1958159E0,1.1873246E0,-1.3055326E0,-1.2168459E0,9.607331E-1,1.5478784E0,-7.478397E-1,-3.5188716E-2,-7.214458E-2,1.5380244E0,-6.503864E-1,7.937884E-2,-1.265074E0,-1.3627869E0,1.3207408E0,6.911682E-2,-7.163513E-2,-1.2819525E0,1.3304716E0,-8.8012135E-1,7.781444E-2,7.8786425E-2,-1.8747104E-2,6.1455484E-2,-9.1250813E-1,-7.706306E-1,1.5749642E0,4.0743998E-1,-7.1518314E-1,-1.317949E0,1.3170956E0,-7.091996E-2,1.33622335E-2,-2.8593078E-1,1.4720176E0,-3.0604053E-1,-1.3540409E0,7.871511E-2,3.3495815E-3,-1.0855869E0,1.4203668E-2,-1.0087028E0,1.4836256E-2,1.3964275E0,-1.4001626E0,1.5793945E0,-6.4664245E-2,-2.7247507E-2,7.515287E-2,-1.0143179E0,-4.3966463E-1,8.277503E-2,-1.346147E0,-6.886713E-2,1.5736978E0,1.5149161E0,-1.3972219E0,1.5530043E0,-7.048247E-1,1.025845E0,-6.14962E-1,-7.9129994E-1,-7.166834E-2,-6.550432E-2,-3.8025558E-3,2.5205899E-3,-1.1476467E0,7.779565E-2,1.1885284E-2,-2.597116E-2,-7.142442E-2,1.5804924E0,-2.5558997E-2,-2.2267386E-1,-1.1762571E0,-5.3224623E-1,5.193257E-2,9.403463E-1,-1.3786124E0,8.125264E-2,-4.770532E-2,2.5572443E-2,7.7824004E-2,-2.7613828E-2,-7.086616E-2,1.569407E0,-6.495666E-2,-6.962235E-2,7.4896865E-2,7.5525016E-2,-6.9364876E-4,1.8467346E-2,-3.9555904E-2,-4.4392314E-2,1.10589685E-2,-4.8968014E-3,-6.277195E-2,7.904458E-2,3.0174796E-2,-4.5677163E-2,3.0020947E-2,-1.4159026E-2,-6.414857E-2,7.584344E-3,-3.385421E-2,7.687188E-2,-4.1201387E-2,7.848805E-2,-6.985748E-2,-5.763051E-2,7.876184E-2],"categories":[],"categories_nodes":[],"categories_segments":[],"categories_sizes":[],"default_left":[0,0,0,0,0,0,1,0,0,0,0,0,0,0,0,0,0,0,0,0,0,0,0,0,0,0,0,0,0,0,0,0,0,0,0,0,0,0,0,0,0,0,0,0,0,0,0,0,0,0,0,0,0,0,0,0,0,0,0,0,0,0,0,0,0,0,1,0,0,1,0,0,0,0,0,0,0,0,0,0,0,0,0,1,0,0,0,0,0,0,0,0,0,0,0,0,0,0,0,0,0,0,0,0,0,0,0,0,0,0,0,0,0,0,0,0,0,0,0,0,0,0,0],"id":8,"left_children":[1,3,5,7,9,11,13,15,17,19,21,-1,23,25,27,29,31,33,35,-1,-1,37,39,-1,41,43,45,-1,-1,47,49,51,-1,-1,-1,-1,53,55,57,59,61,63,65,-1,-1,67,69,71,73,-1,-1,75,-1,77,-1,79,81,83,-1,-1,-1,85,87,-1,89,-1,91,93,95,97,99,101,103,105,-1,-1,-1,-1,107,-1,-1,-1,-1,109,-1,111,113,115,-1,117,119,-1,-1,-1,-1,-1,-1,121,-1,-1,-1,-1,-1,-1,-1,-1,-1,-1,-1,-1,-1,-1,-1,-1,-1,-1,-1,-1,-1,-1,-1,-1,-1],"loss_changes":[1.7626053E4,3.1738457E3,7.815112E3,1.0359576E3,9.3322754E2,2.7753574E3,9.7219507E2,3.612517E2,2.0766788E2,1.2409973E-1,6.26E2,0E0,1.9268047E3,6.8193945E2,6.0059418E1,1.2021802E2,9.514036E1,1.4204834E1,1.6424753E1,0E0,0E0,5.475928E2,9.470772E0,0E0,1.3319629E3,9.4331665E0,4.622683E2,0E0,0E0,4.8641357E1,5.5321884E0,5.4622345E0,0E0,0E0,0E0,0E0,5.4137344E0,1.4051927E2,8.217871E1,9.549476E0,9.984192E0,8.0277344E2,1.3768365E2,0E0,0E0,3.3103516E2,3.07292E2,2.0897203E1,2.7838501E1,0E0,0E0,4.098032E0,0E0,6.0847282E0,0E0,3.9479065E0,1.2339783E0,1.5260742E1,0E0,0E0,0E0,7.4185753E0,9.810651E0,0E0,7.034414E2,0E0,2.4842804E1,1.8398438E0,9.5233154E-1,8.0393555E1,9.749046E1,4.8828564E0,7.333251E0,8.252926E0,0E0,0E0,0E0,0E0,3.978489E0,0E0,0E0,0E0,0E0,1.5E0,0E0,7.035506E0,4.354553E0,6.4738903E0,0E0,1.4139993E2,5.119453E2,0E0,0E0,0E0,0E0,0E0,0E0,2.8248535E1,0E0,0E0,0E0,0E0,0E0,0E0,0E0,0E0,0E0,0E0,0E0,0E0,0E0,0E0,0E0,0E0,0E0,0E0,0E0,0E0,0E0,0E0,0E0,0E0,0E0],"parents":[2147483647,0,0,1,1,2,2,3,3,4,4,5,5,6,6,7,7,8,8,9,9,10,10,12,12,13,13,14,14,15,15,16,16,17,17,18,18,21,21,22,22,24,24,25,25,26,26,29,29,30,30,31,31,36,36,37,37,38,38,39,39,40,40,41,41,42,42,45,45,46,46,47,47,48,48,51,51,53,53,55,55,56,56,57,57,61,61,62,62,64,64,66,66,67,67,68,68,69,69,70,70,71,71,72,72,73,73,78,78,83,83,85,85,86,86,87,87,89,89,90,90,97,97],"right_children":[2,4,6,8,10,12,14,16,18,20,22,-1,24,26,28,30,32,34,36,-1,-1,38,40,-1,42,44,46,-1,-1,48,50,52,-1,-1,-1,-1,54,56,58,60,62,64,66,-1,-1,68,70,72,74,-1,-1,76,-1,78,-1,80,82,84,-1,-1,-1,86,88,-1,90,-1,92,94,96,98,100,102,104,106,-1,-1,-1,-1,108,-1,-1,-1,-1,110,-1,112,114,116,-1,118,120,-1,-1,-1,-1,-1,-1,122,-1,-1,-1,-1,-1,-1,-1,-1,-1,-1,-1,-1,-1,-1,-1,-1,-1,-1,-1,-1,-1,-1,-1,-1,-1],"split_conditions":[-4.1534218E-1,1.0933843E-1,-1.3880354E-1,5.8731973E-1,3.711425E-1,1.8558817E-1,2.167272E-1,2.9450196E-1,2.943363E-1,-1.4690314E-1,2.400001E1,7.855738E-2,4.073439E-1,1.5993096E-1,-4.2703964E-2,-2.4450235E-1,8.164722E-2,9.2118904E-2,-3.7367217E-2,-3.5188716E-2,-7.214458E-2,-2.0983596E-1,-1.3206954E-1,7.937884E-2,5.921814E-1,-6.466918E-2,-2.6405824E-2,6.911682E-2,-7.163513E-2,-3.5468653E-1,1.7E1,4.9274996E-1,7.781444E-2,7.8786425E-2,-1.8747104E-2,6.1455484E-2,-1.4151756E-1,9.597273E-2,3.7435022E-1,2.65083E-1,-8.7188266E-2,2.7706265E-1,1.22827485E-1,-7.091996E-2,1.33622335E-2,1.2962161E-1,2.3895378E-1,1.0568365E-2,2.313429E-1,7.871511E-2,3.3495815E-3,1.5957749E-1,1.4203668E-2,-1.4462012E-2,1.4836256E-2,-2.7073044E-1,4.9227964E-2,6.0753906E-1,-6.4664245E-2,-2.7247507E-2,7.515287E-2,-6.640324E-1,1.4313787E-1,8.277503E-2,-1.2203297E-1,-6.886713E-2,3.2015055E-1,-2.1664248E-1,-4.19433E-1,2.1649988E-1,7.092109E-2,-3.2828468E-1,-5.036763E-1,3.769249E-1,-7.166834E-2,-6.550432E-2,-3.8025558E-3,2.5205899E-3,-1.8322557E-2,7.779565E-2,1.1885284E-2,-2.597116E-2,-7.142442E-2,2.311606E-1,-2.5558997E-2,-8.31653E-2,1.06179684E-1,2.3318854E-1,5.193257E-2,5.867491E-2,3.152648E-1,8.125264E-2,-4.770532E-2,2.5572443E-2,7.7824004E-2,-2.7613828E-2,-7.086616E-2,4.2462796E-1,-6.495666E-2,-6.962235E-2,7.4896865E-2,7.5525016E-2,-6.9364876E-4,1.8467346E-2,-3.9555904E-2,-4.4392314E-2,1.10589685E-2,-4.8968014E-3,-6.277195E-2,7.904458E-2,3.0174796E-2,-4.5677163E-2,3.0020947E-2,-1.4159026E-2,-6.414857E-2,7.584344E-3,-3.385421E-2,7.687188E-2,-4.1201387E-2,7.848805E-2,-6.985748E-2,-5.763051E-2,7.876184E-2],"split_indices":[2416,2181,2182,2095,1303,842,1818,2379,2274,2078,2006,0,304,2537,2042,2124,2421,2032,2595,0,0,2271,2339,0,2537,2323,2207,0,0,2613,2002,2146,0,0,0,0,2077,2344,2775,2534,2486,1238,2690,0,0,2228,2444,2731,2088,0,0,2575,0,2166,0,2318,2369,2351,0,0,0,2439,2729,0,2421,0,420,2115,2300,1259,2052,2579,2225,2110,0,0,0,0,2490,0,0,0,0,1970,0,2358,2561,2649,0,2788,1981,0,0,0,0,0,0,1375,0,0,0,0,0,0,0,0,0,0,0,0,0,0,0,0,0,0,0,0,0,0,0,0,0],"split_type":[0,0,0,0,0,0,0,0,0,0,0,0,0,0,0,0,0,0,0,0,0,0,0,0,0,0,0,0,0,0,0,0,0,0,0,0,0,0,0,0,0,0,0,0,0,0,0,0,0,0,0,0,0,0,0,0,0,0,0,0,0,0,0,0,0,0,0,0,0,0,0,0,0,0,0,0,0,0,0,0,0,0,0,0,0,0,0,0,0,0,0,0,0,0,0,0,0,0,0,0,0,0,0,0,0,0,0,0,0,0,0,0,0,0,0,0,0,0,0,0,0,0,0],"sum_hessian":[2.0272594E4,7.7464697E3,1.2526125E4,1.0973556E3,6.6491143E3,1.0359132E4,2.166993E3,7.981197E2,2.9923587E2,1.1039489E2,6.538719E3,3.7532867E2,9.983803E3,1.9980801E3,1.6891287E2,7.135884E2,8.453132E1,2.5322745E2,4.6008446E1,3.0788252E0,1.0731607E2,6.4057993E3,1.3292E2,2.418598E2,9.741943E3,9.887988E1,1.8992002E3,7.184791E0,1.6172807E2,6.9628876E2,1.7299631E1,2.054602E1,6.39853E1,2.4979001E2,3.437426E0,3.0405505E0,4.2967896E1,1.0056923E2,6.30523E3,7.366805E0,1.255532E2,9.54694E3,1.950029E2,9.574321E1,3.136667E0,1.6335529E2,1.7358448E3,4.8256153E1,6.480326E2,1.4294943E1,3.0046887E0,1.7521263E1,3.0247583E0,3.995528E1,3.0126138E0,2.2364613E1,7.820462E1,6.2959546E3,9.2754545E0,4.2098804E0,3.1569247E0,5.891107E1,6.664213E1,8.9143074E1,9.457797E3,1.6576332E1,1.7842657E2,6.219886E1,1.0115643E2,1.6738577E3,6.198716E1,8.64845E0,3.9607704E1,8.1418915E1,5.666137E2,1.4090191E1,3.4310725E0,4.7076807E0,3.52476E1,1.9357485E1,3.0071282E0,3.0393329E0,7.516528E1,6.2928936E3,3.060939E0,1.0407723E1,4.850335E1,6.331679E1,3.3253384E0,1.3201762E2,9.325779E3,1.7522385E2,3.202729E0,3.003016E0,5.9195843E1,3.0122757E0,9.814416E1,1.6647335E3,9.124223E0,4.7520763E1,1.4466395E1,5.5899477E0,3.0585024E0,5.845888E0,3.3761814E1,7.444336E1,6.975551E0,3.4601629E0,3.1787436E1,6.289706E3,3.1878695E0,5.598602E0,4.809121E0,5.567058E0,4.293629E1,1.1057122E1,5.2259666E1,9.873336E1,3.328426E1,5.7744488E1,9.268035E3,3.13733E0,1.6615962E3],"tree_param":{"num_deleted":"0","num_feature":"2796","num_nodes":"123","size_leaf_vector":"1"}},{"base_weights":[4.492033E-4,1.0861276E0,-7.664913E-1,-7.0149705E-2,1.2431589E0,-9.57866E-1,1.2426249E0,1.4268351E0,-2.4039242E-1,7.654898E-2,-1.1201044E0,-1.0806562E0,1.3844217E0,1.5123417E0,-7.0859593E-1,-1.0054569E0,1.4099119E0,-1.2895482E0,2.3045184E-1,6.463399E-2,-6.898614E-2,-6.7880526E-2,1.4667269E0,1.5211221E0,-6.726067E-2,-7.345652E-1,2.8208688E-2,-1.293241E0,1.0411074E0,1.4817588E0,-5.414748E-2,8.116895E-2,-1.3154534E0,-1.0601037E0,1.0741005E0,1.5053703E0,-9.076381E-1,1.5291435E0,-6.7093655E-2,-1.0340729E0,-6.004086E-1,7.4657255E-1,-1.3449707E0,7.739392E-2,-3.222043E-1,1.506694E0,-2.1255713E-2,7.5818606E-2,-1.3363476E0,1.103248E0,-1.3818517E0,-1.1547782E0,1.29247E0,1.5382887E0,-8.8358843E-1,1.0151216E-2,-6.1766386E-2,-6.21157E-2,1.5314796E0,1.471661E-2,-1.0909461E0,-6.329865E-1,4.884092E-2,1.2754086E0,-2.9789448E-2,4.7222916E-2,-1.3628545E0,2.83936E-2,-7.1421874E-1,7.640617E-2,9.021751E-3,7.697781E-2,-1.3567433E0,-9.242746E-1,1.4860631E0,9.054942E-4,-1.3931868E0,-1.9515601E-1,-7.048911E-2,1.4750758E0,-3.3496508E-1,1.2713646E-2,7.712144E-2,1.50986435E-2,-6.3793465E-2,-5.8407217E-2,7.6684766E-2,-6.1995823E-2,-2.389977E-2,2.5657257E-2,-3.3464722E-2,2.8954362E-2,7.497999E-2,-6.890003E-2,2.0184E-2,-6.105685E-2,3.3167195E-2,-6.870985E-2,7.636684E-2,-6.9733225E-3,-6.294801E-2,7.714896E-2,2.5472257E-2,-7.0032366E-2,-1.733489E-2,-3.827871E-2,5.3577363E-2,7.579719E-2,-2.9146126E-2,7.131246E-2,-5.3012665E-2],"categories":[],"categories_nodes":[],"categories_segments":[],"categories_sizes":[],"default_left":[0,0,0,0,0,0,0,0,0,0,0,0,0,1,0,0,0,0,0,0,0,0,0,1,0,0,0,0,0,0,0,0,0,0,0,0,0,0,0,0,0,0,0,0,0,0,0,0,0,0,0,0,0,0,0,0,0,0,0,0,0,0,0,0,0,0,0,0,0,0,0,0,0,0,0,0,0,0,0,0,0,0,0,0,0,0,0,0,0,0,0,0,0,0,0,0,0,0,0,0,0,0,0,0,0,0,0,0,0,0,0],"id":9,"left_children":[1,3,5,-1,7,9,11,13,15,-1,17,19,21,23,25,27,29,31,33,-1,-1,-1,35,37,-1,39,-1,41,43,45,-1,-1,47,49,51,53,55,57,-1,59,61,63,65,-1,67,69,-1,-1,71,73,75,77,79,81,83,-1,-1,-1,85,-1,87,89,-1,91,-1,-1,93,-1,95,-1,-1,-1,97,99,101,-1,103,105,-1,107,109,-1,-1,-1,-1,-1,-1,-1,-1,-1,-1,-1,-1,-1,-1,-1,-1,-1,-1,-1,-1,-1,-1,-1,-1,-1,-1,-1,-1,-1,-1],"loss_changes":[1.6421229E4,3.19292E3,4.4449175E3,0E0,2.0931777E3,4.2627812E3,3.3276367E2,1.2489785E3,1.0708136E3,0E0,2.2675742E3,4.3237877E1,2.1597607E2,1.6692773E2,9.133926E0,3.4252905E2,4.9729797E1,6.664287E2,1.2045674E3,0E0,0E0,0E0,8.587207E1,1.525166E2,0E0,9.784576E0,0E0,5.4641235E1,5.0221924E1,1.3078735E1,0E0,0E0,5.183428E2,3.0599878E2,3.2704694E2,7.26582E1,5.8460236E0,4.4206055E1,0E0,6.2690353E0,9.93074E0,1.014117E1,2.1599426E1,0E0,7.4994545E0,7.069275E0,0E0,0E0,5.1021875E2,4.5762787E1,6.0750732E0,1.4459259E1,1.8167352E2,4.3640137E0,6.411834E0,0E0,0E0,0E0,4.0845703E1,0E0,6.32032E0,7.757988E0,0E0,6.6126823E-1,0E0,0E0,1.3738098E1,0E0,1.0975584E1,0E0,0E0,0E0,4.3512305E2,2.3721647E0,1.9093094E0,0E0,2.46698E0,1.0792923E1,0E0,4.7002563E1,8.112002E1,0E0,0E0,0E0,0E0,0E0,0E0,0E0,0E0,0E0,0E0,0E0,0E0,0E0,0E0,0E0,0E0,0E0,0E0,0E0,0E0,0E0,0E0,0E0,0E0,0E0,0E0,0E0,0E0,0E0,0E0],"parents":[2147483647,0,0,1,1,2,2,4,4,5,5,6,6,7,7,8,8,10,10,11,11,12,12,13,13,14,14,15,15,16,16,17,17,18,18,22,22,23,23,25,25,27,27,28,28,29,29,32,32,33,33,34,34,35,35,36,36,37,37,39,39,40,40,41,41,42,42,44,44,45,45,48,48,49,49,50,50,51,51,52,52,53,53,54,54,58,58,60,60,61,61,63,63,66,66,68,68,72,72,73,73,74,74,76,76,77,77,79,79,80,80],"right_children":[2,4,6,-1,8,10,12,14,16,-1,18,20,22,24,26,28,30,32,34,-1,-1,-1,36,38,-1,40,-1,42,44,46,-1,-1,48,50,52,54,56,58,-1,60,62,64,66,-1,68,70,-1,-1,72,74,76,78,80,82,84,-1,-1,-1,86,-1,88,90,-1,92,-1,-1,94,-1,96,-1,-1,-1,98,100,102,-1,104,106,-1,108,110,-1,-1,-1,-1,-1,-1,-1,-1,-1,-1,-1,-1,-1,-1,-1,-1,-1,-1,-1,-1,-1,-1,-1,-1,-1,-1,-1,-1,-1,-1],"split_conditions":[7.825152E-2,3.092896E-1,5.9976196E-1,-7.0149705E-2,9.149721E-2,4.628145E-1,-1.9574007E-1,6.2000008E1,1.5598027E-1,7.654898E-2,6.868705E-2,2.0543893E-1,8.287909E-1,2.651185E-1,-1.1543829E-1,-4.516596E-1,2.8291243E-1,4.0752628E-1,-7.918953E-2,6.463399E-2,-6.898614E-2,-6.7880526E-2,6.2000008E1,2.9247501E-1,-6.726067E-2,1.6904339E-1,2.8208688E-2,1.298389E-1,6.2000008E1,2.2012049E-1,-5.414748E-2,8.116895E-2,4.073439E-1,-2.167623E-1,-4.3579817E-1,2.652563E-1,1.5649703E-1,7.626588E-1,-6.7093655E-2,-4.9761944E-2,-1.4649406E-1,-4.0781027E-1,-3.528964E-1,7.739392E-2,-4.033988E-1,6.2000008E1,-2.1255713E-2,7.5818606E-2,6.613762E-1,3.7207104E-2,-1.8927911E-1,-3.4587753E-1,2.814267E-1,6.616466E-2,-8.222072E-2,1.0151216E-2,-6.1766386E-2,-6.21157E-2,5.8960056E-1,1.471661E-2,-2.9810333E-1,1.9585636E-1,4.884092E-2,2.9779404E-1,-2.9789448E-2,4.7222916E-2,2.2532316E-1,2.83936E-2,-3.288025E-1,7.640617E-2,9.021751E-3,7.697781E-2,-6.235437E-1,3.1896868E-1,3.9653745E-1,9.054942E-4,1.7725511E-1,-1.7528908E-1,-7.048911E-2,6.2000008E1,-2.4901371E-2,1.2713646E-2,7.712144E-2,1.50986435E-2,-6.3793465E-2,-5.8407217E-2,7.6684766E-2,-6.1995823E-2,-2.389977E-2,2.5657257E-2,-3.3464722E-2,2.8954362E-2,7.497999E-2,-6.890003E-2,2.0184E-2,-6.105685E-2,3.3167195E-2,-6.870985E-2,7.636684E-2,-6.9733225E-3,-6.294801E-2,7.714896E-2,2.5472257E-2,-7.0032366E-2,-1.733489E-2,-3.827871E-2,5.3577363E-2,7.579719E-2,-2.9146126E-2,7.131246E-2,-5.3012665E-2],"split_indices":[2619,1303,2156,0,2151,842,2221,2005,2324,0,2120,2771,1035,668,2682,2049,2605,1336,2435,0,0,0,2005,261,0,2515,0,2187,2005,2422,0,0,304,2674,2411,2619,2345,264,0,2623,2235,2028,2718,0,2141,2005,0,0,286,2207,2640,2030,2217,2746,2033,0,0,0,265,0,2754,2485,0,2126,0,0,2294,0,2424,0,0,0,2433,2196,2786,0,2179,2507,0,2005,2710,0,0,0,0,0,0,0,0,0,0,0,0,0,0,0,0,0,0,0,0,0,0,0,0,0,0,0,0,0,0],"split_type":[0,0,0,0,0,0,0,0,0,0,0,0,0,0,0,0,0,0,0,0,0,0,0,0,0,0,0,0,0,0,0,0,0,0,0,0,0,0,0,0,0,0,0,0,0,0,0,0,0,0,0,0,0,0,0,0,0,0,0,0,0,0,0,0,0,0,0,0,0,0,0,0,0,0,0,0,0,0,0,0,0,0,0,0,0,0,0,0,0,0,0,0,0,0,0,0,0,0,0,0,0,0,0,0,0,0,0,0,0,0,0],"sum_hessian":[1.9719629E4,8.1632886E3,1.155634E4,4.8396524E2,7.679323E3,1.0551773E4,1.0045667E3,6.833337E3,8.459864E2,6.4522064E2,9.906553E3,5.7404053E1,9.4716266E2,6.570532E3,2.6280484E2,5.782884E2,2.6769797E2,8.802248E3,1.1043047E3,6.0522375E0,5.1351814E1,2.7150137E1,9.200125E2,6.550871E3,1.9660961E1,2.5796426E2,4.840578E0,5.0731833E2,7.097008E1,2.60593E2,7.1049824E0,7.7046555E1,8.725202E3,4.3642908E2,6.678756E2,9.0563904E2,1.4373492E1,6.533033E3,1.783812E1,7.772763E1,1.8023662E2,1.2215156E1,4.9510318E2,5.16393E1,1.9330774E1,2.574365E2,3.1564922E0,6.338147E1,8.66182E3,5.6190388E1,3.802387E2,5.9212303E1,6.086633E2,8.936807E2,1.1958306E1,3.361284E0,1.1012209E1,5.055079E0,6.527978E3,3.0197291E0,7.47079E1,1.771757E2,3.0609229E0,8.7987E0,3.4164546E0,3.4359138E0,4.9166724E2,5.773449E0,1.3557326E1,2.5319325E2,4.2432537E0,6.0472122E1,8.601348E3,8.69964E0,4.7490746E1,3.0491676E0,3.7718954E2,1.2801905E1,4.64104E1,5.473425E2,6.1320797E1,3.0728645E0,8.9060785E2,3.0302918E0,8.928015E0,4.922093E0,6.523056E3,5.9278187E1,1.5429718E1,5.0370803E0,1.7213861E2,3.0155694E0,5.783131E0,4.8770566E2,3.961599E0,9.993464E0,3.563862E0,8.550128E3,5.1219696E1,3.0243993E0,5.6752405E0,4.4327477E1,3.1632688E0,3.7418356E2,3.0059683E0,9.099749E0,3.7021558E0,5.3694324E2,1.0399262E1,1.7604765E1,4.3716034E1],"tree_param":{"num_deleted":"0","num_feature":"2796","num_nodes":"111","size_leaf_vector":"1"}},{"base_weights":[-2.834326E-3,-1.0193893E0,7.454321E-1,7.450183E-2,-1.2361513E0,-3.5916552E-1,1.2164098E0,-1.2973137E0,1.1571624E0,1.044337E0,-7.6666284E-1,-6.9577366E-2,1.2704003E0,6.2879884E-1,-1.3401976E0,7.4613616E-2,-8.582856E-1,-1.0714729E0,1.4273682E0,7.445862E-2,-1.014981E0,1.3359911E0,-6.4929706E-1,-5.815368E-1,1.4708251E0,7.244814E-2,-1.3535868E0,2.925171E-1,-1.2512758E0,-6.8157636E-2,6.960677E-2,-5.931645E-1,1.4828255E0,1.5232198E0,-1.1505558E0,-6.814762E-2,1.37545E0,-1.0174831E0,-4.85581E-1,6.945567E-2,-9.670865E-1,-9.148639E-3,7.649839E-2,-1.3614745E0,1.3575424E0,4.8670657E-2,-2.3875177E-2,-6.662465E-2,-3.020292E-2,6.2485505E-2,-6.410669E-2,7.505086E-2,-5.129179E-2,7.73546E-2,2.4139214E-2,7.395426E-2,-1.2209351E0,-6.9305666E-2,1.4108628E0,-2.2961774E-1,-1.1046356E0,4.6860676E-2,-5.17494E-1,2.2222823E-2,-1.0738262E0,2.361071E-3,-1.3679104E0,7.179223E-2,3.3724956E-2,1.2403756E0,-1.2934195E0,1.4388778E0,-1.1187745E0,-5.3098496E-2,4.310458E-2,-1.569628E-1,-1.1952612E0,-9.7144455E-1,-4.0050593E-1,-2.5845075E-2,-6.714257E-2,-2.5051743E-2,6.211965E-2,2.9156638E-2,-6.852591E-2,-5.6897487E-2,7.4455075E-2,5.6244668E-2,-6.627202E-2,7.2834834E-2,-6.487035E-2,-6.9689825E-2,6.87289E-2,-5.5871308E-2,4.19972E-2,-6.3472874E-2,-1.2287683E-2,-5.970483E-2,-3.520808E-3,-3.418451E-2,1.3330047E-3],"categories":[],"categories_nodes":[],"categories_segments":[],"categories_sizes":[],"default_left":[0,0,0,0,0,0,0,0,1,0,0,0,0,0,0,0,0,0,0,0,0,0,0,0,0,0,0,1,0,0,0,0,0,0,0,0,0,0,0,0,0,0,0,0,0,0,0,0,0,0,0,0,0,0,0,0,0,0,0,0,0,0,0,0,0,0,0,0,0,0,0,1,0,0,0,0,0,0,0,0,0,0,0,0,0,0,0,0,0,0,0,0,0,0,0,0,0,0,0,0,0],"id":10,"left_children":[1,3,5,-1,7,9,11,13,15,17,19,-1,21,23,25,-1,27,29,31,-1,33,35,37,39,41,-1,43,45,47,-1,-1,49,51,53,55,-1,57,59,61,-1,63,-1,-1,65,67,-1,-1,-1,-1,-1,-1,-1,-1,-1,-1,-1,69,-1,71,73,75,-1,77,-1,79,81,83,-1,-1,85,87,89,91,-1,-1,93,95,97,99,-1,-1,-1,-1,-1,-1,-1,-1,-1,-1,-1,-1,-1,-1,-1,-1,-1,-1,-1,-1,-1,-1],"loss_changes":[1.4587539E4,4.424748E3,5.7472837E3,0E0,1.0971836E3,1.8897743E3,1.0922559E3,6.037422E2,1.2761293E2,6.041616E2,1.4356672E3,0E0,9.563213E2,1.6356221E2,2.686211E2,0E0,1.271332E1,8.421399E1,7.147876E1,0E0,7.956133E2,7.833242E2,1.465815E1,5.165426E1,9.516602E0,0E0,1.5382422E2,4.5336576E0,2.7485275E-1,0E0,0E0,2.3879225E1,2.9538208E1,2.169159E0,4.0721558E2,0E0,7.0925586E2,4.996292E0,8.472515E0,0E0,8.910389E0,0E0,0E0,6.220508E1,1.6095352E-1,0E0,0E0,0E0,0E0,0E0,0E0,0E0,0E0,0E0,0E0,0E0,3.82323E2,0E0,5.07708E2,8.982554E0,5.702301E0,0E0,8.782455E0,0E0,7.146225E0,2.2022884E1,3.6689453E1,0E0,0E0,3.8109077E1,1.6205078E2,3.4629297E2,5.5941315E1,0E0,0E0,7.772246E0,4.0871353E0,6.8743744E0,1.6834309E1,0E0,0E0,0E0,0E0,0E0,0E0,0E0,0E0,0E0,0E0,0E0,0E0,0E0,0E0,0E0,0E0,0E0,0E0,0E0,0E0,0E0,0E0],"parents":[2147483647,0,0,1,1,2,2,4,4,5,5,6,6,7,7,8,8,9,9,10,10,12,12,13,13,14,14,16,16,17,17,18,18,20,20,21,21,22,22,23,23,24,24,26,26,27,27,28,28,31,31,32,32,33,33,34,34,36,36,37,37,38,38,40,40,43,43,44,44,56,56,58,58,59,59,60,60,62,62,64,64,65,65,66,66,69,69,70,70,71,71,72,72,75,75,76,76,77,77,78,78],"right_children":[2,4,6,-1,8,10,12,14,16,18,20,-1,22,24,26,-1,28,30,32,-1,34,36,38,40,42,-1,44,46,48,-1,-1,50,52,54,56,-1,58,60,62,-1,64,-1,-1,66,68,-1,-1,-1,-1,-1,-1,-1,-1,-1,-1,-1,70,-1,72,74,76,-1,78,-1,80,82,84,-1,-1,86,88,90,92,-1,-1,94,96,98,100,-1,-1,-1,-1,-1,-1,-1,-1,-1,-1,-1,-1,-1,-1,-1,-1,-1,-1,-1,-1,-1,-1],"split_conditions":[-7.918953E-2,2.3140226E-1,3.368026E-2,7.450183E-2,6.148457E-1,-6.830026E-2,2.4309891E-1,1.872227E-2,1.8368444E-1,-2.1147124E-2,1.9034173E-1,-6.9577366E-2,6.2000008E1,-4.2695604E-2,-8.8584386E-2,7.4613616E-2,1.1209483E-1,1.4E1,1.9460288E-1,7.445862E-2,1.8509969E-1,2.3802803E-1,2.0997849E-1,-4.665583E-2,-2.9605836E-1,7.244814E-2,-4.2626966E-2,2.6690862E-1,-8.738808E-3,-6.8157636E-2,6.960677E-2,3.5564077E-1,6.2000008E1,1.4523062E-1,4.073439E-1,-6.814762E-2,2.1104614E-1,-2.4510702E-1,2.695298E-1,6.945567E-2,-1.734247E-2,-9.148639E-3,7.649839E-2,1.2803334E-1,2.0352751E-1,4.8670657E-2,-2.3875177E-2,-6.662465E-2,-3.020292E-2,6.2485505E-2,-6.410669E-2,7.505086E-2,-5.129179E-2,7.73546E-2,2.4139214E-2,7.395426E-2,-6.3436165E-2,-6.9305666E-2,6.002749E-1,9.898454E-3,4.5658955E-3,4.6860676E-2,-1.5397795E-2,2.2222823E-2,2.465317E-2,-4.1295004E-1,-7.181282E-2,7.179223E-2,3.3724956E-2,-3.7390304E-1,2.1250461E-1,2.6668537E-1,3.8848527E-2,-5.3098496E-2,4.310458E-2,-3.2677782E-1,2.9500723E-1,1.6403544E-1,7.341261E-2,-2.5845075E-2,-6.714257E-2,-2.5051743E-2,6.211965E-2,2.9156638E-2,-6.852591E-2,-5.6897487E-2,7.4455075E-2,5.6244668E-2,-6.627202E-2,7.2834834E-2,-6.487035E-2,-6.9689825E-2,6.87289E-2,-5.5871308E-2,4.19972E-2,-6.3472874E-2,-1.2287683E-2,-5.970483E-2,-3.520808E-3,-3.418451E-2,1.3330047E-3],"split_indices":[2435,842,2120,0,2156,2421,1303,2249,1561,2346,842,0,2005,2133,2183,0,2151,2001,2505,0,1454,525,2672,2363,2399,0,2437,236,2652,0,0,228,2005,2618,304,0,1718,2478,2121,0,2623,0,0,2428,2455,0,0,0,0,0,0,0,0,0,0,0,2308,0,2351,2526,2774,0,2291,0,2477,2252,2372,0,0,2487,191,1898,2207,0,0,2370,2444,2543,2502,0,0,0,0,0,0,0,0,0,0,0,0,0,0,0,0,0,0,0,0,0,0],"split_type":[0,0,0,0,0,0,0,0,0,0,0,0,0,0,0,0,0,0,0,0,0,0,0,0,0,0,0,0,0,0,0,0,0,0,0,0,0,0,0,0,0,0,0,0,0,0,0,0,0,0,0,0,0,0,0,0,0,0,0,0,0,0,0,0,0,0,0,0,0,0,0,0,0,0,0,0,0,0,0,0,0,0,0,0,0,0,0,0,0,0,0,0,0,0,0,0,0,0,0,0,0],"sum_hessian":[1.917563E4,8.1301196E3,1.1045512E4,6.4596704E2,7.484153E3,3.3018428E3,7.743669E3,7.298104E3,1.8604884E2,7.4260376E2,2.559239E3,1.5655714E2,7.587112E3,1.5865204E2,7.139452E3,1.5974716E2,2.6301685E1,1.135534E2,6.2905035E2,2.5328503E2,2.305954E3,7.3367393E3,2.5037245E2,6.5217384E1,9.3434654E1,3.3596718E1,7.105855E3,6.760478E0,1.9541208E1,1.0193183E2,1.1621567E1,1.6545256E1,6.125051E2,1.1640535E2,2.1895486E3,1.0523498E2,7.2315044E3,7.54579E1,1.7491455E2,1.0245726E1,5.4971657E1,3.1537263E0,9.028093E1,7.085738E3,2.0117212E1,3.447693E0,3.312785E0,1.64217E1,3.1195068E0,4.280845E0,1.2264411E1,6.0849426E2,4.010862E0,1.1331835E2,3.0869975E0,5.655149E1,2.132997E3,9.107597E1,7.140428E3,7.8776913E0,6.7580215E1,3.2149036E0,1.7169965E2,3.6422334E0,5.1329422E1,3.328304E1,7.052455E3,1.7059439E1,3.0577734E0,6.0557774E1,2.0724395E3,7.0626426E3,7.778568E1,4.4852457E0,3.3924456E0,6.1370497E0,6.144316E1,3.36855E1,1.3801414E2,1.767036E1,3.365906E1,2.4096796E1,9.186241E0,9.117074E0,7.043338E3,5.395045E0,5.5162727E1,2.6636555E1,2.0458029E3,7.0174126E3,4.522984E1,7.0455315E1,7.3303695E0,3.0640843E0,3.0729651E0,5.667733E1,4.7658305E0,2.6750067E1,6.935435E0,8.263308E1,5.538107E1],"tree_param":{"num_deleted":"0","num_feature":"2796","num_nodes":"101","size_leaf_vector":"1"}},{"base_weights":[-1.4143795E-3,1.0352675E0,-7.3592776E-1,-6.7485504E-2,1.1829094E0,-9.2169064E-1,1.1774527E0,1.3568897E0,-2.2024633E-1,7.281716E-2,-1.0747832E0,-1.0617818E0,1.3191047E0,1.4392698E0,-6.364445E-1,-9.54344E-1,1.3395717E0,-1.2368218E0,2.0779285E-1,6.4644285E-2,-6.640552E-2,-6.5348886E-2,1.3974504E0,1.4480048E0,-6.472035E-2,-6.5955997E-1,4.4780917E-2,-1.2419925E0,9.6891665E-1,-5.8693804E-2,1.4051635E0,1.3698552E0,-1.2714124E0,-1.0304357E0,1.0035117E0,1.4335678E0,-8.666154E-1,1.4552757E0,-6.407022E-2,-8.573024E-1,-4.753535E-1,7.84686E-1,-1.2918577E0,7.345013E-2,-2.7369604E-1,7.271877E-2,-1.5139054E-1,-6.2257286E-2,7.368749E-2,7.217147E-2,-1.293299E0,1.3262893E0,-1.2974789E0,-1.196562E0,1.2165397E0,1.463532E0,-5.6936425E-1,2.1759836E-2,-6.309223E-2,-5.947397E-2,1.4576186E0,1.739672E-2,-9.019075E-1,3.857018E-2,-5.2182394E-1,6.825488E-2,-1.0513862E-2,-1.3079197E0,4.0688597E-2,-8.0605006E-1,4.8260367E-1,4.375122E-2,-4.454473E-2,1.3587828E0,-1.311296E0,7.2678596E-2,-8.785265E-3,6.3203774E-2,-1.3341954E0,-8.056797E-2,-6.833145E-2,1.4245408E0,-2.4793313E-1,1.2333243E-2,7.337687E-2,-1.029586E0,3.0683419E-2,-5.5177927E-2,7.2978824E-2,-6.569316E-3,-4.8071723E-2,-4.2841505E-2,-1.2872527E-2,-2.7195996E-2,-6.702453E-2,2.3342347E-2,-6.247714E-2,-2.4434214E-2,6.84123E-2,-4.9176417E-2,7.8981034E-2,7.927804E-2,-6.628631E-2,-6.7539565E-2,-1.6430391E-2,-4.7651142E-2,3.890079E-2,7.276978E-2,-2.5290892E-2,-5.49047E-2,6.842535E-2,-1.7220959E-2,-6.355054E-2],"categories":[],"categories_nodes":[],"categories_segments":[],"categories_sizes":[],"default_left":[0,0,0,0,0,0,0,0,0,0,0,0,0,1,0,0,0,0,0,0,0,0,0,1,0,0,0,0,0,0,0,0,0,0,0,0,0,0,0,0,0,0,0,0,0,0,0,0,0,0,0,0,0,0,0,0,0,0,0,0,0,0,0,0,0,0,0,0,0,0,0,0,0,0,0,0,0,0,0,0,0,0,0,0,0,0,0,0,0,0,0,0,0,0,0,0,0,0,0,0,0,0,0,0,0,0,0,0,0,0,0,0,0],"id":11,"left_children":[1,3,5,-1,7,9,11,13,15,-1,17,19,21,23,25,27,29,31,33,-1,-1,-1,35,37,-1,39,-1,41,43,-1,45,47,49,51,53,55,57,59,-1,61,63,65,67,-1,69,-1,71,-1,-1,-1,73,75,77,79,81,83,85,-1,-1,-1,87,-1,89,-1,91,-1,-1,93,-1,95,97,-1,-1,99,101,-1,-1,-1,103,105,-1,107,109,-1,-1,111,-1,-1,-1,-1,-1,-1,-1,-1,-1,-1,-1,-1,-1,-1,-1,-1,-1,-1,-1,-1,-1,-1,-1,-1,-1,-1,-1],"loss_changes":[1.416675E4,2.7183623E3,3.8715596E3,0E0,1.774124E3,3.615331E3,3.0720312E2,1.0624951E3,9.200961E2,0E0,1.9385537E3,3.8035324E1,1.8847168E2,1.50125E2,9.701523E0,3.033814E2,4.4052948E1,7.483672E2,1.0326089E3,0E0,0E0,0E0,7.331445E1,1.2468848E2,0E0,8.8450775E0,0E0,4.9076843E1,4.4911667E1,0E0,1.9456116E1,3.1428192E1,4.8746973E2,2.598122E2,3.0042084E2,5.292273E1,7.9903727E0,3.9987305E1,0E0,6.832802E0,8.151833E0,7.241544E0,1.6775574E1,0E0,9.003813E0,0E0,7.3086247E0,0E0,0E0,0E0,3.8876367E2,8.3294525E0,3.6378357E1,1.0673401E1,1.7765979E2,3.807129E0,7.988957E0,0E0,0E0,0E0,3.2541016E1,0E0,5.2498474E0,0E0,1.125264E1,0E0,0E0,1.0752747E1,0E0,7.8838186E0,8.810348E0,0E0,0E0,3.007582E1,3.387578E2,0E0,0E0,0E0,5.6329956E0,7.165575E0,0E0,3.1102173E1,1.0215535E2,0E0,0E0,1.2332315E0,0E0,0E0,0E0,0E0,0E0,0E0,0E0,0E0,0E0,0E0,0E0,0E0,0E0,0E0,0E0,0E0,0E0,0E0,0E0,0E0,0E0,0E0,0E0,0E0,0E0,0E0,0E0],"parents":[2147483647,0,0,1,1,2,2,4,4,5,5,6,6,7,7,8,8,10,10,11,11,12,12,13,13,14,14,15,15,16,16,17,17,18,18,22,22,23,23,25,25,27,27,28,28,30,30,31,31,32,32,33,33,34,34,35,35,36,36,37,37,39,39,40,40,41,41,42,42,44,44,46,46,50,50,51,51,52,52,53,53,54,54,55,55,56,56,60,60,62,62,64,64,67,67,69,69,70,70,73,73,74,74,78,78,79,79,81,81,82,82,85,85],"right_children":[2,4,6,-1,8,10,12,14,16,-1,18,20,22,24,26,28,30,32,34,-1,-1,-1,36,38,-1,40,-1,42,44,-1,46,48,50,52,54,56,58,60,-1,62,64,66,68,-1,70,-1,72,-1,-1,-1,74,76,78,80,82,84,86,-1,-1,-1,88,-1,90,-1,92,-1,-1,94,-1,96,98,-1,-1,100,102,-1,-1,-1,104,106,-1,108,110,-1,-1,112,-1,-1,-1,-1,-1,-1,-1,-1,-1,-1,-1,-1,-1,-1,-1,-1,-1,-1,-1,-1,-1,-1,-1,-1,-1,-1,-1],"split_conditions":[7.825152E-2,3.092896E-1,5.9976196E-1,-6.7485504E-2,9.149721E-2,4.628145E-1,-1.9574007E-1,6.2000008E1,1.5598027E-1,7.281716E-2,6.868705E-2,1.6766512E-1,8.287909E-1,2.651185E-1,-9.4749495E-2,-4.516596E-1,2.3802803E-1,2.1250461E-1,-7.918953E-2,6.4644285E-2,-6.640552E-2,-6.5348886E-2,2.652563E-1,2.9247501E-1,-6.472035E-2,1.8980072E-1,4.4780917E-2,1.3137701E-1,6.2000008E1,-5.8693804E-2,6.2000008E1,2.259921E-1,4.073439E-1,-2.1614343E-1,-4.3901578E-1,6.2000008E1,6E0,7.626588E-1,-6.407022E-2,1.7887907E-1,-2.1612611E-1,-9.6557975E-2,2.8069884E-2,7.345013E-2,1.0845834E-1,7.271877E-2,-6.0845864E-1,-6.2257286E-2,7.368749E-2,7.217147E-2,-1.0570949E-1,3.1E1,1.990571E-1,1.0018905E-1,2.6484102E-1,-1.923748E-2,6.772478E-1,2.1759836E-2,-6.309223E-2,-5.947397E-2,5.8960056E-1,1.739672E-2,-5.670837E-2,3.857018E-2,7.3643565E-2,6.825488E-2,-1.0513862E-2,1.4343193E-1,4.0688597E-2,-8.501511E-2,-6.46751E-2,4.375122E-2,-4.454473E-2,1.4353727E-1,1.6990916E-1,7.2678596E-2,-8.785265E-3,6.3203774E-2,4.9261153E-1,2.2284439E-1,-6.833145E-2,6.2000008E1,-1.1775121E-3,1.2333243E-2,7.337687E-2,6.519684E-1,3.0683419E-2,-5.5177927E-2,7.2978824E-2,-6.569316E-3,-4.8071723E-2,-4.2841505E-2,-1.2872527E-2,-2.7195996E-2,-6.702453E-2,2.3342347E-2,-6.247714E-2,-2.4434214E-2,6.84123E-2,-4.9176417E-2,7.8981034E-2,7.927804E-2,-6.628631E-2,-6.7539565E-2,-1.6430391E-2,-4.7651142E-2,3.890079E-2,7.276978E-2,-2.5290892E-2,-5.49047E-2,6.842535E-2,-1.7220959E-2,-6.355054E-2],"split_indices":[2619,1303,2156,0,2151,842,2221,2005,2324,0,2120,2246,1035,668,2682,2049,525,191,2435,0,0,0,2619,261,0,2515,0,2187,2005,0,2005,368,304,2240,2411,2005,2005,190,0,2581,2513,2562,2413,0,2369,0,2334,0,0,0,2788,2005,304,2709,2217,2071,2450,0,0,0,265,0,2398,0,2557,0,0,2698,0,2265,2358,0,0,2690,1454,0,0,0,2558,2734,0,2005,2359,0,0,2172,0,0,0,0,0,0,0,0,0,0,0,0,0,0,0,0,0,0,0,0,0,0,0,0,0,0,0],"split_type":[0,0,0,0,0,0,0,0,0,0,0,0,0,0,0,0,0,0,0,0,0,0,0,0,0,0,0,0,0,0,0,0,0,0,0,0,0,0,0,0,0,0,0,0,0,0,0,0,0,0,0,0,0,0,0,0,0,0,0,0,0,0,0,0,0,0,0,0,0,0,0,0,0,0,0,0,0,0,0,0,0,0,0,0,0,0,0,0,0,0,0,0,0,0,0,0,0,0,0,0,0,0,0,0,0,0,0,0,0,0,0,0,0],"sum_hessian":[1.8602799E4,7.7143975E3,1.0888401E4,4.4924472E2,7.265153E3,9.92531E3,9.6309235E2,6.463733E3,8.0141974E2,5.9980743E2,9.325502E3,5.6913185E1,9.0617914E2,6.20747E3,2.5626294E2,5.4521375E2,2.5620596E2,8.279518E3,1.0459846E3,5.39148E0,5.1521706E1,2.5797192E1,8.8038196E2,6.188167E3,1.9302946E1,2.53015E2,3.247947E0,4.745873E2,7.0626434E1,6.086279E0,2.5011967E2,1.07924774E2,8.1715923E3,4.0909363E2,6.368909E2,8.669194E2,1.3462621E1,6.172192E3,1.5975107E1,1.2026191E2,1.327531E2,1.1042661E1,4.6354465E2,5.022952E1,2.0396917E1,2.4251791E2,7.60177E0,3.7042787E0,1.042205E2,6.483159E1,8.1067607E3,4.1233227E1,3.678604E2,5.581701E1,5.810739E2,8.5440656E2,1.251278E1,3.1117997E0,1.03508215E1,5.014634E0,6.1671772E3,4.0492826E0,1.1621263E2,4.209747E0,1.2854335E2,6.7392893E0,4.303371E0,4.604114E2,3.133237E0,1.1932168E1,8.46475E0,3.1066084E0,4.495161E0,5.413981E1,8.052621E3,3.8041718E1,3.1915083E0,4.7259083E0,3.631345E2,7.576049E0,4.824096E1,5.0883124E2,7.224269E1,3.0084634E0,8.5139813E2,9.10174E0,3.4110403E0,4.281197E0,6.1628965E3,8.564194E0,1.0764844E2,5.5709248E1,7.28341E1,1.9549389E1,4.4086203E2,3.0695102E0,8.862658E0,4.2509394E0,4.2138104E0,4.367061E0,4.977275E1,3.93739E1,8.013247E3,3.5690103E2,6.2334723E0,3.703114E0,3.872935E0,5.010682E2,7.7630453E0,4.755302E1,2.4689669E1,3.0037284E0,6.0980115E0],"tree_param":{"num_deleted":"0","num_feature":"2796","num_nodes":"113","size_leaf_vector":"1"}},{"base_weights":[-1.0605815E-3,1.0091301E0,-7.238278E-1,-6.6412926E-2,1.1554509E0,-9.4489765E-1,8.001968E-1,9.289441E-2,1.3513856E0,6.442598E-1,-1.0996684E0,-9.854664E-1,1.0976946E0,-4.92899E-1,7.123463E-2,1.4002483E0,-5.914796E-1,-6.628373E-2,1.1862677E0,1.105685E0,-1.1650239E0,1.3505813E0,-1.3223985E0,1.2949979E0,-1.0883346E0,9.581648E-1,-1.0512044E0,1.4125392E0,-1.1504678E0,-6.609719E-1,4.8005524E-1,-9.19299E-1,1.3803775E0,1.3104758E0,-6.165581E-2,-1.248981E0,1.454431E-1,3.3038523E-2,7.101083E-2,-2.7943922E-2,-6.665887E-2,1.3785332E0,-7.141243E-1,-6.559651E-2,6.604148E-2,-1.0639495E0,1.3998243E0,-5.201091E-1,-1.3063043E0,1.4207652E0,-6.331252E-2,1.434724E-5,-6.425198E-2,-7.2894543E-1,3.0585706E-1,7.4162535E-2,-2.0340463E-2,-6.541784E-2,6.580246E-2,1.436678E0,-6.908731E-1,1.3753417E0,-5.3552326E-2,7.049986E-2,-1.2712735E0,1.2624818E0,-1.1044308E0,1.4211456E0,-4.2149547E-1,-6.4566724E-2,6.45095E-2,3.9371736E-2,-1.2523296E0,7.129539E-2,4.1404474E-3,-6.289885E-1,9.6356726E-1,-4.2672805E-3,-1.3226308E0,1.4245125E0,-5.929336E-2,-2.3430525E-1,-8.674603E-1,7.475126E-2,-3.2309912E-2,1.6468665E-2,7.2195664E-2,-1.0417261E0,2.8829047E-2,-5.888796E-2,1.433851E0,7.141747E-2,-1.292392E0,1.4103357E0,-8.9183575E-1,6.7974284E-2,-1.3136239E0,-1.4932246E-3,1.4272124E0,-7.51238E-1,4.489195E-2,-6.48799E-2,-2.8917626E-2,-5.531025E-2,-2.34627E-2,6.911252E-2,3.4386178E-3,-3.0767947E-2,-6.633827E-2,-5.757628E-2,7.133915E-2,-3.7392575E-2,1.8306607E-2,-4.697245E-2,-4.373944E-3,-9.35762E-3,-6.447952E-2,7.378638E-2,-2.337379E-2,7.472062E-2,-6.518123E-2,-4.5389783E-2,