{"learner":{"attributes":{"scikit_learn":"{\"_estimator_type\": \"classifier\"}"},"feature_names":["port","status_code","hour_of_day","tfidf_0","tfidf_1","tfidf_2","tfidf_3","tfidf_4","tfidf_5","tfidf_6","tfidf_7","tfidf_8","tfidf_9","tfidf_10","tfidf_11","tfidf_12","tfidf_13","tfidf_14","tfidf_15","tfidf_16","tfidf_17","tfidf_18","tfidf_19","tfidf_20","tfidf_21","tfidf_22","tfidf_23","tfidf_24","tfidf_25","tfidf_26","tfidf_27","tfidf_28","tfidf_29","tfidf_30","tfidf_31","tfidf_32","tfidf_33","tfidf_34","tfidf_35","tfidf_36","tfidf_37","tfidf_38","tfidf_39","tfidf_40","tfidf_41","tfidf_42","tfidf_43","tfidf_44","tfidf_45","tfidf_46","tfidf_47","tfidf_48","tfidf_49"],"feature_types":["int","int","int","float","float","float","float","float","float","float","float","float","float","float","float","float","float","float","float","float","float","float","float","float","float","float","float","float","float","float","float","float","float","float","float","float","float","float","float","float","float","float","float","float","float","float","float","float","float","float","float","float","float"],"gradient_booster":{"model":{"gbtree_model_param":{"num_parallel_tree":"1","num_trees":"100"},"iteration_indptr":[0,1,2,3,4,5,6,7,8,9,10,11,12,13,14,15,16,17,18,19,20,21,22,23,24,25,26,27,28,29,30,31,32,33,34,35,36,37,38,39,40,41,42,43,44,45,46,47,48,49,50,51,52,53,54,55,56,57,58,59,60,61,62,63,64,65,66,67,68,69,70,71,72,73,74,75,76,77,78,79,80,81,82,83,84,85,86,87,88,89,90,91,92,93,94,95,96,97,98,99,100],"tree_info":[0,0,0,0,0,0,0,0,0,0,0,0,0,0,0,0,0,0,0,0,0,0,0,0,0,0,0,0,0,0,0,0,0,0,0,0,0,0,0,0,0,0,0,0,0,0,0,0,0,0,0,0,0,0,0,0,0,0,0,0,0,0,0,0,0,0,0,0,0,0,0,0,0,0,0,0,0,0,0,0,0,0,0,0,0,0,0,0,0,0,0,0,0,0,0,0,0,0,0,0],"trees":[{"base_weights":[-2.5302954E-3,-1.9903569E-1,2.0091693E-1],"categories":[],"categories_nodes":[],"categories_segments":[],"categories_sizes":[],"default_left":[0,0,0],"id":0,"left_children":[1,-1,-1],"loss_changes":[5.975939E4,0E0,0E0],"parents":[2147483647,0,0],"right_children":[2,-1,-1],"split_conditions":[4E2,-1.9903569E-1,2.0091693E-1],"split_indices":[1,0,0],"split_type":[0,0,0],"sum_hessian":[1.494192E4,7.5155845E3,7.426336E3],"tree_param":{"num_deleted":"0","num_feature":"53","num_nodes":"3","size_leaf_vector":"1"}},{"base_weights":[-1.0788161E-3,-1.8115896E-1,1.8254523E-1],"categories":[],"categories_nodes":[],"categories_segments":[],"categories_sizes":[],"default_left":[0,0,0],"id":1,"left_children":[1,-1,-1],"loss_changes":[4.9090207E4,0E0,0E0],"parents":[2147483647,0,0],"right_children":[2,-1,-1],"split_conditions":[4E2,-1.8115896E-1,1.8254523E-1],"split_indices":[1,0,0],"split_type":[0,0,0],"sum_hessian":[1.4842538E4,7.4539897E3,7.3885483E3],"tree_param":{"num_deleted":"0","num_feature":"53","num_nodes":"3","size_leaf_vector":"1"}},{"base_weights":[2.8815405E-3,-1.6770796E-1,1.6876923E-1],"categories":[],"categories_nodes":[],"categories_segments":[],"categories_sizes":[],"default_left":[0,0,0],"id":2,"left_children":[1,-1,-1],"loss_changes":[4.0893246E4,0E0,0E0],"parents":[2147483647,0,0],"right_children":[2,-1,-1],"split_conditions":[4E2,-1.6770796E-1,1.6876923E-1],"split_indices":[1,0,0],"split_type":[0,0,0],"sum_hessian":[1.4445782E4,7.233274E3,7.212509E3],"tree_param":{"num_deleted":"0","num_feature":"53","num_nodes":"3","size_leaf_vector":"1"}},{"base_weights":[-2.3283353E-3,-7.47752E-1,1.4677144E0,-1.4801154E0,1.5803422E-1,1.5807219E-1,-2.7648276E-1,-1.4957514E0,1.53513E-1,-1.5594749E-1,7.378058E-1,-1.5145949E0,-3.2542583E-2,1.5547404E-1,1.912546E-1,-1.404173E0,-1.5723753E-1,-8.092247E-2,4.135123E-2,-5.018229E-1,2.4964005E-1,3.1223143E-2,-1.5719725E-1,3.2303415E-2,-1.2282648E-2,-6.0763806E-3,-7.5020865E-2,3.2878574E-2,-6.632568E-3],"categories":[],"categories_nodes":[],"categories_segments":[],"categories_sizes":[],"default_left":[0,0,0,0,0,0,0,0,0,0,0,0,0,0,0,0,0,0,0,0,0,0,0,0,0,0,0,0,0],"id":3,"left_children":[1,3,5,7,-1,-1,9,11,-1,-1,13,15,17,-1,19,21,-1,-1,23,25,27,-1,-1,-1,-1,-1,-1,-1,-1],"loss_changes":[1.5192312E4,1.5687412E4,9.200205E2,3.3224707E2,0E0,0E0,3.7163864E2,1.9177832E2,0E0,0E0,7.078917E1,4.1353516E1,5.253716E0,0E0,4.01869E0,6.836094E2,0E0,0E0,3.8827662E0,7.1940124E-1,2.3015995E0,0E0,0E0,0E0,0E0,0E0,0E0,0E0,0E0],"parents":[2147483647,0,0,1,1,2,2,3,3,6,6,7,7,10,10,11,11,12,12,14,14,15,15,18,18,19,19,20,20],"right_children":[2,4,6,8,-1,-1,10,12,-1,-1,14,16,18,-1,20,22,-1,-1,24,26,28,-1,-1,-1,-1,-1,-1,-1,-1],"split_conditions":[2.3516132E-1,3.2600257E-1,3.9768866E-1,1E0,1.5803422E-1,1.5807219E-1,6.1120224E-1,1E0,1.53513E-1,-1.5594749E-1,1E0,1.2397765E-1,8E0,1.5547404E-1,8E0,2.3407042E-1,-1.5723753E-1,-8.092247E-2,1.2E1,3.306E3,1.7E1,3.1223143E-2,-1.5719725E-1,3.2303415E-2,-1.2282648E-2,-6.0763806E-3,-7.5020865E-2,3.2878574E-2,-6.632568E-3],"split_indices":[27,33,27,12,0,0,27,26,0,0,27,18,2,0,2,46,0,0,2,0,2,0,0,0,0,0,0,0,0],"split_type":[0,0,0,0,0,0,0,0,0,0,0,0,0,0,0,0,0,0,0,0,0,0,0,0,0,0,0,0,0],"sum_hessian":[1.3862134E4,9.198402E3,4.6637314E3,6.9975464E3,2.200856E3,4.3800938E3,2.836377E2,6.9619814E3,3.5565163E1,1.2503709E2,1.586006E2,6.8733613E3,8.861991E1,6.276205E1,9.583855E1,2.3704055E3,4.502956E3,6.9519157E0,8.166799E1,6.7230716E0,8.911548E1,2.1096881E2,2.1594368E3,2.9940317E1,5.1727676E1,3.0155632E0,3.707508E0,7.14852E1,1.763028E1],"tree_param":{"num_deleted":"0","num_feature":"53","num_nodes":"29","size_leaf_vector":"1"}},{"base_weights":[1.040957E-3,-1.491686E-1,1.4983831E-1],"categories":[],"categories_nodes":[],"categories_segments":[],"categories_sizes":[],"default_left":[0,0,0],"id":4,"left_children":[1,-1,-1],"loss_changes":[2.968833E4,0E0,0E0],"parents":[2147483647,0,0],"right_children":[2,-1,-1],"split_conditions":[4E2,-1.491686E-1,1.4983831E-1],"split_indices":[1,0,0],"split_type":[0,0,0],"sum_hessian":[1.3280639E4,6.6505366E3,6.6301016E3],"tree_param":{"num_deleted":"0","num_feature":"53","num_nodes":"3","size_leaf_vector":"1"}},{"base_weights":[1.2837976E-3,-1.4234975E-1,1.4289096E-1],"categories":[],"categories_nodes":[],"categories_segments":[],"categories_sizes":[],"default_left":[0,0,0],"id":5,"left_children":[1,-1,-1],"loss_changes":[2.5565115E4,0E0,0E0],"parents":[2147483647,0,0],"right_children":[2,-1,-1],"split_conditions":[4E2,-1.4234975E-1,1.4289096E-1],"split_indices":[1,0,0],"split_type":[0,0,0],"sum_hessian":[1.256655E4,6.289507E3,6.2770425E3],"tree_param":{"num_deleted":"0","num_feature":"53","num_nodes":"3","size_leaf_vector":"1"}},{"base_weights":[-2.3537131E-3,-1.3673067E-1,1.3717969E-1],"categories":[],"categories_nodes":[],"categories_segments":[],"categories_sizes":[],"default_left":[0,0,0],"id":6,"left_children":[1,-1,-1],"loss_changes":[2.2034443E4,0E0,0E0],"parents":[2147483647,0,0],"right_children":[2,-1,-1],"split_conditions":[4E2,-1.3673067E-1,1.3717969E-1],"split_indices":[1,0,0],"split_type":[0,0,0],"sum_hessian":[1.1745626E4,5.8925723E3,5.8530537E3],"tree_param":{"num_deleted":"0","num_feature":"53","num_nodes":"3","size_leaf_vector":"1"}},{"base_weights":[1.4174634E-3,-1.3203287E-1,1.3241424E-1],"categories":[],"categories_nodes":[],"categories_segments":[],"categories_sizes":[],"default_left":[0,0,0],"id":7,"left_children":[1,-1,-1],"loss_changes":[1.9316871E4,0E0,0E0],"parents":[2147483647,0,0],"right_children":[2,-1,-1],"split_conditions":[4E2,-1.3203287E-1,1.3241424E-1],"split_indices":[1,0,0],"split_type":[0,0,0],"sum_hessian":[1.1046903E4,5.525459E3,5.521445E3],"tree_param":{"num_deleted":"0","num_feature":"53","num_nodes":"3","size_leaf_vector":"1"}},{"base_weights":[-2.477748E-3,-1.2807119E-1,1.2839724E-1],"categories":[],"categories_nodes":[],"categories_segments":[],"categories_sizes":[],"default_left":[0,0,0],"id":8,"left_children":[1,-1,-1],"loss_changes":[1.6896727E4,0E0,0E0],"parents":[2147483647,0,0],"right_children":[2,-1,-1],"split_conditions":[4E2,-1.2807119E-1,1.2839724E-1],"split_indices":[1,0,0],"split_type":[0,0,0],"sum_hessian":[1.027341E4,5.153202E3,5.1202085E3],"tree_param":{"num_deleted":"0","num_feature":"53","num_nodes":"3","size_leaf_vector":"1"}},{"base_weights":[-2.5920765E-3,-5.946493E-1,1.157985E0,-5.904347E-3,-1.1802825E0,1.24806724E-1,-2.4275054E-1,1.0966974E0,-1.244986E-1,-1.2454338E-1,-1.3758539E-2,-1.230217E-1,4.988179E-1,1.1955646E0,-1.2760866E-1,1.2325843E-1,-1.2302154E-1,1.21543184E-1,1.026484E-1,1.24992326E-1,-3.2609776E-2,-3.7868384E-1,1.8134415E-1,-4.9601804E-2,2.0277533E-3,-4.732231E-3,-5.2147824E-2,3.769448E-2,1.2897067E-2],"categories":[],"categories_nodes":[],"categories_segments":[],"categories_sizes":[],"default_left":[0,0,0,0,0,0,0,0,0,0,0,0,0,0,0,0,0,0,0,0,0,0,0,0,0,0,0,0,0],"id":9,"left_children":[1,3,5,7,9,-1,11,13,-1,-1,15,-1,17,19,-1,-1,-1,-1,21,-1,23,25,27,-1,-1,-1,-1,-1,-1],"loss_changes":[6.5578716E3,2.17893E3,4.0721045E2,4.308648E3,2.4064697E2,0E0,1.4390405E2,3.9298193E2,0E0,0E0,2.572598E2,0E0,3.163976E1,1.071499E2,0E0,0E0,0E0,0E0,2.8343127E0,0E0,1.7442431E0,4.1424012E-1,5.5699706E-1,0E0,0E0,0E0,0E0,0E0,0E0],"parents":[2147483647,0,0,1,1,2,2,3,3,4,4,6,6,7,7,10,10,12,12,13,13,18,18,20,20,21,21,22,22],"right_children":[2,4,6,8,10,-1,12,14,-1,-1,16,-1,18,20,-1,-1,-1,-1,22,-1,24,26,28,-1,-1,-1,-1,-1,-1],"split_conditions":[2.3516132E-1,1.2397765E-1,3.9768866E-1,2.3407042E-1,2.0086539E-1,1.24806724E-1,6.1120224E-1,5.088208E-1,-1.244986E-1,-1.2454338E-1,2.3983032E-1,-1.230217E-1,1E0,6.603118E-1,-1.2760866E-1,1.2325843E-1,-1.2302154E-1,1.21543184E-1,9E0,1.24992326E-1,8E0,4E0,1.1E1,-4.9601804E-2,2.0277533E-3,-4.732231E-3,-5.2147824E-2,3.769448E-2,1.2897067E-2],"split_indices":[27,18,27,46,24,0,27,11,0,0,31,0,27,26,0,0,0,0,2,0,2,2,2,0,0,0,0,0,0],"split_type":[0,0,0,0,0,0,0,0,0,0,0,0,0,0,0,0,0,0,0,0,0,0,0,0,0,0,0,0,0],"sum_hessian":[9.541966E3,6.318975E3,3.2229905E3,3.1517046E3,3.1672705E3,3.0284119E3,1.9457877E2,1.6677153E3,1.4839891E3,2.9995876E3,1.6768277E2,8.32284E1,1.1135036E2,1.6015228E3,6.619257E1,8.277682E1,8.4905945E1,3.8816494E1,7.253386E1,1.5337052E3,6.7817635E1,9.478311E0,6.305555E1,6.2823734E0,6.1535263E1,3.4662998E0,6.012011E0,1.1605517E1,5.1450035E1],"tree_param":{"num_deleted":"0","num_feature":"53","num_nodes":"29","size_leaf_vector":"1"}},{"base_weights":[3.6697416E-3,-1.2185675E-1,1.2208642E-1],"categories":[],"categories_nodes":[],"categories_segments":[],"categories_sizes":[],"default_left":[0,0,0],"id":10,"left_children":[1,-1,-1],"loss_changes":[1.3151309E4,0E0,0E0],"parents":[2147483647,0,0],"right_children":[2,-1,-1],"split_conditions":[4E2,-1.2185675E-1,1.2208642E-1],"split_indices":[1,0,0],"split_type":[0,0,0],"sum_hessian":[8.838025E3,4.4098364E3,4.4281895E3],"tree_param":{"num_deleted":"0","num_feature":"53","num_nodes":"3","size_leaf_vector":"1"}},{"base_weights":[5.683107E-3,-1.193425E-1,1.19536005E-1],"categories":[],"categories_nodes":[],"categories_segments":[],"categories_sizes":[],"default_left":[0,0,0],"id":11,"left_children":[1,-1,-1],"loss_changes":[1.1617804E4,0E0,0E0],"parents":[2147483647,0,0],"right_children":[2,-1,-1],"split_conditions":[4E2,-1.193425E-1,1.19536005E-1],"split_indices":[1,0,0],"split_type":[0,0,0],"sum_hessian":[8.14198E3,4.054874E3,4.087106E3],"tree_param":{"num_deleted":"0","num_feature":"53","num_nodes":"3","size_leaf_vector":"1"}},{"base_weights":[-7.284351E-3,-1.1715839E-1,1.1733671E-1],"categories":[],"categories_nodes":[],"categories_segments":[],"categories_sizes":[],"default_left":[0,0,0],"id":12,"left_children":[1,-1,-1],"loss_changes":[1.0308365E4,0E0,0E0],"parents":[2147483647,0,0],"right_children":[2,-1,-1],"split_conditions":[4E2,-1.1715839E-1,1.1733671E-1],"split_indices":[1,0,0],"split_type":[0,0,0],"sum_hessian":[7.497E3,3.7746858E3,3.722314E3],"tree_param":{"num_deleted":"0","num_feature":"53","num_nodes":"3","size_leaf_vector":"1"}},{"base_weights":[3.171874E-3,-5.4262257E-1,1.0666322E0,-1.0493344E0,1.152095E-1,1.15254E-1,-1.8824776E-1,-1.0669991E0,1.1295251E-1,-1.1317029E-1,4.5301014E-1,-1.0805371E0,1.0965363E-1,1.1153106E-1,8.1911355E-2,-1.0931574E0,1.09257355E-1,-2.8924335E-2,1.2359899E-1,-1.1097025E-1,-3.6059998E-3,2.0831961E-2,-9.302995E-3],"categories":[],"categories_nodes":[],"categories_segments":[],"categories_sizes":[],"default_left":[0,0,0,0,0,0,0,0,0,0,0,0,0,0,0,0,0,0,0,0,0,0,0],"id":13,"left_children":[1,3,5,7,-1,-1,9,11,-1,-1,13,15,-1,-1,17,19,-1,-1,21,-1,-1,-1,-1],"loss_changes":[4.0011768E3,3.9130376E3,2.5236084E2,1.3619531E2,0E0,0E0,9.168582E1,1.0310449E2,0E0,0E0,2.1983505E1,9.6049805E1,0E0,0E0,9.3285316E-1,5.999707E1,0E0,0E0,1.0225341E0,0E0,0E0,0E0,0E0],"parents":[2147483647,0,0,1,1,2,2,3,3,6,6,7,7,10,10,11,11,14,14,15,15,18,18],"right_children":[2,4,6,8,-1,-1,10,12,-1,-1,14,16,-1,-1,18,20,-1,-1,22,-1,-1,-1,-1],"split_conditions":[2.3516132E-1,3.310175E-1,3.9768866E-1,1E0,1.152095E-1,1.15254E-1,6.1120224E-1,6.346006E-1,1.1295251E-1,-1.1317029E-1,1E0,1E0,1.0965363E-1,1.1153106E-1,8E0,1E0,1.09257355E-1,-2.8924335E-2,1.6E1,-1.1097025E-1,-3.6059998E-3,2.0831961E-2,-9.302995E-3],"split_indices":[27,34,27,43,0,0,27,10,0,0,27,12,0,0,2,26,0,0,2,0,0,0,0],"split_type":[0,0,0,0,0,0,0,0,0,0,0,0,0,0,0,0,0,0,0,0,0,0,0],"sum_hessian":[6.891374E3,4.554359E3,2.3370154E3,3.5064023E3,1.0479564E3,2.1874275E3,1.4958772E2,3.4787551E3,2.7647242E1,6.0284645E1,8.930307E1,3.4576663E3,2.1088926E1,3.1252249E1,5.8050823E1,3.4382417E3,1.9424646E1,5.0199447E0,5.3030876E1,3.3851155E3,5.312607E1,3.848133E1,1.4549546E1],"tree_param":{"num_deleted":"0","num_feature":"53","num_nodes":"23","size_leaf_vector":"1"}},{"base_weights":[1.691865E-3,-5.3224385E-1,1.0484178E0,-1.0531572E0,1.1359745E-1,1.1357806E-1,-1.9804592E-1,-1.064306E0,1.0664976E-1,-1.1138566E-1,3.957394E-1,-1.0819205E0,-2.299327E-2,1.0939664E-1,5.777419E-2,-9.8268735E-1,-1.1351737E-1,-4.9162384E-2,2.2947185E-2,-3.6143344E-2,9.967108E-2,3.1377565E-2,-1.1345394E-1,8.3105E-3,-2.5335032E-2,1.7890533E-2,-1.0255345E-2],"categories":[],"categories_nodes":[],"categories_segments":[],"categories_sizes":[],"default_left":[0,0,0,0,0,0,0,0,0,0,0,0,0,0,0,0,0,0,0,0,0,0,0,0,0,0,0],"id":14,"left_children":[1,3,5,7,-1,-1,9,11,-1,-1,13,15,17,-1,19,21,-1,-1,23,-1,25,-1,-1,-1,-1,-1,-1],"loss_changes":[3.5670176E3,3.6738696E3,2.3509033E2,7.725708E1,0E0,0E0,7.7724396E1,5.8650146E1,0E0,0E0,2.0306578E1,1.532666E1,1.22993E0,0E0,1.0574719E0,2.187096E2,0E0,0E0,8.405809E-1,0E0,9.1091955E-1,0E0,0E0,0E0,0E0,0E0,0E0],"parents":[2147483647,0,0,1,1,2,2,3,3,6,6,7,7,10,10,11,11,12,12,14,14,15,15,18,18,20,20],"right_children":[2,4,6,8,-1,-1,10,12,-1,-1,14,16,18,-1,20,22,-1,-1,24,-1,26,-1,-1,-1,-1,-1,-1],"split_conditions":[2.3516132E-1,3.2600257E-1,3.9768866E-1,1E0,1.1359745E-1,1.1357806E-1,6.1120224E-1,1E0,1.0664976E-1,-1.1138566E-1,1E0,1.2397765E-1,8E0,1.0939664E-1,8E0,2.3407042E-1,-1.1351737E-1,-4.9162384E-2,1.7E1,-3.6143344E-2,1.6E1,3.1377565E-2,-1.1345394E-1,8.3105E-3,-2.5335032E-2,1.7890533E-2,-1.0255345E-2],"split_indices":[27,33,27,12,0,0,27,26,0,0,27,18,2,0,2,46,0,0,2,0,2,0,0,0,0,0,0],"split_type":[0,0,0,0,0,0,0,0,0,0,0,0,0,0,0,0,0,0,0,0,0,0,0,0,0,0,0],"sum_hessian":[6.380299E3,4.2253438E3,2.154955E3,3.2202314E3,1.00511224E3,2.013968E3,1.4098694E2,3.2039248E3,1.6306618E1,5.5177616E1,8.5809326E1,3.150497E3,5.3427776E1,2.7161533E1,5.8647797E1,1.1077058E3,2.0427913E3,4.0981965E0,4.932958E1,4.4190063E0,5.422879E1,1.15959206E2,9.9174664E2,4.1380924E1,7.948653E0,3.9400833E1,1.4827955E1],"tree_param":{"num_deleted":"0","num_feature":"53","num_nodes":"27","size_leaf_vector":"1"}},{"base_weights":[1.1591895E-3,-1.1230928E-1,1.1246123E-1],"categories":[],"categories_nodes":[],"categories_segments":[],"categories_sizes":[],"default_left":[0,0,0],"id":15,"left_children":[1,-1,-1],"loss_changes":[7.3970156E3,0E0,0E0],"parents":[2147483647,0,0],"right_children":[2,-1,-1],"split_conditions":[4E2,-1.1230928E-1,1.1246123E-1],"split_indices":[1,0,0],"split_type":[0,0,0],"sum_hessian":[5.8544966E3,2.9261636E3,2.928333E3],"tree_param":{"num_deleted":"0","num_feature":"53","num_nodes":"3","size_leaf_vector":"1"}},{"base_weights":[-1.5630138E-3,3.8913694E-1,-1.0374398E0,8.015847E-1,-1.10690646E-1,-1.1074809E-1,1.08338594E-1,9.064693E-1,-1.1007458E-1,1.0101093E0,-1.09982364E-1,1.0438961E0,-1.1217909E-1,1.0693405E-1,-1.0714958E-1],"categories":[],"categories_nodes":[],"categories_segments":[],"categories_sizes":[],"default_left":[0,0,0,0,0,0,0,0,0,0,0,0,0,0,0],"id":16,"left_children":[1,3,5,7,-1,-1,-1,9,-1,11,-1,13,-1,-1,-1],"loss_changes":[2.1629265E3,2.395252E3,2.1862463E2,6.080288E2,0E0,0E0,0E0,6.0079736E2,0E0,1.9874121E2,0E0,1.4651367E2,0E0,0E0,0E0],"parents":[2147483647,0,0,1,1,2,2,3,3,7,7,9,9,11,11],"right_children":[2,4,6,8,-1,-1,-1,10,-1,12,-1,14,-1,-1,-1],"split_conditions":[2.090303E-1,2.3407042E-1,3.280661E-1,2.4237126E-1,-1.10690646E-1,-1.1074809E-1,1.08338594E-1,2.5090674E-1,-1.1007458E-1,5.088208E-1,-1.09982364E-1,6.530547E-1,-1.1217909E-1,1.0693405E-1,-1.0714958E-1],"split_indices":[18,46,22,21,0,0,0,16,0,35,0,17,0,0,0],"split_type":[0,0,0,0,0,0,0,0,0,0,0,0,0,0,0],"sum_hessian":[5.3421353E3,3.8794553E3,1.46268E3,3.041475E3,8.379804E2,1.416427E3,4.625309E1,2.8830923E3,1.5838263E2,2.7419944E3,1.410981E2,2.6997651E3,4.2229156E1,2.6682131E3,3.1552057E1],"tree_param":{"num_deleted":"0","num_feature":"53","num_nodes":"15","size_leaf_vector":"1"}},{"base_weights":[-5.038742E-4,-1.09938405E-1,1.0998783E-1],"categories":[],"categories_nodes":[],"categories_segments":[],"categories_sizes":[],"default_left":[0,0,0],"id":17,"left_children":[1,-1,-1],"loss_changes":[5.91127E3,0E0,0E0],"parents":[2147483647,0,0],"right_children":[2,-1,-1],"split_conditions":[4E2,-1.09938405E-1,1.0998783E-1],"split_indices":[1,0,0],"split_type":[0,0,0],"sum_hessian":[4.886627E3,2.445028E3,2.441599E3],"tree_param":{"num_deleted":"0","num_feature":"53","num_nodes":"3","size_leaf_vector":"1"}},{"base_weights":[-2.709388E-3,-1.0890514E-1,1.0894109E-1],"categories":[],"categories_nodes":[],"categories_segments":[],"categories_sizes":[],"default_left":[0,0,0],"id":18,"left_children":[1,-1,-1],"loss_changes":[5.3273374E3,0E0,0E0],"parents":[2147483647,0,0],"right_children":[2,-1,-1],"split_conditions":[4E2,-1.0890514E-1,1.0894109E-1],"split_indices":[1,0,0],"split_type":[0,0,0],"sum_hessian":[4.4882773E3,2.2501384E3,2.238139E3],"tree_param":{"num_deleted":"0","num_feature":"53","num_nodes":"3","size_leaf_vector":"1"}},{"base_weights":[1.7669621E-3,-1.0797238E-1,1.0800338E-1],"categories":[],"categories_nodes":[],"categories_segments":[],"categories_sizes":[],"default_left":[0,0,0],"id":19,"left_children":[1,-1,-1],"loss_changes":[4.768249E3,0E0,0E0],"parents":[2147483647,0,0],"right_children":[2,-1,-1],"split_conditions":[4E2,-1.0797238E-1,1.0800338E-1],"split_indices":[1,0,0],"split_type":[0,0,0],"sum_hessian":[4.0869316E3,2.0403685E3,2.0465632E3],"tree_param":{"num_deleted":"0","num_feature":"53","num_nodes":"3","size_leaf_vector":"1"}},{"base_weights":[-5.443387E-3,-1.0715034E-1,1.07179716E-1],"categories":[],"categories_nodes":[],"categories_segments":[],"categories_sizes":[],"default_left":[0,0,0],"id":20,"left_children":[1,-1,-1],"loss_changes":[4.2645405E3,0E0,0E0],"parents":[2147483647,0,0],"right_children":[2,-1,-1],"split_conditions":[4E2,-1.0715034E-1,1.07179716E-1],"split_indices":[1,0,0],"split_type":[0,0,0],"sum_hessian":[3.7114526E3,1.865456E3,1.8459967E3],"tree_param":{"num_deleted":"0","num_feature":"53","num_nodes":"3","size_leaf_vector":"1"}},{"base_weights":[-1.2155032E-3,-1.0640539E-1,1.06431924E-1],"categories":[],"categories_nodes":[],"categories_segments":[],"categories_sizes":[],"default_left":[0,0,0],"id":21,"left_children":[1,-1,-1],"loss_changes":[3.83729E3,0E0,0E0],"parents":[2147483647,0,0],"right_children":[2,-1,-1],"split_conditions":[4E2,-1.0640539E-1,1.06431924E-1],"split_indices":[1,0,0],"split_type":[0,0,0],"sum_hessian":[3.3863618E3,1.6953735E3,1.6909882E3],"tree_param":{"num_deleted":"0","num_feature":"53","num_nodes":"3","size_leaf_vector":"1"}},{"base_weights":[1.3847215E-3,-1.0575632E-1,1.0576904E-1],"categories":[],"categories_nodes":[],"categories_segments":[],"categories_sizes":[],"default_left":[0,0,0],"id":22,"left_children":[1,-1,-1],"loss_changes":[3.4608447E3,0E0,0E0],"parents":[2147483647,0,0],"right_children":[2,-1,-1],"split_conditions":[4E2,-1.0575632E-1,1.0576904E-1],"split_indices":[1,0,0],"split_type":[0,0,0],"sum_hessian":[3.0919827E3,1.5440122E3,1.5479705E3],"tree_param":{"num_deleted":"0","num_feature":"53","num_nodes":"3","size_leaf_vector":"1"}},{"base_weights":[-3.7069074E-3,-1.0516542E-1,1.0518252E-1],"categories":[],"categories_nodes":[],"categories_segments":[],"categories_sizes":[],"default_left":[0,0,0],"id":23,"left_children":[1,-1,-1],"loss_changes":[3.1081343E3,0E0,0E0],"parents":[2147483647,0,0],"right_children":[2,-1,-1],"split_conditions":[4E2,-1.0516542E-1,1.0518252E-1],"split_indices":[1,0,0],"split_type":[0,0,0],"sum_hessian":[2.807887E3,1.4090553E3,1.3988318E3],"tree_param":{"num_deleted":"0","num_feature":"53","num_nodes":"3","size_leaf_vector":"1"}},{"base_weights":[-2.1700673E-3,-4.8610428E-1,9.52899E-1,-9.5871854E-1,1.0435491E-1,1.0444244E-1,-2.3731263E-1,-9.762382E-1,9.62053E-2,-9.980472E-2,2.2950704E-1,-9.884471E-1,9.153966E-2,9.387786E-2,-2.8875165E-2,-1.00848794E-1,-1.1877081E-1,9.450371E-3,-1.4727455E-1,-4.8985006E-3,-2.444249E-2,-1.9968241E-2,-0E0],"categories":[],"categories_nodes":[],"categories_segments":[],"categories_sizes":[],"default_left":[0,0,0,0,0,0,0,0,0,0,0,0,0,0,0,0,0,0,0,0,0,0,0],"id":24,"left_children":[1,3,5,7,-1,-1,9,11,-1,-1,13,15,-1,-1,17,-1,19,-1,21,-1,-1,-1,-1],"loss_changes":[1.1821952E3,1.2283608E3,9.402893E1,4.4606323E1,0E0,0E0,2.237983E1,3.062146E1,0E0,0E0,7.3115187E0,2.205371E1,0E0,0E0,4.5214176E-1,0E0,2.2217542E-1,0E0,1.14224136E-1,0E0,0E0,0E0,0E0],"parents":[2147483647,0,0,1,1,2,2,3,3,6,6,7,7,10,10,11,11,14,14,16,16,18,18],"right_children":[2,4,6,8,-1,-1,10,12,-1,-1,14,16,-1,-1,18,-1,20,-1,22,-1,-1,-1,-1],"split_conditions":[2.3516132E-1,3.2600257E-1,3.9768866E-1,1E0,1.0435491E-1,1.0444244E-1,6.1120224E-1,1E0,9.62053E-2,-9.980472E-2,1E0,1E0,9.153966E-2,9.387786E-2,3.306E3,-1.00848794E-1,5.432E3,9.450371E-3,1.6E1,-4.8985006E-3,-2.444249E-2,-1.9968241E-2,-0E0],"split_indices":[27,33,27,43,0,0,27,12,0,0,27,26,0,0,0,0,0,0,2,0,0,0,0],"split_type":[0,0,0,0,0,0,0,0,0,0,0,0,0,0,0,0,0,0,0,0,0,0,0],"sum_hessian":[2.555908E3,1.6967561E3,8.5915186E2,1.2965897E3,4.0016638E2,7.9799384E2,6.1158012E1,1.285409E3,1.1180612E1,2.2906145E1,3.8251865E1,1.277693E3,7.71612E0,9.614188E0,2.8637678E1,1.2486447E3,2.9048288E1,1.3709169E1,1.4928509E1,2.008124E1,8.967049E0,1.0529341E1,4.3991685E0],"tree_param":{"num_deleted":"0","num_feature":"53","num_nodes":"23","size_leaf_vector":"1"}},{"base_weights":[-1.0494703E-3,-1.0420265E-1,1.0422925E-1],"categories":[],"categories_nodes":[],"categories_segments":[],"categories_sizes":[],"default_left":[0,0,0],"id":25,"left_children":[1,-1,-1],"loss_changes":[2.5368096E3,0E0,0E0],"parents":[2147483647,0,0],"right_children":[2,-1,-1],"split_conditions":[4E2,-1.0420265E-1,1.0422925E-1],"split_indices":[1,0,0],"split_type":[0,0,0],"sum_hessian":[2.333716E3,1.1682306E3,1.1654856E3],"tree_param":{"num_deleted":"0","num_feature":"53","num_nodes":"3","size_leaf_vector":"1"}},{"base_weights":[-5.9031416E-4,-1.0376848E-1,1.0379139E-1],"categories":[],"categories_nodes":[],"categories_segments":[],"categories_sizes":[],"default_left":[0,0,0],"id":26,"left_children":[1,-1,-1],"loss_changes":[2.2804185E3,0E0,0E0],"parents":[2147483647,0,0],"right_children":[2,-1,-1],"split_conditions":[4E2,-1.0376848E-1,1.0379139E-1],"split_indices":[1,0,0],"split_type":[0,0,0],"sum_hessian":[2.1153271E3,1.0584305E3,1.0568966E3],"tree_param":{"num_deleted":"0","num_feature":"53","num_nodes":"3","size_leaf_vector":"1"}},{"base_weights":[-3.4062983E-3,-1.0337799E-1,1.0340231E-1],"categories":[],"categories_nodes":[],"categories_segments":[],"categories_sizes":[],"default_left":[0,0,0],"id":27,"left_children":[1,-1,-1],"loss_changes":[2.0563499E3,0E0,0E0],"parents":[2147483647,0,0],"right_children":[2,-1,-1],"split_conditions":[4E2,-1.0337799E-1,1.0340231E-1],"split_indices":[1,0,0],"split_type":[0,0,0],"sum_hessian":[1.9217284E3,9.64193E2,9.575354E2],"tree_param":{"num_deleted":"0","num_feature":"53","num_nodes":"3","size_leaf_vector":"1"}},{"base_weights":[-4.96867E-4,-4.7708413E-1,9.3328E-1,-9.4014734E-1,1.0264858E-1,1.0279963E-1,-2.1682356E-1,-9.570889E-1,9.041104E-2,-9.6087985E-2,1.8531175E-1,-9.7502583E-1,-1.7866088E-2,8.9510374E-2,-7.4502446E-2,-8.743517E-1,-1.0282562E-1,-1.7879868E-2,4.1833236E-3,2.1896653E-2,-1.02606036E-1,1.2859568E-2,-9.966237E-3],"categories":[],"categories_nodes":[],"categories_segments":[],"categories_sizes":[],"default_left":[0,0,0,0,0,0,0,0,0,0,0,0,0,0,0,0,0,0,0,0,0,0,0],"id":28,"left_children":[1,3,5,7,-1,-1,9,11,-1,-1,13,15,-1,-1,17,19,-1,-1,21,-1,-1,-1,-1],"loss_changes":[7.761468E2,8.0501184E2,6.449945E1,2.8474976E1,0E0,0E0,1.3895176E1,1.194165E1,0E0,0E0,5.744392E0,3.4973755E0,0E0,0E0,2.072266E-1,5.062274E1,0E0,0E0,1.9088201E-1,0E0,0E0,0E0,0E0],"parents":[2147483647,0,0,1,1,2,2,3,3,6,6,7,7,10,10,11,11,14,14,15,15,18,18],"right_children":[2,4,6,8,-1,-1,10,12,-1,-1,14,16,-1,-1,18,20,-1,-1,22,-1,-1,-1,-1],"split_conditions":[2.3516132E-1,3.2600257E-1,3.9768866E-1,1E0,1.0264858E-1,1.0279963E-1,6.1120224E-1,1E0,9.041104E-2,-9.6087985E-2,1E0,1.2397765E-1,-1.7866088E-2,8.9510374E-2,1.3E1,2.3407042E-1,-1.0282562E-1,-1.7879868E-2,1.6E1,2.1896653E-2,-1.02606036E-1,1.2859568E-2,-9.966237E-3],"split_indices":[27,33,27,43,0,0,27,26,0,0,27,18,0,0,2,46,0,0,2,0,0,0,0],"split_type":[0,0,0,0,0,0,0,0,0,0,0,0,0,0,0,0,0,0,0,0,0,0,0],"sum_hessian":[1.7421495E3,1.1538408E3,5.883088E2,8.8249493E2,2.713459E2,5.4372375E2,4.4585026E1,8.7499243E2,7.502506E0,1.524219E1,2.9342836E1,8.5491205E2,2.0080353E1,7.310593E0,2.2032244E1,3.0236172E2,5.5255035E2,9.47367E0,1.2558574E1,3.6708958E1,2.6565277E2,6.0431767E0,6.515397E0],"tree_param":{"num_deleted":"0","num_feature":"53","num_nodes":"23","size_leaf_vector":"1"}},{"base_weights":[-8.4888656E-4,-1.0274615E-1,1.0275686E-1],"categories":[],"categories_nodes":[],"categories_segments":[],"categories_sizes":[],"default_left":[0,0,0],"id":29,"left_children":[1,-1,-1],"loss_changes":[1.6902827E3,0E0,0E0],"parents":[2147483647,0,0],"right_children":[2,-1,-1],"split_conditions":[4E2,-1.0274615E-1,1.0275686E-1],"split_indices":[1,0,0],"split_type":[0,0,0],"sum_hessian":[1.5989703E3,8.0023645E2,7.987338E2],"tree_param":{"num_deleted":"0","num_feature":"53","num_nodes":"3","size_leaf_vector":"1"}},{"base_weights":[-1.9718803E-4,-4.6951026E-1,9.225336E-1,-9.242368E-1,1.0199206E-1,1.02181725E-1,-2.2507787E-1,-9.408283E-1,8.7364696E-2,-9.431491E-2,1.4843243E-1,-9.645732E-1,-8.741076E-3,8.5472755E-2,-7.333939E-2,-8.5640377E-1,-1.02220275E-1,2.3388327E-3,-1.6346866E-2,-1.3304834E-2,-1.01921916E-1],"categories":[],"categories_nodes":[],"categories_segments":[],"categories_sizes":[],"default_left":[0,0,0,0,0,0,0,0,0,0,0,0,0,0,0,0,0,0,0,0,0],"id":30,"left_children":[1,3,5,7,-1,-1,9,11,-1,-1,13,15,-1,-1,17,19,-1,-1,-1,-1,-1],"loss_changes":[6.254844E2,6.494712E2,5.5788666E1,2.2728638E1,0E0,0E0,1.0816333E1,1.4562622E1,0E0,0E0,4.332908E0,3.350647E0,0E0,0E0,2.0248744E-1,2.9532166E1,0E0,0E0,0E0,0E0,0E0],"parents":[2147483647,0,0,1,1,2,2,3,3,6,6,7,7,10,10,11,11,14,14,15,15],"right_children":[2,4,6,8,-1,-1,10,12,-1,-1,14,16,-1,-1,18,20,-1,-1,-1,-1,-1],"split_conditions":[2.3516132E-1,3.2600257E-1,3.9768866E-1,1E0,1.0199206E-1,1.02181725E-1,6.1120224E-1,1E0,8.7364696E-2,-9.431491E-2,1E0,1.2397765E-1,-8.741076E-3,8.5472755E-2,3.306E3,2.0086539E-1,-1.02220275E-1,2.3388327E-3,-1.6346866E-2,-1.3304834E-2,-1.01921916E-1],"split_indices":[27,33,27,43,0,0,27,26,0,0,27,18,0,0,0,24,0,0,0,0,0],"split_type":[0,0,0,0,0,0,0,0,0,0,0,0,0,0,0,0,0,0,0,0,0],"sum_hessian":[1.4424757E3,9.565575E2,4.8591824E2,7.331667E2,2.2339078E2,4.4740823E2,3.8510033E1,7.2699005E2,6.1766133E0,1.2746876E1,2.5763155E1,7.0706964E2,1.9920435E1,5.582125E0,2.018103E1,2.5188405E2,4.5518558E2,9.556198E0,1.0624832E1,4.672514E1,2.051589E2],"tree_param":{"num_deleted":"0","num_feature":"53","num_nodes":"21","size_leaf_vector":"1"}},{"base_weights":[-1.7599907E-4,-1.0222297E-1,1.0223832E-1],"categories":[],"categories_nodes":[],"categories_segments":[],"categories_sizes":[],"default_left":[0,0,0],"id":31,"left_children":[1,-1,-1],"loss_changes":[1.3827605E3,0E0,0E0],"parents":[2147483647,0,0],"right_children":[2,-1,-1],"split_conditions":[4E2,-1.0222297E-1,1.0223832E-1],"split_indices":[1,0,0],"split_type":[0,0,0],"sum_hessian":[1.321076E3,6.6075037E2,6.603257E2],"tree_param":{"num_deleted":"0","num_feature":"53","num_nodes":"3","size_leaf_vector":"1"}},{"base_weights":[-3.3833233E-3,-1.0197156E-1,1.01983644E-1],"categories":[],"categories_nodes":[],"categories_segments":[],"categories_sizes":[],"default_left":[0,0,0],"id":32,"left_children":[1,-1,-1],"loss_changes":[1.2403397E3,0E0,0E0],"parents":[2147483647,0,0],"right_children":[2,-1,-1],"split_conditions":[4E2,-1.0197156E-1,1.01983644E-1],"split_indices":[1,0,0],"split_type":[0,0,0],"sum_hessian":[1.1907133E3,5.974179E2,5.932954E2],"tree_param":{"num_deleted":"0","num_feature":"53","num_nodes":"3","size_leaf_vector":"1"}},{"base_weights":[2.1216217E-3,-1.0174489E-1,1.01750605E-1],"categories":[],"categories_nodes":[],"categories_segments":[],"categories_sizes":[],"default_left":[0,0,0],"id":33,"left_children":[1,-1,-1],"loss_changes":[1.1274962E3,0E0,0E0],"parents":[2147483647,0,0],"right_children":[2,-1,-1],"split_conditions":[4E2,-1.0174489E-1,1.01750605E-1],"split_indices":[1,0,0],"split_type":[0,0,0],"sum_hessian":[1.0870989E3,5.4238116E2,5.447178E2],"tree_param":{"num_deleted":"0","num_feature":"53","num_nodes":"3","size_leaf_vector":"1"}},{"base_weights":[4.3068863E-3,-1.0153141E-1,1.0154652E-1],"categories":[],"categories_nodes":[],"categories_segments":[],"categories_sizes":[],"default_left":[0,0,0],"id":34,"left_children":[1,-1,-1],"loss_changes":[1.01744116E3,0E0,0E0],"parents":[2147483647,0,0],"right_children":[2,-1,-1],"split_conditions":[4E2,-1.0153141E-1,1.0154652E-1],"split_indices":[1,0,0],"split_type":[0,0,0],"sum_hessian":[9.8485065E2,4.90322E2,4.9452866E2],"tree_param":{"num_deleted":"0","num_feature":"53","num_nodes":"3","size_leaf_vector":"1"}},{"base_weights":[4.789734E-3,-1.0134321E-1,1.01356044E-1],"categories":[],"categories_nodes":[],"categories_segments":[],"categories_sizes":[],"default_left":[0,0,0],"id":35,"left_children":[1,-1,-1],"loss_changes":[9.213776E2,0E0,0E0],"parents":[2147483647,0,0],"right_children":[2,-1,-1],"split_conditions":[4E2,-1.0134321E-1,1.01356044E-1],"split_indices":[1,0,0],"split_type":[0,0,0],"sum_hessian":[8.950214E2,4.453725E2,4.4964893E2],"tree_param":{"num_deleted":"0","num_feature":"53","num_nodes":"3","size_leaf_vector":"1"}},{"base_weights":[4.6733604E-4,-4.6194643E-1,9.0771216E-1,-9.0701824E-1,1.0046875E-1,1.00842156E-1,-1.6208202E-1,-9.2344403E-1,7.68803E-2,-8.760261E-2,1.7580195E-1,-9.4933194E-1,-5.8623576E-3,7.6099895E-2,-1.5183323E-3,-8.3626026E-1,-1.0090201E-1,1.7882753E-2,-1.0044674E-1],"categories":[],"categories_nodes":[],"categories_segments":[],"categories_sizes":[],"default_left":[0,0,0,0,0,0,0,0,0,0,0,0,0,0,0,0,0,0,0],"id":36,"left_children":[1,3,5,7,-1,-1,9,11,-1,-1,13,15,-1,-1,-1,17,-1,-1,-1],"loss_changes":[3.407175E2,3.519668E2,2.9793259E1,1.209906E1,0E0,0E0,6.1029897E0,9.015808E0,0E0,0E0,2.0173953E0,1.6551208E0,0E0,0E0,0E0,2.4813637E1,0E0,0E0,0E0],"parents":[2147483647,0,0,1,1,2,2,3,3,6,6,7,7,10,10,11,11,15,15],"right_children":[2,4,6,8,-1,-1,10,12,-1,-1,14,16,-1,-1,-1,18,-1,-1,-1],"split_conditions":[2.3516132E-1,3.2600257E-1,3.9768866E-1,1E0,1.0046875E-1,1.00842156E-1,6.1120224E-1,1E0,7.68803E-2,-8.760261E-2,1E0,1.2397765E-1,-5.8623576E-3,7.6099895E-2,-1.5183323E-3,2.3407042E-1,-1.0090201E-1,1.7882753E-2,-1.0044674E-1],"split_indices":[27,33,27,43,0,0,27,26,0,0,27,18,0,0,0,46,0,0,0],"split_type":[0,0,0,0,0,0,0,0,0,0,0,0,0,0,0,0,0,0,0],"sum_hessian":[8.1004974E2,5.36819E2,2.7323074E2,4.1218506E2,1.2463392E2,2.4986E2,2.3370743E1,4.0868787E2,3.4971855E0,7.0909467E0,1.6279795E1,3.9660245E2,1.2085422E1,3.400216E0,1.2879579E1,1.4279019E2,2.5381226E2,2.0204351E1,1.22585846E2],"tree_param":{"num_deleted":"0","num_feature":"53","num_nodes":"19","size_leaf_vector":"1"}},{"base_weights":[-2.1220562E-4,-1.01026595E-1,1.0102969E-1],"categories":[],"categories_nodes":[],"categories_segments":[],"categories_sizes":[],"default_left":[0,0,0],"id":37,"left_children":[1,-1,-1],"loss_changes":[7.5518274E2,0E0,0E0],"parents":[2147483647,0,0],"right_children":[2,-1,-1],"split_conditions":[4E2,-1.01026595E-1,1.0102969E-1],"split_indices":[1,0,0],"split_type":[0,0,0],"sum_hessian":[7.378905E2,3.69078E2,3.688125E2],"tree_param":{"num_deleted":"0","num_feature":"53","num_nodes":"3","size_leaf_vector":"1"}},{"base_weights":[1.8083581E-3,-1.0087075E-1,1.0087559E-1],"categories":[],"categories_nodes":[],"categories_segments":[],"categories_sizes":[],"default_left":[0,0,0],"id":38,"left_children":[1,-1,-1],"loss_changes":[6.836761E2,0E0,0E0],"parents":[2147483647,0,0],"right_children":[2,-1,-1],"split_conditions":[4E2,-1.0087075E-1,1.0087559E-1],"split_indices":[1,0,0],"split_type":[0,0,0],"sum_hessian":[6.6989343E2,3.3430383E2,3.3558957E2],"tree_param":{"num_deleted":"0","num_feature":"53","num_nodes":"3","size_leaf_vector":"1"}},{"base_weights":[5.028655E-4,-1.0072149E-1,1.0072644E-1],"categories":[],"categories_nodes":[],"categories_segments":[],"categories_sizes":[],"default_left":[0,0,0],"id":39,"left_children":[1,-1,-1],"loss_changes":[6.165623E2,0E0,0E0],"parents":[2147483647,0,0],"right_children":[2,-1,-1],"split_conditions":[4E2,-1.0072149E-1,1.0072644E-1],"split_indices":[1,0,0],"split_type":[0,0,0],"sum_hessian":[6.057311E2,3.026719E2,3.0305917E2],"tree_param":{"num_deleted":"0","num_feature":"53","num_nodes":"3","size_leaf_vector":"1"}},{"base_weights":[-2.1946044E-3,-1.00580744E-1,1.0058363E-1],"categories":[],"categories_nodes":[],"categories_segments":[],"categories_sizes":[],"default_left":[0,0,0],"id":40,"left_children":[1,-1,-1],"loss_changes":[5.573221E2,0E0,0E0],"parents":[2147483647,0,0],"right_children":[2,-1,-1],"split_conditions":[4E2,-1.00580744E-1,1.0058363E-1],"split_indices":[1,0,0],"split_type":[0,0,0],"sum_hessian":[5.4889166E2,2.750994E2,2.7379227E2],"tree_param":{"num_deleted":"0","num_feature":"53","num_nodes":"3","size_leaf_vector":"1"}},{"base_weights":[2.1244859E-4,-4.5515394E-1,8.931099E-1,3.01098E-3,-9.455864E-1,1.0002124E-1,-1.8321706E-1,7.010007E-1,-9.926027E-2,-1.0007905E-1,1.885222E-3,-8.035313E-2,1.108887E-2,5.887443E-2,9.923328E-2,8.040213E-2,-7.994734E-2,2.8255177E-1,-8.4902175E-2,3.223866E-2,-0E0],"categories":[],"categories_nodes":[],"categories_segments":[],"categories_sizes":[],"default_left":[0,0,0,0,0,0,0,0,0,0,0,0,0,0,0,0,0,0,0,0,0],"id":41,"left_children":[1,3,5,7,9,-1,11,13,-1,-1,15,-1,-1,17,-1,-1,-1,19,-1,-1,-1],"loss_changes":[2.0408629E2,7.475733E1,1.981186E1,1.2066442E2,8.501373E0,0E0,3.0968118E0,1.8946983E1,0E0,0E0,6.9041166E0,0E0,0E0,6.89552E0,0E0,0E0,0E0,3.1766438E-1,0E0,0E0,0E0],"parents":[2147483647,0,0,1,1,2,2,3,3,4,4,6,6,7,7,10,10,13,13,17,17],"right_children":[2,4,6,8,10,-1,12,14,-1,-1,16,-1,-1,18,-1,-1,-1,20,-1,-1,-1],"split_conditions":[2.3516132E-1,1.2397765E-1,3.9768866E-1,2.3983032E-1,2.0086539E-1,1.0002124E-1,6.1120224E-1,2.0086539E-1,-9.926027E-2,-1.0007905E-1,2.3983032E-1,-8.035313E-2,1.108887E-2,4.1051063E-1,9.923328E-2,8.040213E-2,-7.994734E-2,4.3463558E-1,-8.4902175E-2,3.223866E-2,-0E0],"split_indices":[27,18,27,31,24,0,27,24,0,0,31,0,0,11,0,0,0,12,0,0,0],"split_type":[0,0,0,0,0,0,0,0,0,0,0,0,0,0,0,0,0,0,0,0,0],"sum_hessian":[4.9983194E2,3.312678E2,1.6856413E2,1.7167653E2,1.5959128E2,1.5345758E2,1.5106541E1,1.0115598E2,7.0520546E1,1.5085126E2,8.740015E0,4.4109874E0,1.0695553E1,3.205305E1,6.910293E1,4.4285917E0,4.3114233E0,2.6358152E1,5.6948986E0,2.3071404E1,3.2867498E0],"tree_param":{"num_deleted":"0","num_feature":"53","num_nodes":"21","size_leaf_vector":"1"}},{"base_weights":[-1.7161161E-3,3.3248404E-1,-9.3264866E-1,6.5471417E-1,-9.905424E-2,-9.978139E-2,7.818786E-2,7.394825E-1,-9.2880525E-2,8.2124835E-1,-9.1865055E-2,8.610037E-1,-8.347242E-2,8.979835E-2,-1.6488936E-2],"categories":[],"categories_nodes":[],"categories_segments":[],"categories_sizes":[],"default_left":[0,0,0,0,0,0,0,0,0,0,0,0,0,0,0],"id":42,"left_children":[1,3,5,7,-1,-1,-1,9,-1,11,-1,13,-1,-1,-1],"loss_changes":[1.4171204E2,1.4341129E2,1.4248329E1,3.6912384E1,0E0,0E0,0E0,3.5576202E1,0E0,1.6878372E1,0E0,9.334656E0,0E0,0E0,0E0],"parents":[2147483647,0,0,1,1,2,2,3,3,7,7,9,9,11,11],"right_children":[2,4,6,8,-1,-1,-1,10,-1,12,-1,14,-1,-1,-1],"split_conditions":[2.090303E-1,2.3983032E-1,3.280661E-1,2.4237126E-1,-9.905424E-2,-9.978139E-2,7.818786E-2,2.5090674E-1,-9.2880525E-2,5.088208E-1,-9.1865055E-2,6.603118E-1,-8.347242E-2,8.979835E-2,-1.6488936E-2],"split_indices":[18,31,51,21,0,0,0,40,0,11,0,26,0,0,0],"split_type":[0,0,0,0,0,0,0,0,0,0,0,0,0,0,0],"sum_hessian":[4.5330353E2,3.3395187E2,1.1935164E2,2.6901306E2,6.4938835E1,1.1544038E2,3.9112673E0,2.5590994E2,1.3103107E1,2.4442203E2,1.1487913E1,2.3921948E2,5.20255E0,2.3111092E2,8.108564E0],"tree_param":{"num_deleted":"0","num_feature":"53","num_nodes":"15","size_leaf_vector":"1"}},{"base_weights":[-2.9374787E-3,-1.00253545E-1,1.0023065E-1],"categories":[],"categories_nodes":[],"categories_segments":[],"categories_sizes":[],"default_left":[0,0,0],"id":43,"left_children":[1,-1,-1],"loss_changes":[4.2125723E2,0E0,0E0],"parents":[2147483647,0,0],"right_children":[2,-1,-1],"split_conditions":[4E2,-1.00253545E-1,1.0023065E-1],"split_indices":[1,0,0],"split_type":[0,0,0],"sum_hessian":[4.1722824E2,2.0925284E2,2.0797539E2],"tree_param":{"num_deleted":"0","num_feature":"53","num_nodes":"3","size_leaf_vector":"1"}},{"base_weights":[-1.7493882E-3,-1.0011766E-1,1.00100756E-1],"categories":[],"categories_nodes":[],"categories_segments":[],"categories_sizes":[],"default_left":[0,0,0],"id":44,"left_children":[1,-1,-1],"loss_changes":[3.7929398E2,0E0,0E0],"parents":[2147483647,0,0],"right_children":[2,-1,-1],"split_conditions":[4E2,-1.0011766E-1,1.00100756E-1],"split_indices":[1,0,0],"split_type":[0,0,0],"sum_hessian":[3.7646793E2,1.8859775E2,1.878702E2],"tree_param":{"num_deleted":"0","num_feature":"53","num_nodes":"3","size_leaf_vector":"1"}},{"base_weights":[1.607701E-3,-4.4263858E-1,8.655319E-1,-8.7172616E-1,9.8472536E-2,9.938727E-2,-1.9919503E-1,-9.030301E-1,-9.723125E-3,-7.5551234E-2,5.732388E-3,-9.1981655E-1,-7.161595E-4,-7.76747E-1,-9.9484585E-2,2.1925932E-2,-9.841978E-2],"categories":[],"categories_nodes":[],"categories_segments":[],"categories_sizes":[],"default_left":[0,0,0,0,0,0,0,0,0,0,0,0,0,0,0,0,0],"id":45,"left_children":[1,3,5,7,-1,-1,9,11,-1,-1,-1,13,-1,15,-1,-1,-1],"loss_changes":[1.323883E2,1.40279E2,1.628978E1,4.070099E0,0E0,0E0,2.0188897E0,2.435501E0,0E0,0E0,0E0,8.2489014E-1,0E0,1.3081898E1,0E0,0E0,0E0],"parents":[2147483647,0,0,1,1,2,2,3,3,6,6,7,7,11,11,13,13],"right_children":[2,4,6,8,-1,-1,10,12,-1,-1,-1,14,-1,16,-1,-1,-1],"split_conditions":[2.3516132E-1,3.2600257E-1,3.9768866E-1,1E0,9.8472536E-2,9.938727E-2,6.1120224E-1,5.312474E-1,-9.723125E-3,-7.5551234E-2,5.732388E-3,1.2397765E-1,-7.161595E-4,2.3407042E-1,-9.9484585E-2,2.1925932E-2,-9.841978E-2],"split_indices":[27,33,27,26,0,0,27,12,0,0,0,18,0,46,0,0,0],"split_type":[0,0,0,0,0,0,0,0,0,0,0,0,0,0,0,0,0],"sum_hessian":[3.428368E2,2.2665723E2,1.16179565E2,1.7462239E2,5.2034847E1,1.03825096E2,1.2354471E1,1.6755498E2,7.0674043E0,3.4080198E0,8.946451E0,1.6433734E2,3.2176476E0,6.0898495E1,1.0343884E2,1.0404717E1,5.049378E1],"tree_param":{"num_deleted":"0","num_feature":"53","num_nodes":"17","size_leaf_vector":"1"}},{"base_weights":[-3.8049107E-3,-9.990169E-2,9.9871E-2],"categories":[],"categories_nodes":[],"categories_segments":[],"categories_sizes":[],"default_left":[0,0,0],"id":46,"left_children":[1,-1,-1],"loss_changes":[3.1385828E2,0E0,0E0],"parents":[2147483647,0,0],"right_children":[2,-1,-1],"split_conditions":[4E2,-9.990169E-2,9.9871E-2],"split_indices":[1,0,0],"split_type":[0,0,0],"sum_hessian":[3.125771E2,1.5691168E2,1.5566539E2],"tree_param":{"num_deleted":"0","num_feature":"53","num_nodes":"3","size_leaf_vector":"1"}},{"base_weights":[-4.186334E-3,-9.977392E-2,9.974372E-2],"categories":[],"categories_nodes":[],"categories_segments":[],"categories_sizes":[],"default_left":[0,0,0],"id":47,"left_children":[1,-1,-1],"loss_changes":[2.8411435E2,0E0,0E0],"parents":[2147483647,0,0],"right_children":[2,-1,-1],"split_conditions":[4E2,-9.977392E-2,9.974372E-2],"split_indices":[1,0,0],"split_type":[0,0,0],"sum_hessian":[2.8349448E2,1.4237268E2,1.411218E2],"tree_param":{"num_deleted":"0","num_feature":"53","num_nodes":"3","size_leaf_vector":"1"}},{"base_weights":[-4.509333E-4,-9.964072E-2,9.9616475E-2],"categories":[],"categories_nodes":[],"categories_segments":[],"categories_sizes":[],"default_left":[0,0,0],"id":48,"left_children":[1,-1,-1],"loss_changes":[2.562946E2,0E0,0E0],"parents":[2147483647,0,0],"right_children":[2,-1,-1],"split_conditions":[4E2,-9.964072E-2,9.9616475E-2],"split_indices":[1,0,0],"split_type":[0,0,0],"sum_hessian":[2.5620905E2,1.2819722E2,1.2801184E2],"tree_param":{"num_deleted":"0","num_feature":"53","num_nodes":"3","size_leaf_vector":"1"}},{"base_weights":[1.6560748E-3,-9.9505074E-2,9.949329E-2],"categories":[],"categories_nodes":[],"categories_segments":[],"categories_sizes":[],"default_left":[0,0,0],"id":49,"left_children":[1,-1,-1],"loss_changes":[2.3272342E2,0E0,0E0],"parents":[2147483647,0,0],"right_children":[2,-1,-1],"split_conditions":[4E2,-9.9505074E-2,9.949329E-2],"split_indices":[1,0,0],"split_type":[0,0,0],"sum_hessian":[2.330728E2,1.1628439E2,1.16788414E2],"tree_param":{"num_deleted":"0","num_feature":"53","num_nodes":"3","size_leaf_vector":"1"}},{"base_weights":[-3.82991E-3,-9.936746E-2,9.934502E-2],"categories":[],"categories_nodes":[],"categories_segments":[],"categories_sizes":[],"default_left":[0,0,0],"id":50,"left_children":[1,-1,-1],"loss_changes":[2.0941255E2,0E0,0E0],"parents":[2147483647,0,0],"right_children":[2,-1,-1],"split_conditions":[4E2,-9.936746E-2,9.934502E-2],"split_indices":[1,0,0],"split_type":[0,0,0],"sum_hessian":[2.1013799E2,1.05514275E2,1.046237E2],"tree_param":{"num_deleted":"0","num_feature":"53","num_nodes":"3","size_leaf_vector":"1"}},{"base_weights":[-0E0,-9.9215634E-2,9.920367E-2],"categories":[],"categories_nodes":[],"categories_segments":[],"categories_sizes":[],"default_left":[0,0,0],"id":51,"left_children":[1,-1,-1],"loss_changes":[1.8918552E2,0E0,0E0],"parents":[2147483647,0,0],"right_children":[2,-1,-1],"split_conditions":[4E2,-9.9215634E-2,9.920367E-2],"split_indices":[1,0,0],"split_type":[0,0,0],"sum_hessian":[1.9021178E2,9.5135826E1,9.507594E1],"tree_param":{"num_deleted":"0","num_feature":"53","num_nodes":"3","size_leaf_vector":"1"}},{"base_weights":[3.4272592E-3,-9.907274E-2,9.9071965E-2],"categories":[],"categories_nodes":[],"categories_segments":[],"categories_sizes":[],"default_left":[0,0,0],"id":52,"left_children":[1,-1,-1],"loss_changes":[1.7285472E2,0E0,0E0],"parents":[2147483647,0,0],"right_children":[2,-1,-1],"split_conditions":[4E2,-9.907274E-2,9.9071965E-2],"split_indices":[1,0,0],"split_type":[0,0,0],"sum_hessian":[1.7410898E2,8.670079E1,8.740818E1],"tree_param":{"num_deleted":"0","num_feature":"53","num_nodes":"3","size_leaf_vector":"1"}},{"base_weights":[-3.2758964E-3,-9.892162E-2,9.8900735E-2],"categories":[],"categories_nodes":[],"categories_segments":[],"categories_sizes":[],"default_left":[0,0,0],"id":53,"left_children":[1,-1,-1],"loss_changes":[1.5590117E2,0E0,0E0],"parents":[2147483647,0,0],"right_children":[2,-1,-1],"split_conditions":[4E2,-9.892162E-2,9.8900735E-2],"split_indices":[1,0,0],"split_type":[0,0,0],"sum_hessian":[1.57354E2,7.898138E1,7.8372635E1],"tree_param":{"num_deleted":"0","num_feature":"53","num_nodes":"3","size_leaf_vector":"1"}},{"base_weights":[-5.1598414E-3,-9.8748446E-2,9.8720156E-2],"categories":[],"categories_nodes":[],"categories_segments":[],"categories_sizes":[],"default_left":[0,0,0],"id":54,"left_children":[1,-1,-1],"loss_changes":[1.4019931E2,0E0,0E0],"parents":[2147483647,0,0],"right_children":[2,-1,-1],"split_conditions":[4E2,-9.8748446E-2,9.8720156E-2],"split_indices":[1,0,0],"split_type":[0,0,0],"sum_hessian":[1.4182053E2,7.132379E1,7.0496735E1],"tree_param":{"num_deleted":"0","num_feature":"53","num_nodes":"3","size_leaf_vector":"1"}},{"base_weights":[-4.8977975E-3,-4.421637E-1,8.354513E-1,-8.550747E-1,9.473138E-2,9.727418E-2,-1.5800687E-2,-8.861431E-1,-1.4324299E-2,-7.053446E-1,-9.7437106E-2,2.281483E-2,-9.4718E-2],"categories":[],"categories_nodes":[],"categories_segments":[],"categories_sizes":[],"default_left":[0,0,0,0,0,0,0,0,0,0,0,0,0],"id":55,"left_children":[1,3,5,7,-1,-1,-1,9,-1,11,-1,-1,-1],"loss_changes":[4.7984394E1,5.0160957E1,6.3255634E0,1.2497711E0,0E0,0E0,0E0,1.621437E-1,0E0,5.911541E0,0E0,0E0,0E0],"parents":[2147483647,0,0,1,1,2,2,3,3,7,7,9,9],"right_children":[2,4,6,8,-1,-1,-1,10,-1,12,-1,-1,-1],"split_conditions":[2.3516132E-1,3.2600257E-1,3.9768866E-1,6.7812425E-1,9.473138E-2,9.727418E-2,-1.5800687E-2,1.2397765E-1,-1.4324299E-2,2.3407042E-1,-9.7437106E-2,2.281483E-2,-9.4718E-2],"split_indices":[27,33,27,26,0,0,0,18,0,46,0,0,0],"split_type":[0,0,0,0,0,0,0,0,0,0,0,0,0],"sum_hessian":[1.2868715E2,8.503368E1,4.365346E1,6.590521E1,1.9128473E1,3.846001E1,5.1934505E0,6.2779785E1,3.125425E0,2.3910301E1,3.8869484E1,4.8463426E0,1.906396E1],"tree_param":{"num_deleted":"0","num_feature":"53","num_nodes":"13","size_leaf_vector":"1"}},{"base_weights":[5.0880486E-4,-9.8394744E-2,9.839143E-2],"categories":[],"categories_nodes":[],"categories_segments":[],"categories_sizes":[],"default_left":[0,0,0],"id":56,"left_children":[1,-1,-1],"loss_changes":[1.16353E2,0E0,0E0],"parents":[2147483647,0,0],"right_children":[2,-1,-1],"split_conditions":[4E2,-9.8394744E-2,9.839143E-2],"split_indices":[1,0,0],"split_type":[0,0,0],"sum_hessian":[1.18184525E2,5.9009617E1,5.9174908E1],"tree_param":{"num_deleted":"0","num_feature":"53","num_nodes":"3","size_leaf_vector":"1"}},{"base_weights":[1.1077821E-3,-9.818656E-2,9.818539E-2],"categories":[],"categories_nodes":[],"categories_segments":[],"categories_sizes":[],"default_left":[0,0,0],"id":57,"left_children":[1,-1,-1],"loss_changes":[1.0517234E2,0E0,0E0],"parents":[2147483647,0,0],"right_children":[2,-1,-1],"split_conditions":[4E2,-9.818656E-2,9.818539E-2],"split_indices":[1,0,0],"split_type":[0,0,0],"sum_hessian":[1.0709458E2,5.3435066E1,5.365952E1],"tree_param":{"num_deleted":"0","num_feature":"53","num_nodes":"3","size_leaf_vector":"1"}},{"base_weights":[-6.848641E-4,-4.2902923E-1,8.2074517E-1,-8.369932E-1,9.305709E-2,9.630562E-2,-1.575688E-2,-8.701005E-2,-2.139279E-2],"categories":[],"categories_nodes":[],"categories_segments":[],"categories_sizes":[],"default_left":[0,0,0,0,0,0,0,0,0],"id":58,"left_children":[1,3,5,7,-1,-1,-1,-1,-1],"loss_changes":[3.4950394E1,3.7066566E1,4.966381E0,7.5580215E-1,0E0,0E0,0E0,0E0,0E0],"parents":[2147483647,0,0,1,1,2,2,3,3],"right_children":[2,4,6,8,-1,-1,-1,-1,-1],"split_conditions":[2.3516132E-1,3.2600257E-1,3.9768866E-1,5.9677655E-1,9.305709E-2,9.630562E-2,-1.575688E-2,-8.701005E-2,-2.139279E-2],"split_indices":[27,33,27,26,0,0,0,0,0],"split_type":[0,0,0,0,0,0,0,0,0],"sum_hessian":[9.744239E1,6.443924E1,3.3003155E1,4.991853E1,1.4520707E1,2.8914852E1,4.088304E0,4.6871006E1,3.0475254E0],"tree_param":{"num_deleted":"0","num_feature":"53","num_nodes":"9","size_leaf_vector":"1"}},{"base_weights":[1.0227249E-3,3.1502077E-1,-8.907258E-2,6.381924E-1,-9.252435E-2,5.0909793E-1,9.297757E-2,2.6202402E-1,9.2553094E-2,-3.259835E-1,9.171728E-2,-1.1600599E-3,-8.086825E-2],"categories":[],"categories_nodes":[],"categories_segments":[],"categories_sizes":[],"default_left":[0,0,0,0,0,0,0,0,0,0,0,0,0],"id":59,"left_children":[1,3,-1,5,-1,7,-1,9,-1,11,-1,-1,-1],"loss_changes":[2.5754807E1,2.7921093E1,0E0,1.4457245E0,0E0,3.7990475E0,0E0,1.0729875E1,0E0,2.1615195E0,0E0,0E0,0E0],"parents":[2147483647,0,0,1,1,3,3,5,5,7,7,9,9],"right_children":[2,4,-1,6,-1,8,-1,10,-1,12,-1,-1,-1],"split_conditions":[2.090303E-1,2.3407042E-1,-8.907258E-2,2.934994E-1,-9.252435E-2,3.2600257E-1,9.297757E-2,3.280661E-1,9.2553094E-2,1.2397765E-1,9.171728E-2,-1.1600599E-3,-8.086825E-2],"split_indices":[18,46,0,43,0,33,0,22,0,18,0,0,0],"split_type":[0,0,0,0,0,0,0,0,0,0,0,0,0],"sum_hessian":[9.0182556E1,6.725865E1,2.2923904E1,5.380494E1,1.3453713E1,3.9434696E1,1.4370243E1,2.5923418E1,1.351128E1,1.3846095E1,1.2077322E1,9.130549E0,4.7155457E0],"tree_param":{"num_deleted":"0","num_feature":"53","num_nodes":"13","size_leaf_vector":"1"}},{"base_weights":[2.0062865E-4,-4.1191125E-1,7.967498E-1,-7.981683E-1,9.1674834E-2,9.55218E-2,-1.3174559E-2,-5.446198E-1,-9.579619E-2,1.7079175E-2,-9.173549E-2],"categories":[],"categories_nodes":[],"categories_segments":[],"categories_sizes":[],"default_left":[0,0,0,0,0,0,0,0,0,0,0],"id":60,"left_children":[1,3,5,7,-1,-1,-1,9,-1,-1,-1],"loss_changes":[2.7990044E1,2.9476511E1,4.492157E0,1.1109295E0,0E0,0E0,0E0,5.450301E0,0E0,0E0,0E0],"parents":[2147483647,0,0,1,1,2,2,3,3,7,7],"right_children":[2,4,6,8,-1,-1,-1,10,-1,-1,-1],"split_conditions":[2.3516132E-1,3.2600257E-1,3.9768866E-1,1.2397765E-1,9.1674834E-2,9.55218E-2,-1.3174559E-2,2.3407042E-1,-9.579619E-2,1.7079175E-2,-9.173549E-2],"split_indices":[27,33,27,18,0,0,0,46,0,0,0],"split_type":[0,0,0,0,0,0,0,0,0,0,0],"sum_hessian":[8.314901E1,5.5033554E1,2.8115456E1,4.300579E1,1.20277605E1,2.4083923E1,4.031533E0,1.85717E1,2.4434093E1,6.4552574E0,1.2116442E1],"tree_param":{"num_deleted":"0","num_feature":"53","num_nodes":"11","size_leaf_vector":"1"}},{"base_weights":[2.4379746E-3,-9.735369E-2,9.737185E-2],"categories":[],"categories_nodes":[],"categories_segments":[],"categories_sizes":[],"default_left":[0,0,0],"id":61,"left_children":[1,-1,-1],"loss_changes":[7.449362E1,0E0,0E0],"parents":[2147483647,0,0],"right_children":[2,-1,-1],"split_conditions":[4E2,-9.735369E-2,9.737185E-2],"split_indices":[1,0,0],"split_type":[0,0,0],"sum_hessian":[7.6584274E1,3.8147312E1,3.8436962E1],"tree_param":{"num_deleted":"0","num_feature":"53","num_nodes":"3","size_leaf_vector":"1"}},{"base_weights":[-0E0,-9.706323E-2,9.7065486E-2],"categories":[],"categories_nodes":[],"categories_segments":[],"categories_sizes":[],"default_left":[0,0,0],"id":62,"left_children":[1,-1,-1],"loss_changes":[6.725615E1,0E0,0E0],"parents":[2147483647,0,0],"right_children":[2,-1,-1],"split_conditions":[4E2,-9.706323E-2,9.7065486E-2],"split_indices":[1,0,0],"split_type":[0,0,0],"sum_hessian":[6.938591E1,3.466867E1,3.4717236E1],"tree_param":{"num_deleted":"0","num_feature":"53","num_nodes":"3","size_leaf_vector":"1"}},{"base_weights":[-0E0,-4.0111497E-1,7.740933E-1,-7.7792597E-1,8.915179E-2,9.428011E-2,-1.3108571E-2,-5.136231E-1,-9.43848E-2,1.6468523E-2,-8.9250214E-2],"categories":[],"categories_nodes":[],"categories_segments":[],"categories_sizes":[],"default_left":[0,0,0,0,0,0,0,0,0,0,0],"id":63,"left_children":[1,3,5,7,-1,-1,-1,9,-1,-1,-1],"loss_changes":[2.0188316E1,2.1513971E1,3.5960608E0,8.477516E-1,0E0,0E0,0E0,4.1843963E0,0E0,0E0,0E0],"parents":[2147483647,0,0,1,1,2,2,3,3,7,7],"right_children":[2,4,6,8,-1,-1,-1,10,-1,-1,-1],"split_conditions":[2.3516132E-1,3.2600257E-1,3.9768866E-1,1.2397765E-1,8.915179E-2,9.428011E-2,-1.3108571E-2,2.3407042E-1,-9.43848E-2,1.6468523E-2,-8.9250214E-2],"split_indices":[27,33,27,18,0,0,0,46,0,0,0],"split_type":[0,0,0,0,0,0,0,0,0,0,0],"sum_hessian":[6.2976227E1,4.1768883E1,2.1207344E1,3.270942E1,9.059464E0,1.7933752E1,3.2735915E0,1.4426776E1,1.8282642E1,5.278342E0,9.148435E0],"tree_param":{"num_deleted":"0","num_feature":"53","num_nodes":"11","size_leaf_vector":"1"}},{"base_weights":[-0E0,-9.649651E-2,9.648442E-2],"categories":[],"categories_nodes":[],"categories_segments":[],"categories_sizes":[],"default_left":[0,0,0],"id":64,"left_children":[1,-1,-1],"loss_changes":[5.6297157E1,0E0,0E0],"parents":[2147483647,0,0],"right_children":[2,-1,-1],"split_conditions":[4E2,-9.649651E-2,9.648442E-2],"split_indices":[1,0,0],"split_type":[0,0,0],"sum_hessian":[5.846689E1,2.9263933E1,2.9202955E1],"tree_param":{"num_deleted":"0","num_feature":"53","num_nodes":"3","size_leaf_vector":"1"}},{"base_weights":[3.8206328E-3,-3.8812256E-1,7.5722593E-1,-7.549141E-1,8.7200254E-2,-0E0,9.161436E-2,-4.787062E-1,-9.324884E-2,1.5718108E-2,-8.722644E-2],"categories":[],"categories_nodes":[],"categories_segments":[],"categories_sizes":[],"default_left":[0,0,0,0,0,0,0,0,0,0,0],"id":65,"left_children":[1,3,5,7,-1,-1,-1,9,-1,-1,-1],"loss_changes":[1.628961E1,1.7343124E1,2.224433E0,8.1412506E-1,0E0,0E0,0E0,3.576616E0,0E0,0E0,0E0],"parents":[2147483647,0,0,1,1,2,2,3,3,7,7],"right_children":[2,4,6,8,-1,-1,-1,10,-1,-1,-1],"split_conditions":[2.3516132E-1,3.2600257E-1,1.3352269E-1,1.2397765E-1,8.7200254E-2,-0E0,9.161436E-2,2.3407042E-1,-9.324884E-2,1.5718108E-2,-8.722644E-2],"split_indices":[27,33,18,18,0,0,0,46,0,0,0],"split_type":[0,0,0,0,0,0,0,0,0,0,0],"sum_hessian":[5.3044136E1,3.512382E1,1.7920315E1,2.7577085E1,7.5467353E0,3.344386E0,1.4575929E1,1.2458094E1,1.5118992E1,4.89522E0,7.5628734E0],"tree_param":{"num_deleted":"0","num_feature":"53","num_nodes":"11","size_leaf_vector":"1"}},{"base_weights":[-0E0,-9.580328E-2,9.579534E-2],"categories":[],"categories_nodes":[],"categories_segments":[],"categories_sizes":[],"default_left":[0,0,0],"id":66,"left_children":[1,-1,-1],"loss_changes":[4.6811813E1,0E0,0E0],"parents":[2147483647,0,0],"right_children":[2,-1,-1],"split_conditions":[4E2,-9.580328E-2,9.579534E-2],"split_indices":[1,0,0],"split_type":[0,0,0],"sum_hessian":[4.9007103E1,2.451511E1,2.4491993E1],"tree_param":{"num_deleted":"0","num_feature":"53","num_nodes":"3","size_leaf_vector":"1"}},{"base_weights":[-0E0,-9.536729E-2,9.537532E-2],"categories":[],"categories_nodes":[],"categories_segments":[],"categories_sizes":[],"default_left":[0,0,0],"id":67,"left_children":[1,-1,-1],"loss_changes":[4.229097E1,0E0,0E0],"parents":[2147483647,0,0],"right_children":[2,-1,-1],"split_conditions":[4E2,-9.536729E-2,9.537532E-2],"split_indices":[1,0,0],"split_type":[0,0,0],"sum_hessian":[4.4495625E1,2.2212486E1,2.228314E1],"tree_param":{"num_deleted":"0","num_feature":"53","num_nodes":"3","size_leaf_vector":"1"}},{"base_weights":[-0E0,-9.492334E-2,9.491852E-2],"categories":[],"categories_nodes":[],"categories_segments":[],"categories_sizes":[],"default_left":[0,0,0],"id":68,"left_children":[1,-1,-1],"loss_changes":[3.8325233E1,0E0,0E0],"parents":[2147483647,0,0],"right_children":[2,-1,-1],"split_conditions":[4E2,-9.492334E-2,9.491852E-2],"split_indices":[1,0,0],"split_type":[0,0,0],"sum_hessian":[4.053641E1,2.0266825E1,2.0269587E1],"tree_param":{"num_deleted":"0","num_feature":"53","num_nodes":"3","size_leaf_vector":"1"}},{"base_weights":[-0E0,-9.441402E-2,9.438991E-2],"categories":[],"categories_nodes":[],"categories_segments":[],"categories_sizes":[],"default_left":[0,0,0],"id":69,"left_children":[1,-1,-1],"loss_changes":[3.4507137E1,0E0,0E0],"parents":[2147483647,0,0],"right_children":[2,-1,-1],"split_conditions":[4E2,-9.441402E-2,9.438991E-2],"split_indices":[1,0,0],"split_type":[0,0,0],"sum_hessian":[3.6721012E1,1.8395973E1,1.8325039E1],"tree_param":{"num_deleted":"0","num_feature":"53","num_nodes":"3","size_leaf_vector":"1"}},{"base_weights":[2.0857567E-3,-3.763836E-1,7.144531E-1,-7.3055375E-1,8.0829285E-2,8.652286E-2,3.0058825E-2,-4.4800884E-1,-8.946219E-2,1.164751E-2,-8.079534E-2],"categories":[],"categories_nodes":[],"categories_segments":[],"categories_sizes":[],"default_left":[0,0,0,0,0,0,0,0,0,0,0],"id":70,"left_children":[1,3,5,7,-1,-1,-1,9,-1,-1,-1],"loss_changes":[9.605648E0,1.0273626E1,3.9763594E-1,3.1656742E-1,0E0,0E0,0E0,1.9870069E0,0E0,0E0,0E0],"parents":[2147483647,0,0,1,1,2,2,3,3,7,7],"right_children":[2,4,6,8,-1,-1,-1,10,-1,-1,-1],"split_conditions":[2.3516132E-1,3.2600257E-1,3.9529845E-1,1.2397765E-1,8.0829285E-2,8.652286E-2,3.0058825E-2,2.3407042E-1,-8.946219E-2,1.164751E-2,-8.079534E-2],"split_indices":[27,33,27,18,0,0,0,46,0,0,0],"split_type":[0,0,0,0,0,0,0,0,0,0,0],"sum_hessian":[3.350525E1,2.2096827E1,1.1408422E1,1.7371265E1,4.7255616E0,7.385553E0,4.02287E0,7.9759154E0,9.39535E0,3.2607787E0,4.7151365E0],"tree_param":{"num_deleted":"0","num_feature":"53","num_nodes":"11","size_leaf_vector":"1"}},{"base_weights":[-0E0,-9.347483E-2,9.349877E-2],"categories":[],"categories_nodes":[],"categories_segments":[],"categories_sizes":[],"default_left":[0,0,0],"id":71,"left_children":[1,-1,-1],"loss_changes":[2.918475E1,0E0,0E0],"parents":[2147483647,0,0],"right_children":[2,-1,-1],"split_conditions":[4E2,-9.347483E-2,9.349877E-2],"split_indices":[1,0,0],"split_type":[0,0,0],"sum_hessian":[3.1392979E1,1.5657807E1,1.5735171E1],"tree_param":{"num_deleted":"0","num_feature":"53","num_nodes":"3","size_leaf_vector":"1"}},{"base_weights":[-0E0,-9.286576E-2,9.286153E-2],"categories":[],"categories_nodes":[],"categories_segments":[],"categories_sizes":[],"default_left":[0,0,0],"id":72,"left_children":[1,-1,-1],"loss_changes":[2.633397E1,0E0,0E0],"parents":[2147483647,0,0],"right_children":[2,-1,-1],"split_conditions":[4E2,-9.286576E-2,9.286153E-2],"split_indices":[1,0,0],"split_type":[0,0,0],"sum_hessian":[2.8536896E1,1.4265546E1,1.4271349E1],"tree_param":{"num_deleted":"0","num_feature":"53","num_nodes":"3","size_leaf_vector":"1"}},{"base_weights":[-0E0,-9.215201E-2,9.217962E-2],"categories":[],"categories_nodes":[],"categories_segments":[],"categories_sizes":[],"default_left":[0,0,0],"id":73,"left_children":[1,-1,-1],"loss_changes":[2.3669888E1,0E0,0E0],"parents":[2147483647,0,0],"right_children":[2,-1,-1],"split_conditions":[4E2,-9.215201E-2,9.217962E-2],"split_indices":[1,0,0],"split_type":[0,0,0],"sum_hessian":[2.5864822E1,1.2904025E1,1.2960796E1],"tree_param":{"num_deleted":"0","num_feature":"53","num_nodes":"3","size_leaf_vector":"1"}},{"base_weights":[-0E0,-9.1515936E-2,9.150521E-2],"categories":[],"categories_nodes":[],"categories_segments":[],"categories_sizes":[],"default_left":[0,0,0],"id":74,"left_children":[1,-1,-1],"loss_changes":[2.1559093E1,0E0,0E0],"parents":[2147483647,0,0],"right_children":[2,-1,-1],"split_conditions":[4E2,-9.1515936E-2,9.150521E-2],"split_indices":[1,0,0],"split_type":[0,0,0],"sum_hessian":[2.3744707E1,1.1875953E1,1.1868753E1],"tree_param":{"num_deleted":"0","num_feature":"53","num_nodes":"3","size_leaf_vector":"1"}},{"base_weights":[3.6279126E-3,-9.066751E-2,9.080797E-2],"categories":[],"categories_nodes":[],"categories_segments":[],"categories_sizes":[],"default_left":[0,0,0],"id":75,"left_children":[1,-1,-1],"loss_changes":[1.9452908E1,0E0,0E0],"parents":[2147483647,0,0],"right_children":[2,-1,-1],"split_conditions":[4E2,-9.066751E-2,9.080797E-2],"split_indices":[1,0,0],"split_type":[0,0,0],"sum_hessian":[2.1627071E1,1.0722341E1,1.0904731E1],"tree_param":{"num_deleted":"0","num_feature":"53","num_nodes":"3","size_leaf_vector":"1"}},{"base_weights":[-0E0,-8.990308E-2,8.992373E-2],"categories":[],"categories_nodes":[],"categories_segments":[],"categories_sizes":[],"default_left":[0,0,0],"id":76,"left_children":[1,-1,-1],"loss_changes":[1.7553646E1,0E0,0E0],"parents":[2147483647,0,0],"right_children":[2,-1,-1],"split_conditions":[4E2,-8.990308E-2,8.992373E-2],"split_indices":[1,0,0],"split_type":[0,0,0],"sum_hessian":[1.9712925E1,9.843803E0,9.8691225E0],"tree_param":{"num_deleted":"0","num_feature":"53","num_nodes":"3","size_leaf_vector":"1"}},{"base_weights":[-0E0,-8.9033894E-2,8.910542E-2],"categories":[],"categories_nodes":[],"categories_segments":[],"categories_sizes":[],"default_left":[0,0,0],"id":77,"left_children":[1,-1,-1],"loss_changes":[1.5907879E1,0E0,0E0],"parents":[2147483647,0,0],"right_children":[2,-1,-1],"split_conditions":[4E2,-8.9033894E-2,8.910542E-2],"split_indices":[1,0,0],"split_type":[0,0,0],"sum_hessian":[1.8051714E1,8.991767E0,9.059947E0],"tree_param":{"num_deleted":"0","num_feature":"53","num_nodes":"3","size_leaf_vector":"1"}},{"base_weights":[-0E0,-3.511283E-1,6.331201E-2,3.277949E-4,-7.6078184E-2],"categories":[],"categories_nodes":[],"categories_segments":[],"categories_sizes":[],"default_left":[0,0,0,0,0],"id":78,"left_children":[1,3,-1,-1,-1],"loss_changes":[4.122576E0,1.8178461E0,0E0,0E0,0E0],"parents":[2147483647,0,0,1,1],"right_children":[2,4,-1,-1,-1],"split_conditions":[2.3516132E-1,1.2397765E-1,6.331201E-2,3.277949E-4,-7.6078184E-2],"split_indices":[27,18,0,0,0],"split_type":[0,0,0,0,0],"sum_hessian":[1.6581427E1,1.0982066E1,5.5993605E0,6.28906E0,4.6930065E0],"tree_param":{"num_deleted":"0","num_feature":"53","num_nodes":"5","size_leaf_vector":"1"}},{"base_weights":[-0E0,-8.77252E-2,8.7722845E-2],"categories":[],"categories_nodes":[],"categories_segments":[],"categories_sizes":[],"default_left":[0,0,0],"id":79,"left_children":[1,-1,-1],"loss_changes":[1.3749113E1,0E0,0E0],"parents":[2147483647,0,0],"right_children":[2,-1,-1],"split_conditions":[4E2,-8.77252E-2,8.7722845E-2],"split_indices":[1,0,0],"split_type":[0,0,0],"sum_hessian":[1.5866423E1,7.932102E0,7.9343204E0],"tree_param":{"num_deleted":"0","num_feature":"53","num_nodes":"3","size_leaf_vector":"1"}},{"base_weights":[-0E0,-8.6794935E-2,8.677606E-2],"categories":[],"categories_nodes":[],"categories_segments":[],"categories_sizes":[],"default_left":[0,0,0],"id":80,"left_children":[1,-1,-1],"loss_changes":[1.2506283E1,0E0,0E0],"parents":[2147483647,0,0],"right_children":[2,-1,-1],"split_conditions":[4E2,-8.6794935E-2,8.677606E-2],"split_indices":[1,0,0],"split_type":[0,0,0],"sum_hessian":[1.4604811E1,7.306466E0,7.298345E0],"tree_param":{"num_deleted":"0","num_feature":"53","num_nodes":"3","size_leaf_vector":"1"}},{"base_weights":[-0E0,-8.573133E-2,8.569251E-2],"categories":[],"categories_nodes":[],"categories_segments":[],"categories_sizes":[],"default_left":[0,0,0],"id":81,"left_children":[1,-1,-1],"loss_changes":[1.1287132E1,0E0,0E0],"parents":[2147483647,0,0],"right_children":[2,-1,-1],"split_conditions":[4E2,-8.573133E-2,8.569251E-2],"split_indices":[1,0,0],"split_type":[0,0,0],"sum_hessian":[1.3363882E1,6.691036E0,6.6728463E0],"tree_param":{"num_deleted":"0","num_feature":"53","num_nodes":"3","size_leaf_vector":"1"}},{"base_weights":[-0E0,-8.4579624E-2,8.4485166E-2],"categories":[],"categories_nodes":[],"categories_segments":[],"categories_sizes":[],"default_left":[0,0,0],"id":82,"left_children":[1,-1,-1],"loss_changes":[1.014519E1,0E0,0E0],"parents":[2147483647,0,0],"right_children":[2,-1,-1],"split_conditions":[4E2,-8.4579624E-2,8.4485166E-2],"split_indices":[1,0,0],"split_type":[0,0,0],"sum_hessian":[1.2197515E1,6.1193776E0,6.0781364E0],"tree_param":{"num_deleted":"0","num_feature":"53","num_nodes":"3","size_leaf_vector":"1"}},{"base_weights":[-0E0,-8.349811E-2,8.367663E-2],"categories":[],"categories_nodes":[],"categories_segments":[],"categories_sizes":[],"default_left":[0,0,0],"id":83,"left_children":[1,-1,-1],"loss_changes":[9.350975E0,0E0,0E0],"parents":[2147483647,0,0],"right_children":[2,-1,-1],"split_conditions":[4E2,-8.349811E-2,8.367663E-2],"split_indices":[1,0,0],"split_type":[0,0,0],"sum_hessian":[1.1383507E1,5.6546173E0,5.7288895E0],"tree_param":{"num_deleted":"0","num_feature":"53","num_nodes":"3","size_leaf_vector":"1"}},{"base_weights":[-0E0,-8.22495E-2,8.230909E-2],"categories":[],"categories_nodes":[],"categories_segments":[],"categories_sizes":[],"default_left":[0,0,0],"id":84,"left_children":[1,-1,-1],"loss_changes":[8.393684E0,0E0,0E0],"parents":[2147483647,0,0],"right_children":[2,-1,-1],"split_conditions":[4E2,-8.22495E-2,8.230909E-2],"split_indices":[1,0,0],"split_type":[0,0,0],"sum_hessian":[1.0398549E1,5.188319E0,5.2102294E0],"tree_param":{"num_deleted":"0","num_feature":"53","num_nodes":"3","size_leaf_vector":"1"}},{"base_weights":[-0E0,1.6779156E-2,-3.1130929E-2],"categories":[],"categories_nodes":[],"categories_segments":[],"categories_sizes":[],"default_left":[0,0,0],"id":85,"left_children":[1,-1,-1],"loss_changes":[6.084678E-1,0E0,0E0],"parents":[2147483647,0,0],"right_children":[2,-1,-1],"split_conditions":[1.8156084E-1,1.6779156E-2,-3.1130929E-2],"split_indices":[18,0,0],"split_type":[0,0,0],"sum_hessian":[9.548834E0,6.428356E0,3.120478E0],"tree_param":{"num_deleted":"0","num_feature":"53","num_nodes":"3","size_leaf_vector":"1"}},{"base_weights":[-0E0,-8.081876E-2,8.09664E-2],"categories":[],"categories_nodes":[],"categories_segments":[],"categories_sizes":[],"default_left":[0,0,0],"id":86,"left_children":[1,-1,-1],"loss_changes":[7.5262117E0,0E0,0E0],"parents":[2147483647,0,0],"right_children":[2,-1,-1],"split_conditions":[4E2,-8.081876E-2,8.09664E-2],"split_indices":[1,0,0],"split_type":[0,0,0],"sum_hessian":[9.501531E0,4.7281084E0,4.773422E0],"tree_param":{"num_deleted":"0","num_feature":"53","num_nodes":"3","size_leaf_vector":"1"}},{"base_weights":[-0E0,-7.9689436E-2,7.966145E-2],"categories":[],"categories_nodes":[],"categories_segments":[],"categories_sizes":[],"default_left":[0,0,0],"id":87,"left_children":[1,-1,-1],"loss_changes":[6.864909E0,0E0,0E0],"parents":[2147483647,0,0],"right_children":[2,-1,-1],"split_conditions":[4E2,-7.9689436E-2,7.966145E-2],"split_indices":[1,0,0],"split_type":[0,0,0],"sum_hessian":[8.813984E0,4.410243E0,4.4037404E0],"tree_param":{"num_deleted":"0","num_feature":"53","num_nodes":"3","size_leaf_vector":"1"}},{"base_weights":[-0E0,-7.8178E-2,7.820424E-2],"categories":[],"categories_nodes":[],"categories_segments":[],"categories_sizes":[],"default_left":[0,0,0],"id":88,"left_children":[1,-1,-1],"loss_changes":[6.16247E0,0E0,0E0],"parents":[2147483647,0,0],"right_children":[2,-1,-1],"split_conditions":[4E2,-7.8178E-2,7.820424E-2],"split_indices":[1,0,0],"split_type":[0,0,0],"sum_hessian":[8.07952E0,4.0363784E0,4.0431423E0],"tree_param":{"num_deleted":"0","num_feature":"53","num_nodes":"3","size_leaf_vector":"1"}},{"base_weights":[-0E0,-7.697143E-2,7.666849E-2],"categories":[],"categories_nodes":[],"categories_segments":[],"categories_sizes":[],"default_left":[0,0,0],"id":89,"left_children":[1,-1,-1],"loss_changes":[5.597433E0,0E0,0E0],"parents":[2147483647,0,0],"right_children":[2,-1,-1],"split_conditions":[4E2,-7.697143E-2,7.666849E-2],"split_indices":[1,0,0],"split_type":[0,0,0],"sum_hessian":[7.4847975E0,3.7730277E0,3.71177E0],"tree_param":{"num_deleted":"0","num_feature":"53","num_nodes":"3","size_leaf_vector":"1"}},{"base_weights":[-0E0,9.82141E-3,-1.2154713E-2],"categories":[],"categories_nodes":[],"categories_segments":[],"categories_sizes":[],"default_left":[0,0,0],"id":90,"left_children":[1,-1,-1],"loss_changes":[1.0699598E-1,0E0,0E0],"parents":[2147483647,0,0],"right_children":[2,-1,-1],"split_conditions":[1.4421654E-1,9.82141E-3,-1.2154713E-2],"split_indices":[18,0,0],"split_type":[0,0,0],"sum_hessian":[6.9425864E0,3.8987224E0,3.043864E0],"tree_param":{"num_deleted":"0","num_feature":"53","num_nodes":"3","size_leaf_vector":"1"}},{"base_weights":[-0E0,-7.537295E-2,7.536731E-2],"categories":[],"categories_nodes":[],"categories_segments":[],"categories_sizes":[],"default_left":[0,0,0],"id":91,"left_children":[1,-1,-1],"loss_changes":[5.0710783E0,0E0,0E0],"parents":[2147483647,0,0],"right_children":[2,-1,-1],"split_conditions":[4E2,-7.537295E-2,7.536731E-2],"split_indices":[1,0,0],"split_type":[0,0,0],"sum_hessian":[6.9269233E0,3.4636912E0,3.4632323E0],"tree_param":{"num_deleted":"0","num_feature":"53","num_nodes":"3","size_leaf_vector":"1"}},{"base_weights":[-0E0,-7.390674E-2,7.395141E-2],"categories":[],"categories_nodes":[],"categories_segments":[],"categories_sizes":[],"default_left":[0,0,0],"id":92,"left_children":[1,-1,-1],"loss_changes":[4.609726E0,0E0,0E0],"parents":[2147483647,0,0],"right_children":[2,-1,-1],"split_conditions":[4E2,-7.390674E-2,7.395141E-2],"split_indices":[1,0,0],"split_type":[0,0,0],"sum_hessian":[6.434207E0,3.2132778E0,3.2209294E0],"tree_param":{"num_deleted":"0","num_feature":"53","num_nodes":"3","size_leaf_vector":"1"}},{"base_weights":[-0E0],"categories":[],"categories_nodes":[],"categories_segments":[],"categories_sizes":[],"default_left":[0],"id":93,"left_children":[-1],"loss_changes":[0E0],"parents":[2147483647],"right_children":[-1],"split_conditions":[-0E0],"split_indices":[0],"split_type":[0],"sum_hessian":[5.919708E0],"tree_param":{"num_deleted":"0","num_feature":"53","num_nodes":"1","size_leaf_vector":"1"}},{"base_weights":[-0E0],"categories":[],"categories_nodes":[],"categories_segments":[],"categories_sizes":[],"default_left":[0],"id":94,"left_children":[-1],"loss_changes":[0E0],"parents":[2147483647],"right_children":[-1],"split_conditions":[-0E0],"split_indices":[0],"split_type":[0],"sum_hessian":[5.9465923E0],"tree_param":{"num_deleted":"0","num_feature":"53","num_nodes":"1","size_leaf_vector":"1"}},{"base_weights":[-0E0],"categories":[],"categories_nodes":[],"categories_segments":[],"categories_sizes":[],"default_left":[0],"id":95,"left_children":[-1],"loss_changes":[0E0],"parents":[2147483647],"right_children":[-1],"split_conditions":[-0E0],"split_indices":[0],"split_type":[0],"sum_hessian":[5.921427E0],"tree_param":{"num_deleted":"0","num_feature":"53","num_nodes":"1","size_leaf_vector":"1"}},{"base_weights":[-0E0],"categories":[],"categories_nodes":[],"categories_segments":[],"categories_sizes":[],"default_left":[0],"id":96,"left_children":[-1],"loss_changes":[0E0],"parents":[2147483647],"right_children":[-1],"split_conditions":[-0E0],"split_indices":[0],"split_type":[0],"sum_hessian":[5.9443526E0],"tree_param":{"num_deleted":"0","num_feature":"53","num_nodes":"1","size_leaf_vector":"1"}},{"base_weights":[-0E0],"categories":[],"categories_nodes":[],"categories_segments":[],"categories_sizes":[],"default_left":[0],"id":97,"left_children":[-1],"loss_changes":[0E0],"parents":[2147483647],"right_children":[-1],"split_conditions":[-0E0],"split_indices":[0],"split_type":[0],"sum_hessian":[5.956466E0],"tree_param":{"num_deleted":"0","num_feature":"53","num_nodes":"1","size_leaf_vector":"1"}},{"base_weights":[-0E0],"categories":[],"categories_nodes":[],"categories_segments":[],"categories_sizes":[],"default_left":[0],"id":98,"left_children":[-1],"loss_changes":[0E0],"parents":[2147483647],"right_children":[-1],"split_conditions":[-0E0],"split_indices":[0],"split_type":[0],"sum_hessian":[5.903716E0],"tree_param":{"num_deleted":"0","num_feature":"53","num_nodes":"1","size_leaf_vector":"1"}},{"base_weights":[-0E0],"categories":[],"categories_nodes":[],"categories_segments":[],"categories_sizes":[],"default_left":[0],"id":99,"left_children":[-1],"loss_changes":[0E0],"parents":[2147483647],"right_children":[-1],"split_conditions":[-0E0],"split_indices":[0],"split_type":[0],"sum_hessian":[5.9618964E0],"tree_param":{"num_deleted":"0","num_feature":"53","num_nodes":"1","size_leaf_vector":"1"}}]},"name":"gbtree"},"learner_model_param":{"base_score":"4.976478E-1","boost_from_average":"1","num_class":"0","num_feature":"53","num_target":"1"},"objective":{"name":"binary:logistic","reg_loss_param":{"scale_pos_weight":"3"}}},"version":[2,0,3]}