{"learner":{"attributes":{"best_iteration":"0","best_score":"0.0","scikit_learn":"{\"_estimator_type\": \"classifier\"}"},"feature_names":["hour_of_day","day_of_week","is_business_hours","status_code","port","text_0","text_1","text_2","text_3","text_4","text_5","text_6","text_7","text_8","text_9","text_10","text_11","text_12","text_13","text_14","text_15","text_16","text_17","text_18","text_19","text_20","text_21","text_22","text_23","text_24"],"feature_types":["int","int","i","int","int","float","float","float","float","float","float","float","float","float","float","float","float","float","float","float","float","float","float","float","float","float","float","float","float","float"],"gradient_booster":{"model":{"gbtree_model_param":{"num_parallel_tree":"1","num_trees":"11"},"iteration_indptr":[0,1,2,3,4,5,6,7,8,9,10,11],"tree_info":[0,0,0,0,0,0,0,0,0,0,0],"trees":[{"base_weights":[4.0043294E-3,-2.0046046E-1,1.9950186E-1],"categories":[],"categories_nodes":[],"categories_segments":[],"categories_sizes":[],"default_left":[0,0,0],"id":0,"left_children":[1,-1,-1],"loss_changes":[8.4046055E4,0E0,0E0],"parents":[2147483647,0,0],"right_children":[2,-1,-1],"split_conditions":[4E2,-2.0046046E-1,1.9950186E-1],"split_indices":[3,0,0],"split_type":[0,0,0],"sum_hessian":[2.1013879E4,1.046069E4,1.0553189E4],"tree_param":{"num_deleted":"0","num_feature":"30","num_nodes":"3","size_leaf_vector":"1"}},{"base_weights":[-6.582623E-3,-1.8221025E-1,1.8150362E-1],"categories":[],"categories_nodes":[],"categories_segments":[],"categories_sizes":[],"default_left":[0,0,0],"id":1,"left_children":[1,-1,-1],"loss_changes":[6.879446E4,0E0,0E0],"parents":[2147483647,0,0],"right_children":[2,-1,-1],"split_conditions":[4E2,-1.8221025E-1,1.8150362E-1],"split_indices":[3,0,0],"split_type":[0,0,0],"sum_hessian":[2.0799516E4,1.0417225E4,1.0382292E4],"tree_param":{"num_deleted":"0","num_feature":"30","num_nodes":"3","size_leaf_vector":"1"}},{"base_weights":[3.5509275E-4,-1.685139E-1,1.6797315E-1],"categories":[],"categories_nodes":[],"categories_segments":[],"categories_sizes":[],"default_left":[0,0,0],"id":2,"left_children":[1,-1,-1],"loss_changes":[5.7397926E4,0E0,0E0],"parents":[2147483647,0,0],"right_children":[2,-1,-1],"split_conditions":[4E2,-1.685139E-1,1.6797315E-1],"split_indices":[3,0,0],"split_type":[0,0,0],"sum_hessian":[2.0275807E4,1.011944E4,1.0156367E4],"tree_param":{"num_deleted":"0","num_feature":"30","num_nodes":"3","size_leaf_vector":"1"}},{"base_weights":[2.862294E-3,-1.5788637E-1,1.5746062E-1],"categories":[],"categories_nodes":[],"categories_segments":[],"categories_sizes":[],"default_left":[0,0,0],"id":3,"left_children":[1,-1,-1],"loss_changes":[4.8539035E4,0E0,0E0],"parents":[2147483647,0,0],"right_children":[2,-1,-1],"split_conditions":[4E2,-1.5788637E-1,1.5746062E-1],"split_indices":[3,0,0],"split_type":[0,0,0],"sum_hessian":[1.952242E4,9.730277E3,9.792143E3],"tree_param":{"num_deleted":"0","num_feature":"30","num_nodes":"3","size_leaf_vector":"1"}},{"base_weights":[9.797234E-4,-7.1273303E-1,1.4255463E0,1.6397384E-1,-1.2986373E0,1.4907748E-1,-7.629711E-1,1.2015353E0,-1.4936338E-1,-1.473716E0,1.2644423E-3,-5.239163E-1,-1.459423E-1,3.6994215E-2,1.4903893E-1,-1.0287158E0,-1.4942119E-1,1.4874516E-1,-1.4908572E-1,-6.093196E-1,-2.9508278E-1,1.6154816E-2,-1.460417E-1,1.4564936E-1,-1.4880158E-1,-5.1527716E-2,-9.8010294E-2,1.9725368E-3,-3.935576E-2],"categories":[],"categories_nodes":[],"categories_segments":[],"categories_sizes":[],"default_left":[0,0,0,0,0,0,0,0,0,0,0,0,0,0,0,0,0,0,0,0,0,0,0,0,0,0,0,0,0],"id":4,"left_children":[1,3,5,7,9,-1,11,13,-1,15,17,19,-1,21,-1,23,-1,-1,-1,25,27,-1,-1,-1,-1,-1,-1,-1,-1],"loss_changes":[1.8949953E4,6.3785264E3,8.8928613E2,8.557985E3,1.694084E3,0E0,2.9116463E1,1.029227E3,0E0,5.8039062E1,1.9634788E3,2.3909035E0,0E0,1.13748314E2,0E0,3.3575754E2,0E0,0E0,0E0,2.7592506E0,1.2623861E0,0E0,0E0,0E0,0E0,0E0,0E0,0E0,0E0],"parents":[2147483647,0,0,1,1,2,2,3,3,4,4,6,6,7,7,9,9,10,10,11,11,13,13,15,15,19,19,20,20],"right_children":[2,4,6,8,10,-1,12,14,-1,16,18,20,-1,22,-1,24,-1,-1,-1,26,28,-1,-1,-1,-1,-1,-1,-1,-1],"split_conditions":[3.4310338E-1,2.0511554E-1,7.2473043E-1,3.513178E-1,3.7675628E-1,1.4907748E-1,3.5891125E-1,2.9457876E-1,-1.4936338E-1,2.1298984E-1,3.898437E-1,5E0,-1.459423E-1,7.3821175E-1,1.4903893E-1,3.513178E-1,-1.4942119E-1,1.4874516E-1,-1.4908572E-1,4E0,8E1,1.6154816E-2,-1.460417E-1,1.4564936E-1,-1.4880158E-1,-5.1527716E-2,-9.8010294E-2,1.9725368E-3,-3.935576E-2],"split_indices":[13,10,13,14,12,0,7,12,0,10,8,1,0,7,0,14,0,0,0,1,4,0,0,0,0,0,0,0,0],"split_type":[0,0,0,0,0,0,0,0,0,0,0,0,0,0,0,0,0,0,0,0,0,0,0,0,0,0,0,0,0],"sum_hessian":[1.8636045E4,1.241601E4,6.220034E3,4.973923E3,7.442087E3,6.040366E3,1.7966782E2,3.059314E3,1.9146089E3,6.5586685E3,8.8341846E2,1.3516777E2,4.4500046E1,6.083142E2,2.451E3,2.912469E2,6.267422E3,4.4262448E2,4.4079398E2,9.690281E1,3.826496E1,5.624858E2,4.5828403E1,4.505758E1,2.461893E2,7.9419014E1,1.7483793E1,9.066146E0,2.9198818E1],"tree_param":{"num_deleted":"0","num_feature":"30","num_nodes":"29","size_leaf_vector":"1"}},{"base_weights":[-8.812449E-5,-1.4283241E-1,1.4254867E-1],"categories":[],"categories_nodes":[],"categories_segments":[],"categories_sizes":[],"default_left":[0,0,0],"id":5,"left_children":[1,-1,-1],"loss_changes":[3.590268E4,0E0,0E0],"parents":[2147483647,0,0],"right_children":[2,-1,-1],"split_conditions":[4E2,-1.4283241E-1,1.4254867E-1],"split_indices":[3,0,0],"split_type":[0,0,0],"sum_hessian":[1.7631436E4,8.807531E3,8.823904E3],"tree_param":{"num_deleted":"0","num_feature":"30","num_nodes":"3","size_leaf_vector":"1"}},{"base_weights":[-6.7713886E-4,-1.3713056E-1,1.3689099E-1],"categories":[],"categories_nodes":[],"categories_segments":[],"categories_sizes":[],"default_left":[0,0,0],"id":6,"left_children":[1,-1,-1],"loss_changes":[3.1086242E4,0E0,0E0],"parents":[2147483647,0,0],"right_children":[2,-1,-1],"split_conditions":[4E2,-1.3713056E-1,1.3689099E-1],"split_indices":[3,0,0],"split_type":[0,0,0],"sum_hessian":[1.6557943E4,8.275861E3,8.282082E3],"tree_param":{"num_deleted":"0","num_feature":"30","num_nodes":"3","size_leaf_vector":"1"}},{"base_weights":[5.8070715E-3,-1.3236926E-1,1.3217261E-1],"categories":[],"categories_nodes":[],"categories_segments":[],"categories_sizes":[],"default_left":[0,0,0],"id":7,"left_children":[1,-1,-1],"loss_changes":[2.7184816E4,0E0,0E0],"parents":[2147483647,0,0],"right_children":[2,-1,-1],"split_conditions":[4E2,-1.3236926E-1,1.3217261E-1],"split_indices":[3,0,0],"split_type":[0,0,0],"sum_hessian":[1.5536499E4,7.728329E3,7.8081694E3],"tree_param":{"num_deleted":"0","num_feature":"30","num_nodes":"3","size_leaf_vector":"1"}},{"base_weights":[-6.0271723E-3,-6.095301E-1,1.219139E0,-1.21298E0,1.2809762E-1,1.2799929E-1,-6.9976157E-1,-1.2250443E0,1.2803796E-1,-5.133236E-1,-1.2451289E-1,-1.1837151E0,-1.2815195E-1,-4.858523E-3,-5.5022246E-1,-1.0629326E-1,-1.2813556E-1,-6.698903E-2,-4.0871985E-2],"categories":[],"categories_nodes":[],"categories_segments":[],"categories_sizes":[],"default_left":[0,0,0,0,0,0,0,0,0,0,0,0,0,0,0,0,0,0,0],"id":8,"left_children":[1,3,5,7,-1,-1,9,11,-1,13,-1,15,-1,-1,17,-1,-1,-1,-1],"loss_changes":[1.0662755E4,1.1024016E4,5.567012E2,2.2188965E2,0E0,0E0,1.4119919E1,1.5251953E1,0E0,1.8220367E0,0E0,4.8211914E1,0E0,0E0,1.3594112E0,0E0,0E0,0E0,0E0],"parents":[2147483647,0,0,1,1,2,2,3,3,6,6,7,7,9,9,11,11,14,14],"right_children":[2,4,6,8,-1,-1,10,12,-1,14,-1,16,-1,-1,18,-1,-1,-1,-1],"split_conditions":[3.4310338E-1,4.7811374E-1,7.2473043E-1,7.126525E-1,1.2809762E-1,1.2799929E-1,3.5891125E-1,2.954405E-1,1.2803796E-1,6E0,-1.2451289E-1,2.9343435E-1,-1.2815195E-1,-4.858523E-3,1.4E1,-1.0629326E-1,-1.2813556E-1,-6.698903E-2,-4.0871985E-2],"split_indices":[13,15,13,19,0,0,7,8,0,0,0,28,0,0,0,0,0,0,0],"split_type":[0,0,0,0,0,0,0,0,0,0,0,0,0,0,0,0,0,0,0],"sum_hessian":[1.4419065E4,9.660833E3,4.7582324E3,7.323562E3,2.337271E3,4.6123467E3,1.4588571E2,7.2888433E3,3.471849E1,1.1030255E2,3.558316E1,4.222502E3,3.066341E3,8.483264E0,1.0181929E2,1.893335E3,2.3291672E3,5.2759842E1,4.905945E1],"tree_param":{"num_deleted":"0","num_feature":"30","num_nodes":"19","size_leaf_vector":"1"}},{"base_weights":[2.58981E-4,-1.2510435E-1,1.250317E-1],"categories":[],"categories_nodes":[],"categories_segments":[],"categories_sizes":[],"default_left":[0,0,0],"id":9,"left_children":[1,-1,-1],"loss_changes":[2.1079836E4,0E0,0E0],"parents":[2147483647,0,0],"right_children":[2,-1,-1],"split_conditions":[4E2,-1.2510435E-1,1.250317E-1],"split_indices":[3,0,0],"split_type":[0,0,0],"sum_hessian":[1.3474428E4,6.7338213E3,6.7406064E3],"tree_param":{"num_deleted":"0","num_feature":"30","num_nodes":"3","size_leaf_vector":"1"}},{"base_weights":[-6.7396543E-4,-1.2215363E-1,1.220988E-1],"categories":[],"categories_nodes":[],"categories_segments":[],"categories_sizes":[],"default_left":[0,0,0],"id":10,"left_children":[1,-1,-1],"loss_changes":[1.8548512E4,0E0,0E0],"parents":[2147483647,0,0],"right_children":[2,-1,-1],"split_conditions":[4E2,-1.2215363E-1,1.220988E-1],"split_indices":[3,0,0],"split_type":[0,0,0],"sum_hessian":[1.2434304E4,6.219228E3,6.2150757E3],"tree_param":{"num_deleted":"0","num_feature":"30","num_nodes":"3","size_leaf_vector":"1"}}]},"name":"gbtree"},"learner_model_param":{"base_score":"5.011986E-1","boost_from_average":"1","num_class":"0","num_feature":"30","num_target":"1"},"objective":{"name":"binary:logistic","reg_loss_param":{"scale_pos_weight":"3"}}},"version":[2,0,3]}